tree
version=v4
num_class=1
num_tree_per_iteration=1
label_index=0
max_feature_idx=37
objective=regression
feature_names=lag_1 lag_2 lag_3 lag_4 lag_5 lag_6 lag_7 lag_8 lag_9 lag_10 lag_11 lag_12 lag_13 lag_14 lag_15 lag_16 lag_17 lag_18 lag_19 lag_20 lag_21 lag_22 lag_23 lag_24 lag_25 lag_26 lag_27 lag_28 lag_mean_7 lag_std_7 wday month promo_bin is_event discount avg_temp store_code prod_code
feature_infos=[0:25.647819519042969] [0:25.647819519042969] [0:25.647819519042969] [0:25.647819519042969] [0:25.647819519042969] [0:25.647819519042969] [0:25.647819519042969] [0:25.647819519042969] [0:25.647819519042969] [0:25.647819519042969] [0:25.647819519042969] [0:25.647819519042969] [0:25.647819519042969] [0:25.647819519042969] [0:25.647819519042969] [0:25.647819519042969] [0:25.647819519042969] [0:25.647819519042969] [0:25.647819519042969] [0:25.647819519042969] [0:25.647819519042969] [0:25.647819519042969] [0:25.647819519042969] [0:25.647819519042969] [0:25.647819519042969] [0:25.647819519042969] [0:25.647819519042969] [0:25.647819519042969] [0:13.020238195146833] [0:9.5103782918648747] -1:3:4:0:1:2:5:6 -1:5:6:4 -1:2:1 -1:0:1 [0.31799998879432678:1] [18.360000610351562:29.709999084472656] -1:109:164:205:318:317:91:25:40:333:349:494:52:68:324:350:229:151:287:336:418:450:132:261:266:320:142:194:223:238:256:299:402:3:130:319:43:366:462:4:20:64:78:136:149:173:183:301:391:423:441:484:11:26:31:50:76:108:254:297:300:477:422:66:118:214:387:18:79:83:86:88:100:200:208:222:251:277:303:325:331:345:380:407:448:469:478:62:65:116:134:157:184:236:248:263:291:308:313:323:338:364:372:388:401:431:437:453:458:467:475:486:32:41:45:69:133:135:137:196:212:237:241:343:365:389:487:46:53:97:115:121:128:152:158:172:182:207:221:224:230:329:334:340:430:452:460:480:485:492:0:1:8:19:22:38:58:72:85:87:94:96:102:120:122:139:141:161:163:174:175:177:192:193:209:226:239:244:249:262:289:305:306:315:321:326:335:346:347:360:362:363:384:385:397:412:454:465:468:473:482:483:488:493:14:23:24:29:30:35:44:57:70:81:84:93:123:124:125:127:129:138:144:154:181:186:187:204:210:215:219:220:225:228:232:233:234:252:253:271:285:293:309:322:332:351:353:354:399:410:420:421:428:455:457:459:466:470:476:479:2:6:7:13:15:16:27:33:49:55:67:73:74:75:77:82:89:92:95:98:104:105:106:107:110:111:113:114:117:146:156:160:165:167:178:185:188:189:195:197:198:203:211:213:217:235:240:247:250:259:260:264:278:279:281:286:288:292:295:296:307:312:341:342:348:352:355:358:359:367:368:369:371:375:377:379:381:386:390:393:395:396:398:403:409:411:419:424:432:440:443:445:456:461:481:490:491:5:9:10:12:17:21:28:34:36:37:39:42:47:48:51:54:56:59:60:61:63:71:80:90:99:101:103:112:119:126:131:140:143:145:147:148:150:153:155:159:162:166:168:169:170:171:176:179:180:190:191:199:201:202:206:216:218:227:231:242:243:245:246:255:257:258:265:267:268:269:270:272:273:274:275:276:280:282:283:284:290:294:298:302:304:310:311:314:316:327:328:330:337:339:344:356:357:361:370:373:374:376:378:382:383:392:394:400:404:405:406:408:413:414:415:416:417:425:426:427:429:433:434:435:436:438:439:442:444:446 -1:21:6:85:43:2:76:50:73:72:11:84:79:82:83:81:4:35:8:59:69:0:41:7:31:30:17:66:58:9:80:24:48:44:26:75:70:5:40:57:32:55:1:14:19:15:18:36:71:27:47:53:78:54:60:68:28:52:13:37:46:56:64:25:29:62:65:10:22:33:51:67:74:86:3:12:16:20:23:34:38:39:42:45:49:61:63:77
tree_sizes=3344 3403 3260 3564 3828 3886 3872 3477 3442 3756 3602 3573 3782 3925 3603 3782 4208 3610 4283 4097 4218 3887 4157 3769 3974 4023 3920 4189 4101 4096 4066 4239 4142 4106 4236 4390 4420 4262 4178 4241 3936 4345 4061 4021 4240 4121 4441 4224 4072 4355 3990 4172 4366 4233 4493 4400 4184 4071 3995 4170 4319 4013 3634 4465 4490 4051 3993 3742 3818 3703 4706 3772 4026 3943 4158 3582 4173 3902 3953 4126 3668 3534 3961 3854 3896 4260 3896 3948 3699 3681 4044 3467 3725 4054 3910 3895 4203 3695 3631 4155 4036 3963 3867 3742 3943 4052 3870 3672 3470 4284 3775 4398 3872 3954 3755 3956 4061 3952 4091 3574 4459 3835 3965 4175 3259

Tree=0
num_leaves=31
num_cat=23
split_feature=28 9 28 37 28 30 30 28 37 37 37 37 37 30 30 37 34 28 37 30 37 30 36 36 36 36 36 36 30 37
split_gain=1240.17 307.956 176.965 176.004 109.368 93.0059 73.4348 64.1143 63.0071 57.3793 46.8816 38.6619 38.4936 36.79 32.9041 29.1326 27.819 25.7945 24.2956 20.8052 20.1737 20.1071 17.6652 16.435 15.559 15.1337 15.0544 13.8946 13.3748 12.7724
threshold=2.7285715213843758 4.1000621318817148 2.0500135421752934 0 4.6190435886383066 1 2 3.5857143572398598 3 4 5 6 7 8 9 10 0.58550000190734874 6.6179322855813174 11 12 13 14 15 16 17 18 19 20 21 22
decision_type=2 2 2 9 2 1 1 2 9 9 9 9 9 1 1 9 2 2 9 1 9 1 9 9 9 9 9 9 1 9
left_child=2 3 5 10 11 12 15 13 22 20 21 -3 -1 -5 18 -4 -11 -6 -12 -13 -7 -2 -8 -10 -16 -15 -9 -18 -25 -14
right_child=1 4 6 7 17 9 8 26 23 16 14 19 29 25 24 -17 27 -19 -20 -21 -22 -23 -24 28 -26 -27 -28 -29 -30 -31
leaf_value=1.1904742349524517 1.1787488252188587 1.1810146762736655 1.1819017441170592 1.1995599444402347 1.2147162696209017 1.1654100278279564 1.1825574117473479 1.207923990748405 1.1909106267970722 1.1938197563370487 1.207149116566036 1.2066122386151867 1.1732280519690712 1.1822840430784636 1.1874755519212552 1.1910864612677843 1.1706681395713887 1.2311496014190539 1.1845196967978475 1.1968052081477243 1.171989358116194 1.1570829392817998 1.1734183958831392 1.1843993366159626 1.1782931172826627 1.1911569911505175 1.1989072751353673 1.1770729873177603 1.1798997669662499 1.1806824885732428
leaf_weight=956 227 213 1183 1354 1122 1783 692 770 652 226 229 1731 698 537 666 3104 1045 324 255 986 4608 248 2748 4269 1429 4022 1937 6113 2665 3608
leaf_count=956 227 213 1183 1354 1122 1783 692 770 652 226 229 1731 698 537 666 3104 1045 324 255 986 4608 248 2748 4269 1429 4022 1937 6113 2665 3608
internal_value=1.18435 1.19583 1.17899 1.19158 1.20715 1.17577 1.183 1.19523 1.18084 1.17361 1.18128 1.20156 1.18146 1.19231 1.18398 1.18854 1.17666 1.21843 1.19557 1.20313 1.17012 1.167 1.17523 1.1834 1.18124 1.1901 1.20163 1.1761 1.18267 1.17944
internal_weight=50400 16050 34350 11674 4376 19037 15313 8620 11026 13775 3054 2930 5262 5913 2579 4287 7384 1446 484 2717 6391 475 3440 7586 2095 4559 2707 7158 6934 4306
internal_count=50400 16050 34350 11674 4376 19037 15313 8620 11026 13775 3054 2930 5262 5913 2579 4287 7384 1446 484 2717 6391 475 3440 7586 2095 4559 2707 7158 6934 4306
cat_boundaries=0 3 4 5 8 11 14 17 20 21 22 25 28 29 31 32 48 63 78 93 109 125 126 129
cat_threshold=822216880 136412121 856262 6 6 2349338801 408992568 2441862 171975417 2688588328 2253444 0 8 262144 133120 167784456 299008 2149711876 10488065 262560 6 6 1024198784 480313864 856064 131088 2305 4164 14 184 2147518472 46 570427392 1065349 16384 64 0 16 1048576 20496 1048576 34 1212686336 2147483648 40 4194368 1 32 10264 64 272 268443648 2097156 8519746 264 268435968 2098240 2560 32 8480 134217732 0 8192 536872976 1 20512 269484032 0 1296 0 0 1050656 2684357122 16 1280 0 33636480 540932 16 537919745 18874376 132096 142606336 469762048 32768 0 536870912 512 3221225472 2147811360 335544336 8388624 4718624 67125248 68161544 2147491846 8720 16 25165824 8320 1140850720 2147483648 1087488 24 0 8388608 0 536870913 2 553648128 1073741832 64 34078720 16793608 64 5 4096 268439553 520 41943040 34082816 50339840 33556512 0 4104 56 1572992 67109400 16392
is_linear=0
shrinkage=1


Tree=1
num_leaves=31
num_cat=23
split_feature=28 9 37 28 28 30 30 28 37 37 37 37 30 37 30 37 34 2 30 37 37 30 30 36 36 37 36 37 36 30
split_gain=1120.88 287.129 165.028 149.298 100.467 74.5573 71.9443 60.8289 58.9042 48.167 44.8025 38.6289 31.8796 30.6941 29.7151 29.5948 24.8796 23.6233 19.1575 18.1392 17.6507 17.3654 16.5789 16.3102 16.0977 15.484 13.4363 12.1272 11.841 11.4672
threshold=2.6944412120750978 4.1000621318817148 0 1.9714285773890361 4.6190435886383066 1 2 3.4755236932209566 3 4 5 6 7 8 9 10 0.67950001358985912 6.50000023841858 11 12 13 14 15 16 17 18 19 20 21 22
decision_type=2 2 9 2 2 1 1 2 9 9 9 9 1 9 1 9 2 2 1 9 9 1 1 9 9 9 9 9 9 1
left_child=3 2 10 5 11 13 15 12 23 25 21 -3 -4 -1 -12 -5 20 -6 -13 -10 -11 -2 -9 -8 -16 -7 -24 -15 -14 -21
right_child=1 4 7 6 17 9 8 22 19 16 14 18 28 27 24 -17 -18 -19 -20 29 -22 -23 26 -25 -26 -27 -28 -29 -30 -31
leaf_value=0.0053548765900789802 -0.023720591431031314 -0.0046938284167532471 0.013826037870552555 -0.0033381823802969123 0.027386646423929746 -0.018611794067793046 -0.0065609206310588532 0.02402079188166481 -0.012996881579135568 -0.003961646873104469 0.01561196192807115 0.021039242790959901 0.011087208170016358 -0.0091928588213344379 -0.0085500283009684024 0.0056573524718248752 -0.0088733076780148946 0.041035572141364579 0.011737634168627458 -0.0031802102995634354 0.012881067120106646 -0.0057932297775995225 0.020805559229893637 0.0012755397006432431 0.00056515706360639472 -0.012323009841453455 0.011669234378225049 -0.0030708823890672394 0.0038617361608345685 -0.0077090095926567528
leaf_weight=853 304 204 1358 1224 921 1578 771 553 1065 543 258 1780 684 1227 657 3499 6087 525 1003 2516 206 293 594 4415 1740 3756 2008 2571 3763 3444
leaf_count=853 304 204 1358 1224 921 1578 771 553 1065 543 258 1780 684 1227 657 3499 6087 525 1003 2516 206 293 594 4415 1740 3756 2008 2571 3763 3444
internal_value=0 0.0106186 0.00665609 -0.00523596 0.0215233 -0.00857324 -0.00191799 0.0101525 -0.00394498 -0.0106309 -0.00298389 0.0162524 0.00711092 -0.00314874 -0.00016129 0.0033134 -0.00780314 0.0323767 0.0177588 -0.00692705 0.00072299 -0.0152448 0.0157651 9.04896e-05 -0.00193762 -0.0142242 0.0138457 -0.00508075 0.0050067 -0.00581409
internal_weight=50400 16645 12212 33755 4433 16821 16934 8960 12211 12170 3252 2987 5805 4651 2655 4723 6836 1446 2783 7025 749 597 3155 5186 2397 5334 2602 3798 4447 5960
internal_count=50400 16645 12212 33755 4433 16821 16934 8960 12211 12170 3252 2987 5805 4651 2655 4723 6836 1446 2783 7025 749 597 3155 5186 2397 5334 2602 3798 4447 5960
cat_boundaries=0 3 4 5 8 11 14 17 18 21 22 25 26 29 32 33 34 50 65 67 82 85 101 102
cat_threshold=285345968 140606425 856262 6 6 1361183238 1116160069 1180016 440410872 2688653320 2245124 0 20616 262146 133120 167784456 266240 6 2149581316 44042496 262529 4 1024198656 513802264 856194 14 2214592512 268470568 262144 2097156 262144 8 81 6 134234112 0 0 65536 134414400 2097152 2147876864 262157 384 4 268435712 134250512 536871938 536870916 268435456 4100 4 270976 33554448 0 73988 21495808 537001984 268436544 270533632 1073741824 4390912 16384 131072 16908352 536870912 184 2147485704 67108864 68161544 2147491842 528 16 16777216 8320 32 2147483648 5281792 24 0 131072 0 536870913 135790768 872452634 20488 2088 2048 8389632 34603008 536870913 8388624 1073741840 0 17301504 64 536895536 512 1074004096 0 536872960 129 24
is_linear=0
shrinkage=0.05


Tree=2
num_leaves=31
num_cat=21
split_feature=28 9 37 28 28 30 28 37 37 37 37 30 37 30 30 34 28 37 30 2 30 28 36 37 36 36 30 37 31 30
split_gain=1012.28 259.146 149.232 136.188 90.5951 81.4012 56.804 51.9922 50.5673 38.7677 34.9524 34.7706 33.2672 32.0454 26.8328 25.9212 22.1809 18.6595 18.4463 17.8681 17.1905 16.1281 15.2356 14.4447 13.2928 13.0601 12.5005 12.3866 11.494 10.5928
threshold=2.6944412120750978 4.1000621318817148 0 2.1073509199278697 4.6190435886383066 1 3.5857143572398598 2 3 4 5 6 7 8 9 0.67950001358985912 6.6179322855813174 10 11 4.1000621318817148 12 1.3947669916919303 13 14 15 16 17 18 19 20
decision_type=2 2 9 2 2 1 2 9 9 9 9 1 9 1 1 2 2 9 1 2 1 2 9 9 9 9 1 9 1 1
left_child=3 2 9 5 10 12 13 18 21 20 -3 -9 -1 -4 -11 23 -6 -13 -5 -12 -2 -7 -16 -10 -15 -8 28 -14 -17 -27
right_child=1 4 6 7 16 8 25 11 15 14 19 17 27 24 22 26 -18 -19 -20 -21 -22 -23 -24 -25 -26 29 -28 -29 -30 -31
leaf_value=0.0050929059826425351 -0.0052691529947900924 -0.0044701038942472123 0.01340329703200052 0.0058369996206314939 0.027306304111082355 -0.018662840348876407 0.021912930945159292 0.0017309459262153095 0.01017140270722117 0.014389037323837653 0.013405544932486399 -0.012154431585439667 -0.0085548079513134059 0.010986576924149925 0.0031244906630553495 -0.012059265950157553 0.042564086244085142 -0.0044563798776877635 0.00010671352564711827 0.021660144987323555 -0.024936096642493036 -0.01193609815633688 -0.0053918620695924914 -0.0032141823220614625 0.0037988837845570039 0.021248304664588578 -0.0099342677358626313 -0.0026831474509457763 -0.0046347140702803274 0.011291211797049276
leaf_weight=1163 236 204 1481 2458 1122 1203 686 2047 245 253 1598 987 1267 777 787 647 324 4281 3313 1185 258 3928 1515 947 4171 379 4971 3302 2996 1669
leaf_count=1163 236 204 1481 2458 1122 1203 686 2047 245 253 1598 987 1267 777 787 647 324 4281 3313 1185 258 3928 1515 947 4171 379 4971 3302 2996 1669
internal_value=0 0.0100915 0.0063267 -0.00497543 0.0204514 -0.00750284 0.00951039 -0.000979628 -0.00944599 -0.00324522 0.0154445 -0.0037788 -0.0024098 0.00693948 -0.000720489 -0.00730978 0.0307596 -0.00592844 0.0025619 0.0168777 -0.0159307 -0.0134967 -0.00245777 -0.000362638 0.00495756 0.0155724 -0.0082738 -0.00433743 -0.00595071 0.0132524
internal_weight=50400 16645 12212 33755 4433 20669 9163 13086 14937 3049 2987 7315 5732 6429 2555 9806 1446 5268 5771 2783 494 5131 2302 1192 4948 2734 8614 4569 3643 2048
internal_count=50400 16645 12212 33755 4433 20669 9163 13086 14937 3049 2987 7315 5732 6429 2555 9806 1446 5268 5771 2783 494 5131 2302 1192 4948 2734 8614 4569 3643 2048
cat_boundaries=0 3 4 7 10 13 16 17 20 21 22 25 26 27 42 45 61 77 78 81 82 83
cat_threshold=285345952 136412121 856262 6 1394737670 1074217029 1180016 4203256 2688587816 2122240 0 8 262144 133120 167784456 266240 6 2149711876 8390913 1311104 6 4 2214592640 268441864 262144 22 46 570427408 1 134221824 269492224 2097152 1296 0 0 1050656 2684361218 16 1280 134217728 16512 525568 2048 0 295168 2088 2048 8913924 34603008 536870913 8388624 1073741824 0 17301504 8264 570449920 131584 1074004096 0 536872960 128 67125248 68161544 2147491846 8720 16 16777216 8320 1073741856 2147483648 1087488 24 0 8388608 0 1 2 24 270270624 872452634 20490 16 6
is_linear=0
shrinkage=0.05


Tree=3
num_leaves=31
num_cat=22
split_feature=28 2 28 37 30 36 30 37 37 28 30 37 37 37 37 34 30 16 28 37 36 36 36 36 28 30 36 37 37 30
split_gain=914.711 214.483 156.046 145.914 78.0355 71.6153 58.4544 50.8153 47.7793 39.8556 39.1961 34.4461 32.0441 25.1323 25.1004 23.7121 20.9721 20.656 16.3378 15.4793 13.6592 13.6486 13.1696 13.0447 12.7284 12.3775 12.3264 12.0028 11.7517 11.1005
threshold=2.81601004089628 4.4994952678680429 2.1352282251630514 0 1 2 3 4 5 3.5571429218564719 6 7 8 9 10 0.69650000333786022 11 6.8001606464385995 1.3947669916919303 12 13 14 15 16 3.8714286088943486 17 18 19 20 21
decision_type=2 2 2 9 1 9 1 9 9 2 1 9 9 9 9 2 1 2 2 9 9 9 9 9 2 1 9 9 9 1
left_child=2 3 4 11 12 17 14 23 18 16 24 -2 -1 -12 -4 19 -5 -3 -6 -10 -11 -9 -17 -8 -7 -23 -13 -14 -25 -24
right_child=1 5 6 9 8 10 7 21 15 20 13 26 27 -15 -16 22 -18 -19 -20 -21 -22 25 29 28 -26 -27 -28 -29 -30 -31
leaf_value=0.0049485986262464265 -0.017317321459210593 0.026630371677948756 -0.0026671369033102075 0.012994194805615528 -0.017689822737170045 0.016800642797113192 -0.0011638812809793004 -0.007052023325109083 0.011517155021554353 0.020249649737153944 0.015906500355747071 0.0038835275075328928 -0.011291681095263786 0.0014048983339616707 0.0069461025251086744 -0.01252150600867169 0.0056701953022032887 0.04128731302653918 -0.011118725704153148 -0.0028987257908381706 0.012244105071514542 0.0021340444685484156 -0.0044683534446646319 -0.020699590645157376 0.026783760620299281 -0.0021920189986190434 -0.004023067692993037 -0.0031096376461775752 -0.0085204772468261605 -0.0085463949360374599
leaf_weight=1250 383 908 856 1336 1249 699 553 649 213 888 620 761 505 602 3132 1260 4075 354 4445 1111 2032 4309 3049 237 666 2663 1346 4214 1867 4168
leaf_count=1250 383 908 856 1336 1249 699 553 649 213 888 620 761 505 602 3132 1260 4075 354 4445 1111 2032 4309 3049 237 666 2663 1346 4214 1867 4168
internal_value=8.54023e-08 0.0105134 -0.00431506 0.00690073 -0.00700901 0.020657 -0.000258355 -0.00225511 -0.00887948 0.0100695 0.0156382 -0.00370671 -0.00212663 0.00887248 0.00486866 -0.00673316 0.00752226 0.0305394 -0.0125469 -0.000476696 0.0148071 -0.000168996 -0.00771238 -0.00819685 0.0215503 0.000473743 -0.00113891 -0.00401783 -0.0100074 -0.00683901
internal_weight=50400 14670 35730 10821 21464 3849 14266 10278 15495 8331 2587 2490 5969 1222 3988 9801 5411 1262 5694 1324 2920 7621 8477 2657 1365 6972 2107 4719 2104 7217
internal_count=50400 14670 35730 10821 21464 3849 14266 10278 15495 8331 2587 2490 5969 1222 3988 9801 5411 1262 5694 1324 2920 7621 8477 2657 1365 6972 2107 4719 2104 7217
cat_boundaries=0 3 4 20 21 24 27 28 31 34 37 40 41 44 60 76 92 108 109 124 127 130 131
cat_threshold=805456000 136395673 823367 6 67109120 67112960 143366 8208 1040 16777472 1056768 4194560 2147483648 536870912 65536 16777218 8781824 67108865 16385 8192 6 2349338800 408976664 2441858 37757688 2688587816 2122380 6 0 8 262144 2149711876 8407297 1311104 1075872837 100925440 2048 755763200 209781256 331776 6 133120 0 262400 67109120 68161536 2147491860 8720 16 0 8320 290 2147483648 542119936 24 2 8388609 0 1 384 134217728 34078720 1048576 69648 134283328 4 167772160 262157 8 2113792 2415984640 16 1282 537001984 268435456 4 20972544 1090551816 64 37752844 1064968 0 6 4608 268439553 512 8388608 33554432 16785408 36 32 8 570951680 1065221 32768 65 0 0 65536 16 1 0 1757421568 2147483648 40 1088 33554433 32 56 536870928 2147483649 134222080 269484064 2098176 1296 0 2147483648 32 6656 4 1280 0 33702016 524545 269484160 24 16392 0 8 262144 24
is_linear=0
shrinkage=0.05


Tree=4
num_leaves=31
num_cat=20
split_feature=28 9 37 37 30 28 28 28 37 30 37 30 30 37 37 36 9 36 36 16 9 36 36 36 3 36 36 36 37 18
split_gain=827.878 215.857 124.066 112.944 75.3024 74.5929 44.8802 44.6054 34.8847 34.5836 29.8639 27.5735 23.5283 24.1388 23.1118 20.1906 20.0435 18.5321 17.1153 16.351 16.012 14.8002 14.5589 13.8955 13.5643 12.7625 12.7556 11.4844 10.4322 9.35883
threshold=2.6944412120750978 4.1000621318817148 0 1 2 4.6190435886383066 3.7351536154747014 1.7510655266898023 3 4 5 6 7 8 9 10 7.4946055412292489 11 12 4.4441723823547372 4.4000003337860116 13 14 15 2.3920729160308842 16 17 18 19 2.0996286869049077
decision_type=2 2 9 9 1 2 2 2 9 1 9 1 1 9 9 9 2 9 9 2 2 9 9 9 2 9 9 9 9 2
left_child=3 2 8 9 14 10 11 17 24 27 -3 -4 13 -10 20 -11 -7 -6 -9 -12 -5 -17 -16 -14 -2 -13 -20 -1 -27 -23
right_child=1 5 6 4 7 16 -8 18 12 15 19 25 23 -15 22 21 -18 -19 26 -21 -22 29 -24 -25 -26 28 -28 -29 -30 -31
leaf_value=-0.0031116449397912763 -0.0036157145629528843 -0.0042520743998735542 0.012639685256248621 0.00070805844663697579 -0.018326087032610169 0.024505700241809595 0.015072073529839311 -0.01338341665331487 0.022285220506428571 -0.0084494353922308675 0.012284175676507397 -0.0021346358693152281 0.0042118598222993476 0.00020922589125198468 -0.011695950894111041 0.0062105661171675351 0.038668583839680859 -0.010405239410918808 -0.00026965884227901849 0.020292185263912715 0.014907712868245488 -0.0038066325904625334 -0.0029309630053704953 -0.0047819354536732051 -0.019482410553018539 0.0074850026953507164 -0.0062884698904645351 0.0056132147162577042 0.0023301096196424037 7.6350937063898372e-05
leaf_weight=432 224 206 1542 2146 936 1099 2153 793 206 1049 1697 555 570 312 551 631 347 5185 1012 1084 220 2941 3499 1622 374 3135 8601 2526 1519 3233
leaf_count=432 224 206 1542 2146 936 1099 2153 793 206 1049 1697 555 570 312 551 631 347 5185 1012 1084 220 2941 3499 1622 374 3135 8601 2526 1519 3233
internal_value=0 0.00912656 0.00569009 -0.00449909 -0.0064833 0.0185821 0.00875746 -0.00827019 -0.0025698 -0.000277738 0.0140357 0.00674919 -0.00012142 0.00933897 -0.00186694 -0.00201748 0.027939 -0.0116716 -0.00627258 0.0153683 0.0020409 -0.0010077 -0.00416162 -0.00241201 -0.0133986 0.00496206 -0.00566098 0.00431596 0.00582184 -0.00176236
internal_weight=50400 16645 12212 33755 22943 4433 8904 16527 3308 10812 2987 6751 2710 518 6416 7854 1446 6121 10406 2781 2366 6805 4050 2192 598 5209 9613 2958 4654 6174
internal_count=50400 16645 12212 33755 22943 4433 8904 16527 3308 10812 2987 6751 2710 518 6416 7854 1446 6121 10406 2781 2366 6805 4050 2192 598 5209 9613 2958 4654 6174
cat_boundaries=0 3 6 7 10 11 14 15 16 19 22 38 51 67 83 99 114 129 144 159 162
cat_threshold=285345968 148995033 856262 1612841222 1119306821 1311088 6 0 20616 327680 6 2048 167784456 299008 6 6 16 2305 4164 2181059169 4196608 164485 138412032 1093664776 0 2695168 268501000 268697600 262176 524329 16384 262144 41943040 536870912 8388864 32 0 4096 1280 64 16384 135266305 8388608 0 1048576 286271024 1024 101724672 1073752066 0 2097152 1048640 0 33554560 4096 1073742865 524288 4 134218752 16 0 10485760 39845888 83894272 337924 1024 2072 33554456 0 67129632 1056 2097172 131074 33024 33280 2098176 134218240 4096 8448 268435460 0 2097153 258 256 1104 4 403705856 8437760 536870912 5275652 420495360 1120 33554944 1140850690 0 0 0 0 48 570427392 1 134234144 8192 2097152 272 2048 0 1048608 2147747840 16 1280 0 33571968 525572 16 805306368 18874376 537003008 142606336 335544320 268468224 512 538968064 512 3221225472 2152005664 16 8388624 4194336 3072 8486917 0 67248192 0 17 1056776 2692743184 1052672 32800 524288 2147484672 0 276824128 257 4194304 16777472 1073774600 2171136 2147618820 2097152 4128 268959744 0 0 8454144 134217856 536870920 260 2420113408 1075871748 68419584 4325664
is_linear=0
shrinkage=0.05


Tree=5
num_leaves=31
num_cat=23
split_feature=28 2 28 37 30 36 37 30 37 30 37 28 37 34 37 23 37 30 36 36 30 36 36 36 31 37 28 36 36 36
split_gain=748.702 174.386 140.309 119.073 71.0021 60.2944 50.5457 44.4212 36.2717 34.0112 31.351 31.0505 29.2274 26.3745 21.6851 18.0267 17.4539 15.4049 14.3887 13.5659 13.2959 12.6566 12.4798 11.709 10.9261 10.6614 10.6102 10.5603 10.196 9.60559
threshold=2.85714294229235 4.4994952678680429 2.2714286063398634 0 1 2 3 4 5 6 7 3.5857143572398598 8 0.67950001358985912 9 7.503157615661622 10 11 12 13 14 15 16 17 18 19 4.028592688696726 20 21 22
decision_type=2 2 2 9 1 9 9 1 9 1 9 2 9 2 9 2 9 1 9 9 1 9 9 9 1 9 2 9 9 9
left_child=2 3 4 12 10 15 21 16 27 26 -1 17 -2 22 -11 -3 -4 -5 -15 -14 24 -6 -8 -10 -20 -12 -7 -9 -19 -26
right_child=1 5 7 11 6 9 13 8 23 14 25 -13 19 18 -16 -17 -18 28 20 -21 -22 -23 -24 -25 29 -27 -28 -29 -30 -31
leaf_value=0.0043513593648604821 -0.013588523076302088 0.025281498432361889 -0.00083172377605216213 0.012093024224468785 -0.016674941703455969 0.01614400609660312 -0.0051343851396636817 -0.0016713479780028071 0.0067733274994477262 0.014911049441424152 -0.0075018100343119372 0.013948438015471687 0.0050791778813207671 0.00033099865688321491 0.0014631773377289112 0.041211506722751881 0.0079312617467893597 -0.00081195046765415485 -0.010735936836893511 -0.0031994146862123745 -0.0087643321070004481 -0.010334001059165189 0.0032094829971239928 -0.0001454962255420974 -0.010073704486160051 -0.002184945726431956 0.025493775499187788 -0.010431444848958329 0.0066021383111392641 -0.0028425982160190286
leaf_weight=1678 497 1012 735 1237 1132 794 760 536 672 591 1255 2647 763 665 636 232 2409 533 725 1363 6101 3930 1060 5807 546 4034 554 1131 3218 3147
leaf_count=1678 497 1012 735 1237 1132 794 760 536 672 591 1255 2647 763 665 636 232 2409 533 725 1363 6101 3930 1060 5807 546 4034 554 1131 3218 3147
internal_value=0 0.0097898 -0.00379315 0.00638685 -0.00588035 0.0189171 -0.00753331 0.00083032 -0.00111473 0.0143128 -0.00157383 0.00953857 -0.00279376 -0.00586394 0.00804911 0.0280669 0.00587067 0.00720746 -0.00677701 -0.000195034 -0.00722457 -0.0117919 -0.000257873 0.000573749 -0.00507195 -0.00346777 0.0198762 -0.00767134 0.00553598 -0.00396021
internal_weight=50400 14077 36323 10258 25033 3819 18066 11290 8146 2575 6967 7635 2623 13004 1227 1244 3144 4988 11184 2126 10519 5062 1820 6479 4418 5289 1348 1667 3751 3693
internal_count=50400 14077 36323 10258 25033 3819 18066 11290 8146 2575 6967 7635 2623 13004 1227 1244 3144 4988 11184 2126 10519 5062 1820 6479 4418 5289 1348 1667 3751 3693
cat_boundaries=0 3 4 20 23 24 27 28 31 34 37 40 41 57 72 73 86 102 117 118 121 137 153 169
cat_threshold=2952947840 136395677 823367 6 67109120 67112960 143366 8208 1040 16777472 1057024 4194304 2147483648 536870912 65536 16777218 8781824 67108865 16385 8192 4202680 2688587816 2122248 6 2349334672 23832 2425474 6 2183266820 4212993 1310976 0 134221960 262144 1075938369 33816576 2048 620759168 213975560 364544 6 2048 2105344 1073745938 134217792 2147483654 40960 8200 0 67108864 33554464 1073741841 0 131080 813957184 1 130 16 1 134221824 269492256 1024 1312 8192 2147483648 32 536872960 524289 2147484930 1 33704064 524545 24 256 8256 33554448 135266305 1082132752 0 1048576 286262320 2147484672 33567232 1082130562 0 2097152 16384 2097152 8 2097152 268636168 2097664 36864 1835012 256 16777216 258 134250496 545259554 0 0 20 536870920 16384 524560 2148008064 2097156 8523858 256 3489660928 2097216 2147484160 32 256 134217728 0 1073152 16 270270592 872452122 20490 34078721 1335297 541081600 64 8388608 16 81920 16 2097153 2147487744 1614815233 2147484672 0 64 1 16384 8192 1048577 65793 0 134218240 67108872 8388864 20480 538968064 134742528 1073741824 268435456 4 20 4718644 16 16777216 16 64 8 25706496 0 134217733 12288 160 268435464 8421376 33554432 34611200 4194308 36 4168
is_linear=0
shrinkage=0.05


Tree=6
num_leaves=31
num_cat=22
split_feature=28 28 16 2 37 30 30 37 37 37 37 34 37 28 37 2 36 36 30 37 9 37 36 36 36 36 36 36 36 37
split_gain=677.679 156.625 145.296 76.9897 75.3528 64.1036 49.0303 44.9943 41.0921 28.4564 25.9437 22.5933 21.0733 20.722 20.0522 18.199 18.1827 14.0589 16.2285 13.685 13.3098 12.3742 12.3464 10.7138 9.76513 9.44982 9.41814 9.28525 9.20934 8.57938
threshold=3.0078177058271005 2.2714286063398634 3.4981461763381962 5.50000023841858 0 1 2 3 4 5 6 0.67950001358985912 7 4.028592688696726 8 6.50000023841858 9 10 11 12 1.8106149435043337 13 14 15 16 17 18 19 20 21
decision_type=2 2 2 2 9 1 1 9 9 9 9 2 9 2 9 2 9 9 1 9 2 9 9 9 9 9 9 9 9 9
left_child=1 5 4 10 15 9 12 22 29 24 -4 21 -3 23 -5 16 -2 -12 -19 28 26 -9 -7 -6 -1 -11 -13 -21 -10 -8
right_child=2 6 3 14 13 7 8 11 19 25 17 20 -14 -15 -16 -17 -18 18 -20 27 -22 -23 -24 -25 -26 -27 -28 -29 -30 -31
leaf_value=-0.003120087100264712 -0.013537253424572546 -0.0040614661468441086 0.017061149821918208 0.036258072801392004 -0.00056320583097198436 -0.016037268736497173 -0.016929697927980502 0.0099613725502509624 -0.0034643945588687889 -0.0089689580771062476 0.014174488087800264 -0.0016555822713396791 0.0074290915089906253 0.015369271379616013 0.02122956286986525 0.010936064451001586 -0.0016942462793977623 0.012891994763872825 0.0013374430863129598 0.0039883757489658197 -0.0044776438727137198 -0.0019909636830443929 -0.009718988715950035 0.0079028248530467332 0.0053813813829623703 -0.0026114589058793738 -0.0086814950753957322 -0.002836562964482715 0.0032882909259453678 -0.0065035917439074404
leaf_weight=418 443 446 2099 457 415 1065 257 240 564 686 832 566 3244 933 813 200 1220 483 846 585 5024 1595 4324 3370 1561 4302 5252 2969 4003 1188
leaf_count=418 443 446 2099 457 415 1065 257 240 564 686 832 566 3244 933 813 200 1220 483 846 585 5024 1595 4324 3370 1561 4302 5252 2969 4003 1188
internal_value=0 -0.00326052 0.0103092 0.0162879 0.00527771 -0.00558794 0.00113089 -0.00715859 -0.00075514 -0.00149552 0.013044 -0.00551245 0.00601952 0.00863192 0.0271295 -0.00321895 -0.00497071 0.0089984 0.00563899 0.000624808 -0.00638548 -0.000357032 -0.0110043 0.00698076 0.00355392 -0.00351201 -0.00802435 -0.00169109 0.0024377 -0.0084959
internal_weight=50400 38289 12111 5530 6581 25033 13256 18066 9566 6967 4260 12677 3690 4718 1270 1863 1663 2161 1329 8121 10842 1835 5389 3785 1979 4988 5818 3554 4567 1445
internal_count=50400 38289 12111 5530 6581 25033 13256 18066 9566 6967 4260 12677 3690 4718 1270 1863 1663 2161 1329 8121 10842 1835 5389 3785 1979 4988 5818 3554 4567 1445
cat_boundaries=0 3 4 5 8 11 14 17 20 23 38 53 54 57 60 73 89 105 121 137 151 167 170
cat_threshold=805456000 144776065 790593 6 6 4202681 2688587816 2122240 2215116944 22792 327808 3257008644 4212993 1343873 1075938311 68157440 1181728 83888128 201392152 327680 0 16779264 2048 2186280960 1093665408 67141665 8448 65536 16777216 0 33792 0 0 12713984 16384 2147648000 16777216 4 1082130704 4196352 2097152 0 278544 25190400 4202512 4 2147483648 0 8208 16781314 1 20480 524288 6 1629487622 8847364 1180016 2048 0 262400 256 8256 33554448 135266305 1082132752 0 0 286262832 2147484672 33559040 1082130562 0 2097152 0 1048576 27262976 2281701376 8396800 4104 276824064 0 2129924 134217728 2147483648 272630016 67108864 33816580 4718624 16 0 2336 16777216 2699264 268566536 2099200 134217744 1074540544 256 0 8200 134217728 603979776 32768 640 64 256 1088 134217728 1048576 8421424 536870912 139460612 286277664 96 570425344 1073750146 0 327680 0 0 16400 2064 16384 6 16 8388688 12304 4128 75628610 8192 2147483648 65 75497472 0 805306368 268435472 16513 536870912 0 0 5382304 2097168 2147491856 1048576 2164262912 3145728 2147488256 8196 1280 0 33588232 32768 0 0 1610612736 2189426688 134217728 135168 8201 805306880 0 2415984640 128 20490 2097156 268435456 4100 0 8 262144
is_linear=0
shrinkage=0.05


Tree=7
num_leaves=31
num_cat=19
split_feature=2 28 37 37 28 9 36 9 37 30 30 29 34 28 36 37 30 36 36 30 30 37 36 36 37 3 13 37 28 30
split_gain=615.022 161.755 151.056 75.3194 50.0822 48.974 39.0541 34.1408 32.1102 31.4215 26.1402 20.0214 17.9889 16.8172 15.0272 15.0228 14.7552 13.559 13.2716 12.8766 11.6693 11.392 11.2527 11.2089 11.1589 12.4634 10.9114 9.8016 9.79919 9.65725
threshold=3.0997776985168461 4.1981169836861758 0 1 2.3414847467626849 2.2948312759399419 2 4.1000001430511483 3 4 5 2.5025262965464186 0.75049999356269848 3.2736964055470064 6 7 8 9 10 11 12 13 14 15 16 1.9102662205696108 0.70000001788139354 17 2.7285715213843758 18
decision_type=2 2 9 9 2 2 9 2 9 1 1 2 2 2 9 9 1 9 9 1 1 9 9 9 9 2 2 9 2 1
left_child=2 3 4 7 18 8 -3 16 -4 -8 11 26 27 20 -5 -11 28 -7 -1 -20 -6 -18 -14 -19 25 -16 -10 -12 -2 -25
right_child=1 6 5 14 13 17 9 -9 10 15 12 -13 22 -15 24 -17 21 23 19 -21 -22 -23 -24 29 -26 -27 -28 -29 -30 -31
leaf_value=0.0053646195225079459 0.0053712090608232935 0.030368566823143289 -0.01261153311816504 0.0051119831939729875 0.0058777650201936862 -0.01008336558467292 0.024681510437722192 0.01465291288872789 -0.017576517798874754 -0.00063018445598153616 0.0048873707245161773 -0.024754335831859809 -0.010536091179152877 0.0091468992993272089 0 0.013787130579874438 -0.0071027699913386077 0.0038806313174469783 0.0010925512182946777 -0.0042919131112144557 0.0010778188373687422 0.0049988475407223296 -0.004738147076548932 -0.0011226435301473481 -0.00053670849400842531 -0.013967606376307751 -0.0079366930630003097 -0.00606849316305174 0.011463120479465391 -0.0051662661921559553
leaf_weight=515 1069 660 2417 695 1943 535 762 1859 327 207 692 206 985 1263 251 1437 200 747 1473 4343 3743 2529 6975 4340 1241 420 4103 276 1908 2279
leaf_count=515 1069 660 2417 695 1943 535 762 1859 327 207 692 206 985 1263 251 1437 200 747 1473 4343 3743 2529 6975 4340 1241 420 4103 276 1908 2279
internal_value=0 0.00925466 -0.00329609 0.00621303 0.000976738 -0.0056722 0.0193295 0.00873316 -0.00726822 0.0160875 -0.00629845 -0.0093653 -0.00469166 0.0039109 -0.00110996 0.0119487 0.00681107 -0.00244487 -0.00223441 -0.00292009 0.00273907 0.00407101 -0.00548108 -0.00186706 -0.00341245 -0.00857166 -0.00865954 0.00169974 0.00926128 -0.00252815
internal_weight=50400 13238 37162 10172 13280 23882 3066 7565 15981 2406 13564 4636 8928 6949 2607 1644 5706 7901 6331 5816 5686 2729 7960 7366 1912 671 4430 968 2977 6619
internal_count=50400 13238 37162 10172 13280 23882 3066 7565 15981 2406 13564 4636 8928 6949 2607 1644 5706 7901 6331 5816 5686 2729 7960 7366 1912 671 4430 968 2977 6619
cat_boundaries=0 3 6 22 25 26 27 42 45 46 62 78 79 80 83 99 115 118 121 122
cat_threshold=4028792902 1119241221 5245296 1126221143 1142241281 5376880 256 4096 139266 16 0 16777472 1048576 4194304 0 0 65536 0 0 67108864 1 8192 5243064 2147516552 16392 6 65 570427392 2359297 671105040 268574720 2097154 32 10240 2147483648 32768 2 0 2147484928 131073 538969088 1025 16384 67584 262720 22 256 16778264 0 134221824 8192 0 67108866 419430464 134217792 65536 109051912 16384 66112 8208 0 16 8 8192 0 134218752 2097156 134348800 16777216 16384 606076928 520 1610612740 90144 268442628 0 0 2 6 14 0 2048 576 16778304 197120 33554432 8 57344 16777216 671089220 8192 32 512 2098176 0 67379200 4 0 8216 553912320 1 570425345 133120 0 2147483649 538058760 2147483664 269488128 0 16 0 128 1048584 524289 8193 2483027968 134217992 262272 2048 4096 425984 30
is_linear=0
shrinkage=0.05


Tree=8
num_leaves=31
num_cat=20
split_feature=28 16 28 2 37 37 37 30 37 37 30 28 2 37 36 36 37 36 30 30 37 9 3 36 3 36 30 35 30 37
split_gain=558.443 152.995 82.9201 75.635 73.4858 43.7082 34.6159 29.1107 29.0151 25.5836 25.1285 23.9476 18.1655 24.7985 17.8492 16.2252 15.4828 15.2821 13.7566 13.3336 13.1295 12.7637 12.1306 11.7277 10.8839 10.1225 9.65841 9.48902 8.95335 8.93405
threshold=2.6944412120750978 3.50000011920929 1.9142857518579282 4.7999999523162851 0 1 2 3 4 5 6 4.028592688696726 6.7000000476837167 7 8 9 10 11 12 13 14 3.4000002145767216 3.3000148534774785 15 2.294571161270142 16 17 25.125000000000004 18 19
decision_type=2 2 2 2 9 9 9 1 9 9 1 2 2 9 9 9 9 9 1 1 9 2 2 9 2 9 1 2 1 9
left_child=2 4 6 8 12 15 14 20 -3 -5 -8 17 13 -2 26 -4 27 -6 -19 -17 24 25 -10 -15 -7 -22 -1 -12 -18 -20
right_child=1 3 5 9 11 7 10 -9 22 -11 16 -13 -14 23 -16 19 28 18 29 -21 21 -23 -24 -25 -26 -27 -28 -29 -30 -31
leaf_value=0.013430217205965544 -0.013139184978916746 0.013780720095713728 -0.0037906296148189156 0.031290908722742837 -0.0028854632301965372 -0.0017638468805688359 -0.0039293894534771605 -0.0062640597605216194 0.0015944861054467943 0.017632334015124675 -0.011494134341650022 0.01359082236107056 0.01118884447324342 0.0039667717108526927 -0.0033703598488051059 0.0048629427753412073 -0.0059280616147100668 0.010838993742926625 0.0067147552073958455 0 -0.0087340567505237911 0.004974207316556371 0.0092476466820355409 -0.0041538194637321018 -0.018154313718082338 -0.00085682825360271176 -0.00058593837622601284 -0.02092212788734122 -0.0096631398112286184 0.0022782413667075925
leaf_weight=258 599 2289 1104 547 528 215 3341 4857 1030 1460 1056 990 203 638 2770 3301 3021 1163 2537 2445 437 879 1080 1390 205 5089 222 386 4169 2191
leaf_count=258 599 2289 1104 547 528 215 3341 4857 1030 1460 1056 990 203 638 2770 3301 3021 1163 2537 2445 437 879 1080 1390 205 5089 222 386 4169 2191
internal_value=0 0.00749585 -0.00369502 0.0135592 0.00369746 -0.00144548 -0.00643024 -0.00330472 0.00986853 0.0216236 -0.00767181 0.00631265 -0.00314271 -0.00428117 -0.00181173 0.00172028 -0.0091083 0.00519219 0.00591951 0.00279254 -0.00118531 -0.000608069 0.00550933 -0.00156765 -0.00965317 -0.00150617 0.00696604 -0.0139557 -0.00811114 0.00467853
internal_weight=50400 16645 33755 6406 10239 18532 15223 11682 4399 2007 11973 7409 2830 2627 3250 6850 8632 6419 5891 5746 6825 6405 2110 2028 420 5526 480 1442 7190 4728
internal_count=50400 16645 33755 6406 10239 18532 15223 11682 4399 2007 11973 7409 2830 2627 3250 6850 8632 6419 5891 5746 6825 6405 2110 2028 420 5526 480 1442 7190 4728
cat_boundaries=0 3 6 9 10 13 16 17 20 36 52 54 70 71 72 75 90 106 107 108 111
cat_threshold=285214864 144800729 856262 1126318598 1082343493 1180016 2695123200 447759680 1311203 30 1075938311 68157440 1181984 0 16779264 2048 6 128 16520 327810 2182086656 3145728 201343009 0 0 0 0 32768 0 0 65536 4194304 2147650049 539230208 4 1024 134217728 33554432 0 2162690 402784256 2097152 2147745792 786441 256 4 256 671121424 537395210 4 2415919104 5124 176 2056 0 805306368 18874376 536871936 0 268435456 276824064 2048 536870916 0 2147483652 6636576 335544368 262160 4194400 4 6 30 268435456 32776 262272 570427408 1048833 32 8192 2097156 5392 2048 0 1050656 2147497986 536870912 1024 134217728 82048 540672 16 512 69 4194304 549888 0 545259584 1 48 512 67141632 16384 76546049 541065220 0 16 102 24 1075871748 1048576 6424832
is_linear=0
shrinkage=0.05


Tree=9
num_leaves=31
num_cat=17
split_feature=2 37 28 37 28 9 9 37 16 30 37 9 36 36 36 36 30 37 36 37 28 36 36 3 36 9 30 34 17 2
split_gain=508.624 133.317 125.118 63.9167 44.8154 43.0645 28.5437 27.8148 25.8307 22.1443 18.1734 16.3071 15.7818 15.5108 13.3095 12.7853 12.6692 12.7872 11.4864 11.0951 10.3274 10.1671 10.1158 10.0746 9.26886 8.79829 8.78131 7.70631 7.27008 7.25943
threshold=3.170873880386353 0 4.5432719162532278 1 2.2797639242240364 2.2948312759399419 4.1000001430511483 2 6.1000001430511483 3 4 3.1983202695846562 5 6 7 8 9 10 11 12 3.2336806697504863 13 14 2.5043025016784672 15 6.1000001430511483 16 0.58550000190734874 3.5138454437255864 7.6010355949401864
decision_type=2 9 2 9 2 2 2 9 2 1 9 2 9 9 9 9 1 9 9 9 2 9 9 2 9 2 1 2 2 2
left_child=1 4 3 6 18 7 15 -3 25 10 -9 21 -11 -5 -7 -2 20 -18 -1 -16 -17 -6 -14 -21 -12 -4 -20 -23 -13 -10
right_child=2 5 8 13 11 14 -8 9 29 12 24 28 22 -15 19 16 17 -19 26 23 -22 27 -24 -25 -26 -27 -28 -29 -30 -31
leaf_value=-0.0062815402326043563 0.012554137873922795 -0.011492845731801387 0.014141871064929885 0.0051780661204519378 -0.0036134366822203699 0.0041710662549255826 0.013641005347687453 -0.021414576829551141 0.023979449782358567 0.0038751319665396309 -0.0130541492746345 0.0051065411856177842 -0.0093257074936877737 -0.003511827525694964 -0.0057843239803367398 0.0066731149323395987 -0.0043659030985337558 0.0049930964931886234 0.0010218874060688675 -0.0029773373415276734 0.015303853498223403 0.0072783966238328919 -0.0040469429983679903 0.0016275902801037795 -0.0065841204853593696 0.023667296970374202 -0.0035179834173887253 0.0019508754191838247 0.011099469083883319 0.036096960513792728
leaf_weight=1327 835 2426 1273 740 671 755 2119 256 414 559 702 1634 1064 1610 2148 1265 414 2555 2426 3764 501 839 7550 1720 3787 327 1871 3855 775 218
leaf_count=1327 835 2426 1273 740 671 755 2119 256 414 559 702 1634 1064 1610 2148 1265 414 2555 2426 3764 501 839 7550 1720 3787 327 1871 3855 775 218
internal_value=1.07647e-07 -0.00284838 0.00885512 0.00646706 0.00116618 -0.00502373 0.00866715 -0.00652185 0.0195737 -0.00563947 -0.00843128 0.0036291 -0.00418227 -0.000743903 -0.00210432 0.00678153 0.00571441 0.00366101 -0.00222732 -0.00273355 0.00909838 0.00208135 -0.00471483 -0.00152116 -0.0076338 0.0161199 -0.000946833 0.00290757 0.00705528 0.0282383
internal_weight=50400 38129 12271 10039 13398 24731 7689 16344 2232 13918 4745 7774 9173 2350 8387 5570 4735 2969 5624 7632 1766 5365 8614 5484 4489 1600 4297 4694 2409 632
internal_count=50400 38129 12271 10039 13398 24731 7689 16344 2232 13918 4745 7774 9173 2350 8387 5570 4735 2969 5624 7632 1766 5365 8614 5484 4489 1600 4297 4694 2409 632
cat_boundaries=0 3 6 9 10 13 29 44 60 75 76 79 95 98 114 130 145 146
cat_threshold=1881309254 1119224837 5245296 1126204759 1175795712 5409648 5243064 2147516552 16392 65 0 0 262144 512 19922952 1140867088 133184 0 4096 1049608 2147581984 0 4128 0 0 2147516928 270533633 0 1 536873472 2359297 671105040 269492256 2097152 32 10240 0 32768 570425346 0 2149582080 131073 2228224 1 553910272 1 570687745 16 0 2147483649 537927688 16 268439552 2147483648 16 0 129 1048584 524289 8193 0 67108864 4112 1056784 67108864 286720 8320 201359392 1152 1095680 536879112 0 2176 0 536875008 6 0 2048 1049152 128 2097184 524289 2621440 269484040 268437568 32 524416 1073741824 256 0 536870914 41943040 36 3221360736 64 2216185864 268997128 2424840 32768 536870912 1073741832 0 41943040 69206016 397348 9 516 256 2415919168 268435456 5162 4 268435456 4 16777280 131584 33554432 8 581632 16777216 1614807620 9216 2155872256 0 10486784 0 17113088 4 0 8200 2181038080 1073775744 20987904 16781316 16384 4194304 3221227008 134222336 276824064 537133568 536872960 0 8192 16 1024 30
is_linear=0
shrinkage=0.05


Tree=10
num_leaves=31
num_cat=22
split_feature=28 28 16 37 30 37 30 2 37 37 36 34 37 30 36 36 36 28 36 30 30 37 36 31 2 30 36 16 33 37
split_gain=461.304 107.576 102.334 72.5672 48.5387 38.1377 37.679 33.8541 33.3261 22.2679 21.4285 18.3551 18.2143 16.4791 16.1502 14.7836 14.2854 13.2678 12.1796 12.0864 11.8045 11.2985 10.2454 10.1461 9.93953 9.80258 9.53845 9.34527 9.10493 9.67522
threshold=3.0078177058271005 2.2714286063398634 4.499415636062623 0 1 2 3 6.50000023841858 4 5 6 0.76049998402595531 7 8 9 10 11 1.642857162015779 12 13 14 15 16 17 4.4413878917694101 18 19 4.1416625976562509 20 21
decision_type=2 2 2 9 1 9 1 2 9 9 9 2 9 1 9 9 9 2 9 1 1 9 9 1 2 1 9 2 1 9
left_child=1 4 3 10 9 -3 28 16 17 27 -2 21 26 24 -12 -15 -4 -6 -13 -18 -16 -10 -14 -20 -5 -25 -8 -1 29 -7
right_child=2 5 7 13 8 6 12 -9 11 -11 14 18 22 15 20 -17 19 -19 23 -21 -22 -23 -24 25 -26 -27 -28 -29 -30 -31
leaf_value=0.0016904306848778486 0.01501609774000532 -0.012437092296099345 0.019360123167700419 7.2430625340964906e-05 -0.011453933197755979 0.0073388288089901096 0.0069333652945214987 0.026975105988380849 0.0097687714584240252 -0.0031241429376948995 -0.00089418996480505701 -0.01045754246291903 0.0019263787859642525 0.0033006424693146062 0.012826686807737403 -0.006409412962051492 0.015247835221264092 -0.0068844734518755269 -0.0085602157883851188 0.0063773945965912224 0.0067308479047976421 -0.0016510466725063338 -0.0045656301102494721 -0.0014516253755696923 0.015225688682461333 -0.0054924707999602085 0.00073784239297100714 0.011682908661590007 0.015799686232338416 0.0016850928739761909
leaf_weight=2156 1077 501 814 249 2811 2039 704 610 228 4545 552 1070 773 531 1077 1400 822 3884 1407 868 3910 2349 2650 2641 201 3676 5092 266 222 1275
leaf_count=2156 1077 501 814 249 2811 2039 704 610 228 4545 552 1070 773 531 1077 1400 822 3884 1407 868 3910 2349 2650 2641 201 3676 5092 266 222 1275
internal_value=0 -0.00268962 0.0085061 0.00579352 -0.00461855 0.000949265 0.00148757 0.0163273 -0.00598518 -0.00105751 0.00848136 -0.00431875 -0.000191931 -0.00168265 0.00717697 -0.00371027 0.0137134 -0.00879736 -0.00541072 0.0107856 0.00808035 -0.000589776 -0.00308366 -0.00468551 0.00680087 -0.00382199 0.00150963 0.00279697 0.00586862 0.00520598
internal_weight=50400 38289 12111 8997 25033 13256 12755 3114 18066 6967 6616 11371 9219 2381 5539 1931 2504 6695 8794 1690 4987 2577 3423 7724 450 6317 5796 2422 3536 3314
internal_count=50400 38289 12111 8997 25033 13256 12755 3114 18066 6967 6616 11371 9219 2381 5539 1931 2504 6695 8794 1690 4987 2577 3423 7724 450 6317 5796 2422 3536 3314
cat_boundaries=0 3 4 7 8 11 14 29 32 33 49 64 80 95 96 97 100 115 116 117 132 133 136
cat_threshold=3256976727 1175715840 7473952 6 68681728 8200 262144 6 171975417 2688587816 2122252 3257029124 2151762209 1344385 256 67112968 2147622916 8720 16 0 8320 1279262722 2147483648 1048576 524312 2 8521857 0 1 1629620999 8847428 1737072 6 8192 0 18891008 2151677952 8388608 4096 268697600 0 2129924 34079232 32 2422472960 67108864 262148 4202528 16 536872976 1 4352 268435488 256 272 8192 2147491840 2080 2560 20 1280 0 147584 540928 67125504 67112960 12294 16 0 16777216 5251072 4194562 2147483648 541104128 16 2 8650752 0 1 8192 285213696 1090617352 64 34078728 16793608 0 2 4096 4097 268435968 8388608 33554496 2164269056 1073743904 36 6 6 2048 0 262144 570951680 257 134217728 272629920 2097168 8208 0 16384 1049600 4610 1145053184 2147484672 0 1024 268436737 16 24 2056 0 528402 2164269056 536871040 8523792 0 2416050176 4195328 2684355072 32 256 0 0 537927808 1 3223323206 33704193 3277812
is_linear=0
shrinkage=0.05


Tree=11
num_leaves=31
num_cat=20
split_feature=2 28 28 37 37 30 37 36 30 9 30 37 35 34 37 28 36 36 36 30 13 30 35 37 34 36 37 36 37 36
split_gain=420.077 120.806 94.2873 58.9103 47.6476 34.2584 29.2605 22.3579 23.2859 21.8176 21.2662 21.2113 24.8556 20.1598 16.3235 15.4404 15.2793 12.9315 12.4191 12.2779 12.8428 12.1291 11.0361 10.9114 10.8414 10.1782 10.0953 9.67174 9.20025 9.12531
threshold=3.3000000715255742 2.2797639242240364 4.5432719162532278 0 1 2 3 4 5 3.00000011920929 6 7 20.425000190734867 0.58750000596046459 8 3.4755236932209566 9 10 11 12 0.70001137256622326 13 25.535000801086429 14 0.58750000596046459 15 16 17 18 19
decision_type=2 2 2 9 9 1 9 9 1 2 1 9 2 2 9 2 9 9 9 1 2 1 2 9 2 9 9 9 9 9
left_child=1 5 4 11 10 14 22 -4 -9 24 15 21 -13 -8 -1 -2 -12 -15 -6 25 26 -3 -7 -18 -5 -19 -21 -26 -11 -14
right_child=2 3 7 9 18 6 13 8 -10 28 16 12 29 17 -16 -17 23 19 -20 20 -22 -23 -24 -25 27 -27 -28 -29 -30 -31
leaf_value=-0.0040836554830415827 0.0089987797302184796 -0.0039510778215975191 0.03278492720065905 0.0057595180205502958 0.0056072793625080546 -0.009406055147234603 0.0054484457374006263 0.024094161257675342 0.011813500907123667 0.0078066101089737678 0.01293600860185634 0.011586413932837464 -0.00016004842529129294 0.0023824343436466156 0.00089850256586417867 0.016727243980987204 -0.0044404025985326527 -0.010008368398419948 -0.0023818341119365245 -0.021479528496142933 -0.0062434443266618615 -0.020625405365761563 -0.018538601789488133 0.0053424849214230791 -0.0054212370358067211 -0.003089047072947021 -0.0072074327465365962 0.00097087347063377005 0.0029701165597144519 -0.0074544982441588836
leaf_weight=3118 1852 202 242 1085 693 1727 448 622 1333 2183 632 248 656 525 3437 1040 309 595 1568 255 7983 321 430 2611 640 5521 331 6489 1944 1360
leaf_count=3118 1852 202 242 1085 693 1727 448 622 1333 2183 632 248 656 525 3437 1040 309 595 1568 255 7983 321 430 2611 640 5521 331 6489 1944 1360
internal_value=6.09325e-07 -0.00239659 0.00869028 0.00111039 0.00634538 -0.00457565 -0.00571288 0.0179585 0.0158489 0.00259562 0.00853008 -0.00543813 -0.00327433 -0.00494743 -0.00146634 0.0117547 0.00586499 -0.00526017 5.87332e-05 -0.00553466 -0.00677133 -0.014474 -0.0111979 0.00427855 0.00109995 -0.0037856 -0.0139928 0.000383771 0.00556664 -0.00514348
internal_weight=50400 39498 10902 15128 8705 24370 17815 2197 1955 12341 6444 2787 2264 15658 6555 2892 3552 15210 2261 14685 8569 523 2157 2920 8214 6116 586 7129 4127 2016
internal_count=50400 39498 10902 15128 8705 24370 17815 2197 1955 12341 6444 2787 2264 15658 6555 2892 3552 15210 2261 14685 8569 523 2157 2920 8214 6116 586 7129 4127 2016
cat_boundaries=0 3 6 7 9 23 24 25 28 31 45 61 76 77 78 81 97 100 116 119 134
cat_threshold=2349596800 136347096 327808 1109427527 1175795712 5376880 6 4194488 2684389384 0 0 131072 0 0 0 1048576 4194304 0 0 65536 0 0 67108864 6 6 0 136 262144 404498672 1041011226 2117646 16384 67108872 20 8704 16 16801808 128 201326626 2147483648 5281792 536870920 0 264320 4096 2056 8193 4112 134217728 2147483652 8192 16785416 0 67108864 33554464 3489665024 8320 135168 262144 1 258 33556992 262145 671105040 268443680 0 48 10240 2147483648 32768 0 0 2149582080 131073 10616832 4 24 26 0 2048 1048576 16908288 1073743874 1 16777216 545259520 0 1073742341 0 8388768 0 10519552 0 1056768 0 4 12360 2097152 0 2424832 32768 1074266112 1048576 18 258 0 134611972 0 268468736 33024 1342244864 16512 4362 33554432 16 4 1075871749 68157440 1182560 536870912 16640 4369 8192 0 32 2147614720 0 33 0 524289 2155873280 139265 34605120 540673
is_linear=0
shrinkage=0.05


Tree=12
num_leaves=31
num_cat=19
split_feature=2 28 37 9 37 36 30 16 37 31 30 29 30 34 37 36 36 36 36 36 36 37 36 29 37 28 3 13 36 3
split_gain=380.676 102.145 95.1328 40.2891 39.0704 35.1167 31.5483 26.462 23.0636 31.1688 23.5447 26.8129 19.0059 15.7221 14.413 13.4289 12.5654 12.4002 12.15 11.9059 11.3479 10.5739 10.3564 9.1516 8.9578 10.3425 9.68882 8.76205 8.47001 7.84535
threshold=3.0997776985168461 3.8714286088943486 0 2.6000000238418584 1 2 3 2.507874727249146 4 5 6 1.9120125583951044 7 0.76350000500679027 8 9 10 11 12 13 14 15 16 1.8685043714296061 17 1.4571428831134525 3.8000000715255742 0.70000001788139354 18 3.0831264257431035
decision_type=2 2 9 2 9 9 1 2 9 1 1 2 1 2 9 9 9 9 9 9 9 9 9 2 9 2 2 2 9 2
left_child=2 4 7 8 18 -3 -7 16 9 -4 11 27 23 19 -8 -11 -1 -5 -2 -12 -9 -14 -15 -6 25 -19 -26 -10 -18 -22
right_child=1 5 3 17 12 6 14 20 10 15 13 -13 21 22 -16 -17 28 24 -20 -21 29 -23 -24 -25 26 -27 -28 -29 -30 -31
leaf_value=-0.005415882843450499 0.0035198248989172076 0.02437547833830404 0.0046598370658904867 0.0057177538532937298 0.0078988174263773924 0.018659426799067996 -0.0011997519660907714 -0.0032990913055119713 -0.014288928296454464 -0.015210654376894698 -0.004112608017170347 -0.025209171504432356 0.0055995747133680629 0.0013701015110042577 0.009846520473039428 -0.0081564864333148294 0.0051405711133046946 0.0037053591409214556 -0.0056169405930944528 0.00622036723322183 0.0036599156161996114 0.00038227993554119499 -0.0043252531181465631 0.017849133207760482 -0.0010960438219540904 -0.0073121791432084748 0.0074189177143662317 -0.0059444237878809982 -0.00042503557181463951 0.0085949118981485592
leaf_weight=1133 525 675 381 658 3094 1109 342 420 348 1036 435 202 2467 866 2005 2493 777 260 1113 728 2541 1648 8633 260 3770 1060 366 4690 5139 1226
leaf_count=1133 525 675 381 658 3094 1109 342 420 348 1036 435 202 2467 866 2005 2493 777 260 1113 728 2541 1648 8633 260 3770 1060 366 4690 5139 1226
internal_value=7.50523e-07 0.00728241 -0.00259181 -0.00425671 0.00431635 0.0138091 0.0116268 0.00124803 -0.00535369 -0.00881394 -0.00449136 -0.0072465 0.00584753 -0.0031271 0.00821741 -0.0103077 -0.00061473 -0.000700821 -0.00265456 0.00233063 0.004399 0.00352823 -0.00380387 0.00865925 -0.00149182 -0.0050658 -0.000329658 -0.00653075 0.000304948 0.00526534
internal_weight=50400 13238 37162 25926 9107 4131 3456 11236 19812 3910 15902 5240 7469 10662 2347 3529 7049 6114 1638 1163 4187 4115 9499 3354 5456 1320 4136 5038 5916 3767
internal_count=50400 13238 37162 25926 9107 4131 3456 11236 19812 3910 15902 5240 7469 10662 2347 3529 7049 6114 1638 1163 4187 4115 9499 3354 5456 1320 4136 5038 5916 3767
cat_boundaries=0 3 6 22 23 26 27 28 29 32 45 61 76 92 107 121 124 140 143 159
cat_threshold=1881309190 1119224837 5245296 2618034304 136315736 2883718 256 4096 139266 16 0 16777472 1048576 4194304 0 0 65536 0 0 67108864 1 8192 6 5243064 2147518888 24584 16 65 6 16386 264193 262720 256 8896 33554448 135266304 1082204416 16777216 537919488 286262288 0 33559040 1610743810 16384 8192 49280 2105376 8 538968064 402849864 2112 32 524424 260 0 0 536870928 570425344 32 272629760 4 537133056 1 1610612736 128 0 2281709576 4325376 20 268699648 0 553689104 0 139393 34607112 524288 536871424 2097153 671105040 268443712 2 32 131072 0 0 536870914 8388608 2149581824 131201 10485824 1 16384 273154048 256 0 8448 0 0 1073872896 1610612737 8393728 2560 1216350208 64 256 0 512 1207959552 2097152 1 139001856 8392768 270532608 4194304 262656 0 0 0 134217856 33555466 538968100 1092648965 1075118084 4393248 264704 1050625 8392706 2128 128 16400 1057792 2 1049600 268320 16385 0 0 268436480 0 1 2148007944 402690072 2359296 75497488 64 529408 403701760 69206016 0 256 16384 67108864 552 1610612740 24832 262144 0 538968320 386
is_linear=0
shrinkage=0.05


Tree=13
num_leaves=31
num_cat=24
split_feature=28 28 36 30 37 37 30 30 37 37 37 10 34 37 36 36 3 36 28 36 37 31 37 36 36 36 36 30 30 36
split_gain=348.459 105.663 68.5669 52.3451 46.9022 41.8161 38.2297 38.182 25.9134 19.62 18.007 17.651 15.379 14.0624 13.325 13.1978 13.099 11.8937 11.0926 10.7929 10.382 9.8187 13.4761 11.1934 9.71282 9.64714 8.86713 8.19876 8.15448 8.06122
threshold=3.2736964055470064 2.2714286063398634 0 1 2 3 4 5 6 7 8 7.1014137268066415 0.58750000596046459 9 10 11 3.1711269617080693 12 1.5971428751945498 13 14 15 16 17 18 19 20 21 22 23
decision_type=2 2 9 1 9 9 1 1 9 9 9 2 2 9 9 9 2 9 2 9 9 1 9 9 9 9 9 1 1 9
left_child=1 6 11 13 25 16 10 20 18 19 -1 -2 -10 -4 -11 -14 -3 -6 -8 -9 -7 22 -17 -23 -16 -5 -20 -21 -25 -12
right_child=2 5 3 4 17 7 8 9 12 14 29 -13 15 -15 24 21 -18 -19 26 27 -22 23 -24 28 -26 -27 -28 -29 -30 -31
leaf_value=0.0038140064675862961 0.015051480863010931 -0.0064206522047331504 0.023356802565552622 0.0024534462761585021 0.010882095679688508 0.0075070364993179775 -0.010345898383725113 -0.0029234908321150227 0.0053431553946272949 -0.0094530883445448997 -0.0073515573916569021 0.028275219795752284 0.0034293507390148908 0.011344122913655601 0.0039634171273110847 -0.019933328834189062 -0.022264786339446032 0.0046712932367306038 0 0.0047795850374781138 0.0022681865146927265 -0.0088788989827841731 -0.0061681708037246118 -0.0012133874024017376 -0.0020699516185546489 -0.0077137145344192293 -0.006962233284912943 0.00049839271257338133 -0.004548353356249593 -0.0014712057960293151
leaf_weight=1590 1669 412 324 310 1102 2801 2522 847 443 526 667 311 540 1647 776 205 201 2953 535 2972 1518 975 1526 3243 4295 851 3638 1852 4439 4710
leaf_count=1590 1669 412 324 310 1102 2801 2522 847 443 526 667 311 540 1647 776 205 201 2953 535 2972 1518 975 1526 3243 4295 851 3638 1852 4439 4710
internal_value=1.14029e-06 -0.00195816 0.00881951 0.00650742 0.00385295 0.00118581 -0.00399477 0.0016946 -0.00520759 0.000156282 -0.000833981 0.0170676 -0.0037374 0.013452 -0.00193736 -0.0041135 -0.0115097 0.00639408 -0.00768785 0.00223117 0.00568678 -0.00450937 -0.00797803 -0.00381523 -0.00113086 -0.0049585 -0.00608787 0.00315075 -0.00315039 -0.00222222
internal_weight=50400 41233 9167 7187 5216 16200 25033 15587 18066 11268 6967 1980 11371 1971 5597 10928 613 4055 6695 5671 4319 10388 1731 8657 5071 1161 4173 4824 7682 5377
internal_count=50400 41233 9167 7187 5216 16200 25033 15587 18066 11268 6967 1980 11371 1971 5597 10928 613 4055 6695 5671 4319 10388 1731 8657 5071 1161 4173 4824 7682 5377
cat_boundaries=0 16 17 20 23 24 25 28 31 34 37 51 67 83 99 102 103 106 122 137 153 169 170 171 187
cat_threshold=67109120 67112960 2147622918 528 16 16777472 1056896 4194306 2147483648 536905728 65544 2 8388608 67108864 1 8448 6 18432 176175241 262208 68681728 8200 262144 6 6 171975417 2688587816 2122252 1629520646 458756 131440 2183135748 4212993 1310976 98304 2048 1048576 16 2147615360 17825792 0 1073816576 4194304 536871968 80 32 65792 134414336 6553600 67118080 16777344 2056 0 16 134217792 4 67108864 8200 512 603979776 2048 3489927188 8320 135192 536870912 131073 258 1073758208 1050632 0 1056768 2097152 134496256 1077936128 1275068704 0 5246976 536870928 16777216 264321 4096 536870912 1024 2097152 0 1 1073742848 2323644416 134218240 135172 1048585 805306880 16 3489726468 128 4362 0 0 4100 3223323222 1107298561 3277684 16 0 436273152 262144 67109888 16777216 64 34082824 285753352 0 2 4096 134217728 268435968 578813952 34078724 16785408 1073743904 0 4096 536870920 0 536870912 4202624 2097168 4096 1048592 2164392192 263168 2147488256 8196 1280 0 33800 1581312 536870928 2147745792 20736 32 1280 0 0 0 2080 0 0 0 134217728 1064960 0 128 65536 3141 9437216 0 2105350 536887296 2 33579008 0 35684384 134283776 0 0 0 574619648 32 56 24 256 66896 0 269484032 32800 536870914 138412068 286277696 134217824 570425344 1073741954 0 262144 0 0 48
is_linear=0
shrinkage=0.05


Tree=14
num_leaves=31
num_cat=21
split_feature=28 28 16 36 37 37 30 30 30 37 37 34 37 36 37 37 36 36 36 35 36 2 30 28 30 13 37 37 30 23
split_gain=315.956 73.8321 73.6008 39.3406 36.2132 32.9329 30.7744 29.6374 22.4181 20.6073 16.5595 15.402 14.8802 13.4114 13.2998 11.3032 11.2712 10.4907 9.87831 9.82865 9.78225 9.51926 9.27818 8.59271 8.57933 9.08262 8.75063 8.67358 8.56195 8.47112
threshold=3.0078177058271005 2.1352282251630514 3.3201105594635014 0 1 2 3 4 5 6 7 0.58750000596046459 8 9 10 11 12 13 14 25.535000801086429 15 6.1000001430511483 16 4.8101510831287939 17 0.70000001788139354 18 19 20 7.503157615661622
decision_type=2 2 2 9 9 9 1 1 1 9 9 2 9 9 9 9 9 9 9 2 9 2 1 2 1 2 9 9 1 2
left_child=1 6 4 29 23 22 12 17 15 19 18 -11 -1 -6 -10 -5 -13 -7 -9 -8 -12 -15 -3 -2 26 27 -18 -26 -22 -4
right_child=2 5 3 8 13 7 9 10 14 11 20 16 -14 21 -16 -17 24 -19 -20 -21 28 -23 -24 -25 25 -27 -28 -29 -30 -31
leaf_value=0.0046305524695628942 0.0055368635798426838 -0.0029843200441096508 0.017807788950739655 0.022391106527676331 0.00496190333371818 -0.00241154598624599 -0.0081655553594017251 0.002139347831340014 -0.002840858663137838 0.0062016204507046088 -0.0051737789558752535 0.0020454294822660184 -0.0021865670233599246 -0.0054000835847707856 0.0074838482122992645 0.011374010465945852 -0.0068092630328951886 0.00504322803365043 -0.0043857794835345963 -0.016626980378839983 0.0026288395149059083 0.0060603435876281329 -0.015667563524597555 0.015823545212893246 -0.020014156555760824 -0.005852219644705 -0.0022961642168662136 -0.0055474948822505738 -0.00094147678698095958 0.029760947126300438
leaf_weight=939 3778 272 827 318 540 524 1588 690 347 317 631 552 5030 1507 2553 1616 1548 3959 3285 461 4393 202 386 221 229 6760 3787 253 2685 202
leaf_count=939 3778 272 827 318 540 524 1588 690 347 317 631 552 5030 1507 2553 1616 1548 3959 3285 461 4393 202 386 221 229 6760 3787 253 2685 202
internal_value=1.03004e-06 -0.00222447 0.00704109 0.0110684 0.00325393 0.000252623 -0.00416852 0.000704476 0.00909483 -0.00534326 -0.000618479 -0.00461618 -0.00109983 -0.00180818 0.00622574 0.0133171 -0.0048847 0.00415731 -0.00323804 -0.0100447 0.000728217 -0.00399287 -0.0106227 0.00610259 -0.00519034 -0.00632975 -0.00362533 -0.0130547 0.00126799 0.0200084
internal_weight=50400 38289 12111 5863 6248 16825 21464 16167 4834 15495 11684 13446 5969 2249 2900 1934 13129 4483 3975 2049 7709 1709 658 3999 12577 7242 5335 482 7078 1029
internal_count=50400 38289 12111 5863 6248 16825 21464 16167 4834 15495 11684 13446 5969 2249 2900 1934 13129 4483 3975 2049 7709 1709 658 3999 12577 7242 5335 482 7078 1029
cat_boundaries=0 16 19 22 23 24 25 28 31 34 49 52 55 71 87 102 118 119 120 123 126 127
cat_threshold=67109120 4096 139270 16 1024 16777216 1048704 4194306 0 536870912 65536 2 8519680 67108864 1 8192 1075880278 1179918336 7473968 68157440 268443656 262144 6 6 6 4194488 2151712776 128 2290618577 1314938641 2179718 2149597184 10504449 262528 16 0 4352 0 1028 304 8192 2147483650 2080 1073744384 537395216 2097408 1 33704072 540672 2147614850 33556488 2097168 1073741824 2048 1048576 2056 8192 67110960 134219776 4 4202496 8192 32768 67174400 4096 3489665024 4202496 163841 805306624 1 130 0 256 1086324768 8192 16793712 2097152 2151710720 1073741825 0 2281701376 65536 128 268959784 4 272629760 20484 536870912 1048837 0 268435680 2064 8208 1048576 4096 1049601 512 1610620928 2147484672 40 8 268435457 134250496 524288 1048576 536940544 65536 4 134218752 262157 0 2113540 2415984896 16 258 2097408 268435456 4164 50 24 2449482560 671154432 393734 2097152 0 2424832 56
is_linear=0
shrinkage=0.05


Tree=15
num_leaves=31
num_cat=18
split_feature=2 37 28 37 9 28 9 36 24 36 36 30 34 36 36 37 16 18 29 36 28 36 36 30 36 30 30 9 30 37
split_gain=287.546 83.4797 65.9998 36.9433 29.561 28.3538 20.3794 15.8005 14.3777 14.1281 13.2534 13.2435 12.9434 12.6428 11.939 11.7197 11.23 10.9149 10.5752 8.74254 8.56017 8.51973 8.39428 8.00089 7.99163 7.83924 7.59846 7.50274 7.39661 7.4514
threshold=3.3000000715255742 0 4.8101510831287939 1 2.0504970550537114 2.4398042474474226 4.2999999523162851 2 7.8000004291534433 3 4 5 0.66550001502037059 6 7 8 3.2000077962875371 2.2216498851776127 0.95397072223536206 9 2.7654608062335426 10 11 12 13 14 15 4.9000003337860116 16 17
decision_type=2 9 2 9 2 2 2 9 2 9 9 1 2 9 9 9 2 2 2 9 2 9 9 1 9 1 1 2 1 9
left_child=1 5 3 21 7 13 14 -3 25 -7 -6 15 -13 -1 -5 17 24 18 -9 -14 -16 -2 -11 -15 -12 -4 -24 -18 -22 -30
right_child=2 4 8 6 10 9 -8 11 -10 22 16 12 19 23 20 -17 27 -19 -20 -21 28 -23 26 -25 -26 -27 -28 -29 29 -31
leaf_value=0.0055416363953509351 0.0034909828492957111 -0.010167309176718162 0.02023122120527146 -0.0012194595087745971 -0.0091080392913336899 0.0096721871328061138 0.011162838564675329 -0.01100566956980421 0.027925714880872806 -0.0028851992354920306 0.002644890914136248 0.006244596407717508 -0.0081086503840857634 -0.00023848308021291766 0.0023413134810864791 -0.0055220927826506033 0.00098477741899726445 -0.0041680851649276837 -0.025554000916168856 -0.0031679366376272697 0.010653150476192391 -0.0042742469574376524 0.0057088293007540088 -0.0037638098435886246 -0.0026257253893465192 0.011385603115737648 0.0017908285909901305 0.011145937465856751 -0.0010976055375646286 0.0067407115862697436
leaf_weight=634 527 1463 450 612 570 775 2082 372 234 634 780 328 1053 3723 1168 3640 1764 293 206 7000 1192 1007 1902 2880 7500 1042 3776 205 342 2246
leaf_count=634 527 1463 450 612 570 775 2082 372 234 634 780 328 1053 3723 1168 3640 1764 293 206 7000 1192 1007 1902 2880 7500 1042 3776 205 342 2246
internal_value=7.94401e-07 -0.00198236 0.00719036 0.00549485 -0.00371587 0.00106259 0.0069123 -0.00520655 0.0161753 0.0033131 -0.00173679 -0.00462825 -0.00342969 -0.00113291 0.00532409 -0.00683148 -0.00131179 -0.012122 -0.0162772 -0.00383419 0.00613361 -0.00156882 0.00250511 -0.00178704 -0.00212316 0.0142989 0.00311979 0.00206809 0.00730841 0.00568541
internal_weight=50400 39498 10902 9176 25174 14324 7642 14355 1726 7087 10819 12892 8381 7237 5560 4511 10249 871 578 8053 4948 1534 6312 6603 8280 1492 5678 1969 3780 2588
internal_count=50400 39498 10902 9176 25174 14324 7642 14355 1726 7087 10819 12892 8381 7237 5560 4511 10249 871 578 8053 4948 1534 6312 6603 8280 1492 5678 1969 3780 2588
cat_boundaries=0 3 6 22 38 52 53 68 84 87 103 117 133 134 150 151 152 153 156
cat_threshold=1881309254 1119241221 5245296 335693952 148898653 2949254 4194560 64 33554432 135266572 1073741824 0 1073742340 403703296 276825088 101712384 1084227586 0 8192 0 0 16 16424 67108872 524308 33554944 16384 8650752 1073741952 4 17039360 43008 537133072 131328 128 0 128 1408 64 16778260 64 138674176 0 0 67145728 285212672 64 0 41943074 69222400 69206528 4210688 65 2129944 0 0 2281702400 2097156 196608 16777472 16384 603979776 552 1610645508 90144 265216 0 257 2097170 1057024 8388864 536870912 68 0 277086208 0 268435456 1074004480 1074004480 274726912 0 264324 160 4112 144 2147487784 327808 16777296 131072 16 1 8429568 0 675282944 16785424 2181038080 12288 9216 20480 8847488 4 0 8200 574620160 1074003969 536887312 1056800 0 16 141312 0 32768 1610614784 8388608 1280 32897 2229248 2129920 0 1073741832 0 142606336 67108864 135168 8 536871432 33554448 2415919168 65696 545834 536870916 64 4 30 16777216 1 1645215745 149520 0 4194305 1179656 16 269485056 8392704 32768 0 0 1605704 1 1 6 14 6 2 6144 1085520
is_linear=0
shrinkage=0.05


Tree=16
num_leaves=31
num_cat=22
split_feature=28 2 36 30 37 37 37 9 30 28 36 29 36 37 36 37 36 36 36 36 34 36 36 37 36 30 36 16 34 36
split_gain=261.379 79.6815 53.6582 40.4928 37.653 30.5502 26.4242 15.6425 15.5733 14.2445 13.7865 13.4707 13.443 11.7828 11.369 11.2566 10.7651 10.6999 10.107 9.56867 8.76184 8.20144 7.98767 7.82212 7.66872 7.66637 7.49387 7.24085 6.80899 6.80042
threshold=3.2736964055470064 2.3000000715255742 0 1 2 3 4 2.0760986804962163 5 5.7335147687367032 6 1.9120125583951044 7 8 9 10 11 12 13 14 0.66249999403953563 15 16 17 18 19 20 3.2000077962875371 0.57150000333786022 21
decision_type=2 2 9 1 9 9 9 2 1 2 9 2 9 9 9 9 9 9 9 9 2 9 9 9 9 1 9 2 2 9
left_child=1 5 9 13 19 14 10 12 11 -2 -3 21 -7 -4 -1 -10 -9 -17 -6 -5 -14 -8 -15 -23 -19 -12 -16 -18 -26 -27
right_child=2 6 3 4 18 7 8 16 15 -11 25 -13 20 22 26 17 27 24 -20 -21 -22 23 -24 -25 28 29 -28 -29 -30 -31
leaf_value=-0.0050713913025434267 0.012265815454560659 -0.0096454069976317312 0.023111834479160671 -0.0010382360411007132 0.0022070208752721148 -0.010576725092463189 -0.002671742859950481 -0.0095926681193513122 -0.0075092681278640938 0.021877841359766184 0.0014655034828767043 0.016943744049265196 0.0028247043285546856 0.015638897555979334 0.0052577643609096206 0.0067813899240727754 -0.0028327768948663463 -0.0049347958049199923 -0.0062096961208506531 0.0069338184285741462 -0.005328577500350715 0.0070596488740378594 0.0077401525694101095 0.0025143811356402122 0.0059413294448801956 0.00099676628076081158 -0.0003078890254799724 0.0016601249220392898 0.00048595917652672358 -0.0048640606022873198
leaf_weight=1145 1427 549 214 418 535 1275 415 514 375 559 1566 211 333 514 680 772 5412 564 1009 3250 9664 1816 1241 2150 651 700 4814 1060 4980 1587
leaf_count=1145 1427 549 214 418 535 1275 415 514 375 559 1566 211 333 514 680 772 5412 564 1009 3250 9664 1816 1241 2150 651 700 4814 1060 4980 1587
internal_value=1.00945e-06 -0.00169578 0.00763858 0.0055889 0.00325259 -0.00347666 0.00101534 -0.00453217 0.00223785 0.0149214 -0.00228748 0.0045223 -0.00569072 0.0117002 -0.000558709 0.000798053 -0.00266215 0.00126248 -0.00326567 0.00601139 -0.00504694 0.00392296 0.0101573 0.00462072 0.000556859 -0.00120387 0.000380196 -0.00208597 0.00112354 -0.00305189
internal_weight=50400 41233 9167 7181 5212 24897 16336 18258 11934 1986 4402 4592 11272 1969 6639 7342 6986 6967 1544 3668 9997 4381 1755 3966 6195 3853 5494 6472 5631 2287
internal_count=50400 41233 9167 7181 5212 24897 16336 18258 11934 1986 4402 4592 11272 1969 6639 7342 6986 6967 1544 3668 9997 4381 1755 3966 6195 3853 5494 6472 5631 2287
cat_boundaries=0 16 17 20 23 26 27 41 57 59 73 76 92 106 122 137 153 169 172 188 189 205 221
cat_threshold=67109120 67112960 139270 528 16 16777472 1056896 4194562 2147483648 4229120 65544 2 8388608 67108864 1 8448 6 3223356757 68419584 3281664 1889681414 111559685 1049072 2627207344 2351490872 2110094 6 0 393216 0 0 557056 549453826 1073741856 64 1056 10240 16392 0 117440648 37847044 5243136 1073741888 0 135266308 1082130688 0 1049156 135267840 276824064 101712384 1075839106 0 8192 0 0 16 0 2048 0 2097184 268435456 539557888 269554248 268438080 32 1074266113 64 0 33554432 603983872 41943040 36 16384 6145 262144 64 16777220 4096 1310720 536870916 1048576 36866 285212672 64 65792 176424994 524288 2097920 4210704 0 64 2080 262144 524292 285220864 536870928 8392723 0 2550137088 0 2684358720 33562672 4352 0 136 545259536 2147745792 20737 32 1280 16 536870912 8192 3104 8 0 260 134217728 34619520 2048 128 0 0 0 2172649600 20972032 2214727688 8650756 16384 2097152 64 3221225504 2418017280 0 264192 1073745920 33554432 1073750016 8404992 0 2147483684 2097152 268472320 8 0 2281701380 0 8192 268435496 538968064 2420113408 20480 8405000 5242880 2149584912 0 0 8192 4194564 0 1152 537923584 8208 16777216 393216 16448 537411584 128 2097158 33556481 352 2281701888 0 1048576 1073745920 196608 69206016 16 9 1073742080 2097152 2147549184 268451840 537399298 16 2147483648 4148 6 8 0 4354 32 2097156 131072 536871184 24576 2097152 1241513992 1074008068 268460320 0 0 257 16 536872961 524548 675364898 268435456 2097408 16400 2147491840 0 1048576 2 1073741825 0 163872 0 33554693 32
is_linear=0
shrinkage=0.05


Tree=17
num_leaves=31
num_cat=24
split_feature=2 28 28 37 37 37 37 30 34 30 36 36 30 16 36 36 36 31 37 13 37 36 31 37 37 30 30 37 36 33
split_gain=236.153 69.8175 54.8602 37.2332 30.2483 22.7421 22.0299 18.3549 19.1428 15.3373 14.19 13.5771 12.6448 12.23 12.1679 11.2669 11.0172 10.9413 11.2273 10.7035 11.2235 10.6339 10.5904 16.0422 11.7178 10.4054 9.55562 9.25191 8.3259 7.84585
threshold=3.3000000715255742 2.2797639242240364 4.6190435886383066 0 1 2 3 4 0.63250002264976513 5 6 7 8 2.7000067234039311 9 10 11 12 13 0.80000004172325145 14 15 16 17 18 19 20 21 22 23
decision_type=2 2 2 9 9 9 9 1 2 1 9 9 1 2 9 9 9 1 9 2 9 9 1 9 9 1 1 9 9 1
left_child=1 6 4 25 14 13 21 15 -9 -4 -7 -11 29 -5 -2 -8 -6 18 -17 20 -10 -1 23 -14 -24 -3 -16 -19 -21 -12
right_child=2 3 9 5 16 10 7 8 19 11 12 -13 22 -15 26 17 -18 27 -20 28 -22 -23 24 -25 -26 -27 -28 -29 -30 -31
leaf_value=-0.011660340752445932 0.011613870388512325 -0.020848911219982422 0.020484274171922348 0.0017723873289942245 0.0058875929464755408 -0.0074272452464067065 -0.0063522889713077835 0.0049775823817973935 -0.02067637532365791 0.019318789069042622 0.0019618001067259099 0.0075124402437376009 0.01507512421303233 0.0063026398705387249 0.0080229352277642243 -0.013405304166238431 -0.0015639465833655051 0.0022205580766257419 -0.0024678225775112837 0.0013924578097413952 -0.0061697975614727037 -0.0053610726208774082 -0.0069884595069060057 -0.00053082307543393583 -0.00075822355271780223 -0.005664744160107889 0.0036041112158151272 -0.0013422850512596015 -0.0050126319421122598 0.010253836327914635
leaf_weight=944 1076 209 647 3681 650 644 1082 494 211 348 2417 1044 223 2553 2356 317 1979 2447 948 535 458 2799 989 548 3221 314 2802 6997 7138 329
leaf_count=944 1076 209 647 3681 650 644 1082 494 211 348 2417 1044 223 2553 2356 317 1979 2447 948 535 458 2799 989 548 3221 314 2802 6997 7138 329
internal_value=1.32887e-06 -0.00179579 0.0065169 0.000869665 0.00480704 0.00134503 -0.00345246 -0.00280338 -0.00452967 0.0139247 -0.000352848 0.0106164 0.000239136 0.00362985 0.00669918 -0.00150274 0.000274771 -0.00100263 -0.00537368 -0.00510409 -0.0112211 -0.00698993 -0.00125526 0.00410675 -0.00225209 -0.0121037 0.00564377 -0.000412906 -0.00456424 0.00296269
internal_weight=50400 39498 10902 15128 8863 14605 24370 20627 8836 2039 8371 1392 7727 6234 6234 11791 2629 10709 1265 8342 669 3743 4981 771 4210 523 5158 9444 7673 2746
internal_count=50400 39498 10902 15128 8863 14605 24370 20627 8836 2039 8371 1392 7727 6234 6234 11791 2629 10709 1265 8342 669 3743 4981 771 4210 523 5158 9444 7673 2746
cat_boundaries=0 3 6 9 12 13 14 28 44 45 61 77 93 94 97 100 112 113 116 119 120 121 124 139 140
cat_threshold=0 136 262144 1126204743 1142241280 4328304 1361101318 68157440 5376304 5251256 2684401674 24584 30 6 2147516480 131584 5242880 0 1073815556 16777216 536870948 1088 268468224 256 134414336 2113536 67108864 25427968 0 1052672 131074 16 0 16777216 1048576 4194304 0 0 65536 0 0 67108864 0 8192 14 8404992 67109384 0 8720 0 16785408 128 2 2147484672 5281792 24 16777216 264320 16448 540672 128 4195328 1090519064 32768 16777472 16384 0 138444804 524288 1082130464 0 10485760 0 43065344 2052 8192 4168 33556504 1074003969 671633408 268435456 0 32 2320 2147483648 0 0 0 2147489024 163841 8519680 8192 2 16 512 33619968 3538944 0 0 2424832 256 8256 33554448 135266305 8388880 0 1048576 285213712 2098176 33558528 4202626 1048576 16 2147483712 2048 64 2281701505 35667280 192 67 6 2753839110 35718592 1311089 2048 2238464 1073743889 64 8388608 1060865 139264 16 0 4096 1073745921 268435456 1245201 805306432 16384 1
is_linear=0
shrinkage=0.05


Tree=18
num_leaves=31
num_cat=22
split_feature=28 2 36 30 37 37 37 2 9 36 36 10 36 37 16 37 36 36 36 36 36 37 34 36 36 37 30 36 34 36
split_gain=216.934 65.6972 45.5675 34.3372 31.7805 25.098 21.9674 13.9648 13.4351 13.0385 12.6679 12.6014 11.8195 10.8303 10.6754 10.7121 9.50861 9.47399 8.96029 8.85396 8.12133 7.88572 7.75035 6.91703 6.90225 6.55881 6.36311 6.32638 6.28396 6.55956
threshold=3.2736964055470064 2.3000000715255742 0 1 2 3 4 5.7000000476837167 2.0760986804962163 5 6 7.1014137268066415 7 8 2.8000072240829472 9 10 11 12 13 14 15 0.66249999403953563 16 17 18 19 20 0.57150000333786022 21
decision_type=2 2 9 1 9 9 9 2 2 9 9 2 9 9 2 9 9 9 9 9 9 9 2 9 9 9 1 9 2 9
left_child=1 5 11 13 20 16 10 9 12 -8 -3 -2 -7 -4 15 -11 -1 -6 -17 -10 -5 -15 -14 -18 -16 -24 -12 -21 -20 -30
right_child=2 6 3 4 17 8 7 -9 19 14 26 -13 22 21 24 18 23 -19 28 27 -22 -23 25 -25 -26 -27 -28 -29 29 -31
leaf_value=0.0049729525804971626 0.011978071708663565 -0.0084839480946952862 0.019471176132738879 0.00087258358562023049 -0.001906446198838975 -0.0098473399122947364 0.0079044857248749181 0.014943871376861635 -0.0093638358584131418 -0.0081886700662020407 0.00085139221137154957 0.023194450438923896 0.0026692379388868876 0.010975749643004719 -0.0017568924456357448 -0.0048779024111586878 -0.0047762546667876908 0.0058193390891030372 0.0057651562502933533 0.0032453049137337884 -0.0077564713317539351 0.0027039207716325008 -0.0072332660707644025 -0.00038014678056735884 0.004215645918182331 -0.0041022013314422146 -0.0032647531120958287 -0.002383659870719106 0.0052552173384084648 -3.4966543304466558e-05
leaf_weight=687 1665 651 315 431 435 1245 809 207 422 355 2116 310 344 1229 548 655 1092 3653 681 530 700 429 2328 4971 3459 7286 1657 5992 660 4538
leaf_count=687 1665 651 315 431 435 1245 809 207 422 355 2116 310 344 1229 548 655 1092 3653 681 530 700 429 2328 4971 3459 7286 1657 5992 660 4538
internal_value=9.53911e-07 -0.00154477 0.00695903 0.00507632 0.00292515 -0.00316189 0.000916753 0.00203542 -0.00412957 0.0018046 -0.00208394 0.0136946 -0.00520675 0.010698 0.00133863 0.00013868 -0.000545976 0.0049824 0.000610366 -0.00239047 -0.00444547 0.00889447 -0.00460702 -0.00118672 0.0033925 -0.00487737 -0.000946943 -0.00191431 0.00123757 0.000637162
internal_weight=50400 41233 9167 7192 5219 24897 16336 11912 18147 11705 4424 1975 11203 1973 10896 6889 6750 4088 6534 6944 1131 1658 9958 6063 4007 9614 3773 6522 5879 5198
internal_count=50400 41233 9167 7192 5219 24897 16336 11912 18147 11705 4424 1975 11203 1973 10896 6889 6750 4088 6534 6944 1131 1658 9958 6063 4007 9614 3773 6522 5879 5198
cat_boundaries=0 16 17 20 23 26 42 58 71 74 77 92 106 122 138 154 157 171 187 190 191 205 221
cat_threshold=67109120 67112960 2147622918 528 16 17039616 1056896 4194306 2147483648 4229120 65544 2 8388608 67108864 1 8448 6 16384 176175241 262208 1889943558 111559685 1049072 2627207344 2619926328 2101902 32 262208 524308 150994944 536879104 8388608 553648128 2281832704 0 4096 33554448 136448 1073741952 33554568 16 1 2147483648 393216 0 0 557056 549453826 1140850720 64 1056 10240 16392 2097152 117448840 37847044 0 16384 4194560 1073741888 128 135266316 1082130688 0 1049156 135267840 276824064 101712384 1075841026 0 8192 65536 2048 1048640 0 4196353 262208 32776 0 4354 32 2097156 131072 272 24576 2097152 1241513992 1074008068 268591392 0 0 2097409 0 0 8388608 2172649600 16777728 2147618824 537133060 16384 2129920 512 1073741856 2418017284 0 264384 268435456 0 4210688 4096 134348832 2097152 8388624 262153 302027024 134217728 65536 16 536875008 532 2420113408 4112 64 16777220 0 1310720 536870916 0 36864 285212672 64 65792 176424994 524288 2097664 16400 0 64 541065232 2147745920 20736 134217760 1280 1024 0 0 2099232 2147549184 0 1024 134217728 1064960 0 128 2149614918 67108864 2229024 0 2097184 268435456 539557888 269550152 268438080 32 524417 64 0 33554432 536875008 41943040 36 33554448 1610612993 142606337 5120 4 67108864 2415927552 18432 1073741824 32 2147483716 1064960 8388864 2097152 32 16384 5243096 536873208 278538 22 50595840 131073 1073807392 33554498 512 4202497 131080 2147483648 540016640 1048576 16809984 1024 2147483649 64 25167889 268437504 3 268435460 0 4194321 1056768 536887808 67109892 2560 1056 0 0 0 539500544 128
is_linear=0
shrinkage=0.05


Tree=19
num_leaves=31
num_cat=19
split_feature=9 2 28 37 37 36 37 2 37 36 30 34 1 30 36 7 36 36 36 36 36 14 22 36 0 30 17 36 36 36
split_gain=198.053 60.5273 57.4613 23.4423 21.5755 21.5217 21.2925 14.4686 15.6955 13.188 11.9487 14.0783 11.5258 10.4692 10.293 9.9908 9.70623 8.90476 8.48826 7.72834 7.58455 6.92045 6.62964 6.57463 6.27478 6.2169 6.10406 6.37076 5.96567 5.89391
threshold=3.1983202695846562 2.3927955627441411 3.4755236932209566 0 1 2 3 6.6001229286193857 4 5 6 0.58750000596046459 3.4240876436233525 7 8 0.60001152753829967 9 10 11 12 13 3.1728760004043584 2.8000000715255742 14 2.00000011920929 15 1.3000000119209292 16 17 18
decision_type=2 2 2 9 9 9 9 2 9 9 1 2 2 1 9 2 9 9 9 9 9 2 2 9 2 1 2 9 9 9
left_child=1 4 6 12 18 -4 21 8 22 -6 15 -12 19 -7 -10 -11 -13 -8 -1 -3 -17 -2 -5 -15 28 -19 -20 -28 -18 -16
right_child=2 3 5 7 9 13 17 -9 14 10 11 16 -14 23 29 20 24 25 26 -21 -22 -23 -24 -25 -26 -27 27 -29 -30 -31
leaf_value=0.0049681281446259992 -0.0044876831929305961 -0.004137537830826328 0.017486895514830743 -0.0056479351823591943 -0.0088345187033608726 0.01169951107455083 0.0096386254586235086 0.01143751267193437 -0.0085249435858523095 -0.015680749927928318 0.0089331025609780523 0.0032123825013176768 0.0058876870448522607 0.0093729923692701996 0.0035690876391842093 -0.010019038113814095 -0.0078161577364695613 0.0047769408690243728 -0.0044092739320215225 0.0020603298109640581 -0.0044181508566452149 0.0028243965515971758 -0.01775912642050349 0.0040723971746821552 -0.0014361899802264667 0.0011467386910925807 -0.0046303969607436584 0.00014573761043483113 -0.0036277024213057607 -0.0012601432495982961
leaf_weight=548 1134 540 775 299 1453 1460 660 206 429 247 247 562 2007 1043 735 738 1050 3198 1376 5519 4364 444 201 1587 2749 1966 823 4213 5762 4065
leaf_count=548 1134 540 775 299 1453 1460 660 206 429 247 247 562 2007 1043 735 738 1050 3198 1376 5519 4364 444 201 1587 2749 1966 823 4213 5762 4065
internal_value=8.26172e-07 -0.0017759 0.00552801 0.000836494 -0.00329365 0.00975311 0.00274429 -0.0015426 -0.00202075 -0.00424547 -0.00381275 -0.0028062 0.00259194 0.0082126 -0.00118698 -0.00574592 -0.00310035 0.00413923 -0.000930648 0.00149627 -0.00526641 -0.0023835 -0.0104085 0.00622098 -0.00347637 0.00340943 -0.00144952 -0.000633771 -0.00429745 -0.000504389
internal_weight=50400 38133 12267 14001 24132 4865 7402 5935 5729 17172 15719 10370 8066 4090 5229 5349 10123 5824 6960 6059 5102 1578 500 2630 9561 5164 6412 5036 6812 4800
internal_count=50400 38133 12267 14001 24132 4865 7402 5935 5729 17172 15719 10370 8066 4090 5229 5349 10123 5824 6960 6059 5102 1578 500 2630 9561 5164 6412 5036 6812 4800
cat_boundaries=0 3 6 22 25 28 44 45 46 61 77 93 109 125 140 156 157 173 189 204
cat_threshold=1126216518 1108815876 5474593 4054204420 111559685 1049072 67109120 4096 139266 16 0 16777216 1048576 4194304 0 536870912 65536 2 0 67108864 1 8192 2433222656 178262556 2949249 1048576 40 262274 320 72 34078720 135266564 8388608 0 4 403702272 276840452 100663296 1082130562 4 69206016 16 131072 64 65 6 134479872 131072 4096 0 32768 545260544 32 64 33554448 0 541065224 541327360 100671488 328196 536870912 264193 33554433 1073807394 133200 0 4194304 17408 8390656 1073741824 32 16384 0 32768 269517312 524288 1 278528 1049216 134217730 33554432 8192 140288 1619001344 0 2048 106496 536870912 1280 128 16457 24576 1 8216 0 4096 134218784 10485780 131072 272 536895488 538968064 167772160 1074003972 132128 4096 131072 257 256 0 0 8405000 1075904512 131072 2097152 266512 8 1073742080 134217984 256 134217728 536875042 32768 2420113412 4096 39322624 1075839104 16545 4096 1073809408 0 1024 1056 5120 1048576 537921536 0 32768 1073774592 1088 1073758224 68159496 4 8704 16 8396800 8192 34 2147484672 1087488 24 0 8652928 4096 0 256 14 49152 2097184 268435456 2162688 402669632 268438016 786432 524288 64 0 2 606339072 578813952 2084 0 16448 1040 65536 16 1 1073832192 0 1213202496 16785424 2281701408 4352 67117600 0 1048576 136314880 0 16 35717184 0 706756608 1048592 8388608 4128 3072 2 65568 4096 4112 2155873536 134217761 8 5
is_linear=0
shrinkage=0.05


Tree=20
num_leaves=31
num_cat=22
split_feature=9 2 2 37 37 37 36 30 37 17 37 30 36 36 37 29 36 7 34 36 36 36 36 34 36 36 36 37 36 37
split_gain=178.971 54.6405 52.0354 23.0795 21.2993 19.4892 18.0292 15.2361 19.737 11.8517 11.8396 12.5021 13.1319 11.4344 11.0151 11.2016 10.3998 8.95301 7.69621 7.68362 7.63708 7.51085 6.98362 6.81713 6.44027 6.20851 5.78217 5.62803 5.61211 5.51471
threshold=3.1983202695846562 2.3927955627441411 4.1000621318817148 0 1 2 3 4 5 4.2178711891174325 6 7 8 9 10 1.5495463504399927 11 0.87048688530921947 0.58149999380111705 12 13 14 15 0.58750000596046459 16 17 18 19 20 21
decision_type=2 2 2 9 9 9 9 1 9 2 9 1 9 9 9 2 9 2 2 9 9 9 9 2 9 9 9 9 9 9
left_child=1 5 3 26 16 19 -4 8 -6 21 -7 14 -13 -9 15 -12 -3 -15 -14 -1 -18 -5 -19 -22 -20 -16 -2 -24 -21 -8
right_child=2 4 6 9 7 10 29 13 -10 -11 11 12 18 17 25 -17 20 22 24 28 23 -23 27 -25 -26 -27 -28 -29 -30 -31
leaf_value=0.0047385084328917734 -0.0056662208565588425 0.0085208469441046819 0.018578921078259324 0.0089877225690595149 0.015953201447234441 -0.008235302160364397 0.010156876772510839 0.0039311739636671257 0.00054106799725485378 0.0089486729357334486 -0.0076287215501750416 0.0040659061471947471 0.0064903875710809692 -0.011299184361069111 -0.0095732762120081007 -0.021193969518999045 -0.0036408534364935682 0.0015971283580905431 -0.0072867732676724604 -0.0047200496894705879 0.0062584350206198978 0.0028140797170222239 -0.0072490381759261844 0.0017798464121999075 -0.0028206658168633547 -0.0037900653827355 0.00023407236396136307 -0.0025099045600941276 -0.00070840124069717757 0.0053380808446827407
leaf_weight=546 518 688 564 567 224 1549 2102 536 1952 1325 669 681 203 364 550 207 527 660 915 1046 1044 4283 948 4960 8495 3903 1883 2098 5368 1025
leaf_count=546 518 688 564 567 224 1549 2102 536 1952 1325 669 681 203 364 550 207 527 660 915 1046 1044 4283 948 4960 8495 3903 1883 2098 5368 1025
internal_value=9.72176e-07 -0.00168795 0.00525521 0.00311043 0.000794016 -0.00313002 0.010225 -0.00121279 0.00221621 0.00472494 -0.00403469 -0.00361001 -0.00257695 -0.00284486 -0.00558762 -0.0107684 0.00268422 -0.00375693 -0.00305648 -0.000883722 0.00204964 0.00357047 -0.00301279 0.00256266 -0.00327099 -0.00453542 -0.00103636 -0.00402011 -0.00137674 0.00861531
internal_weight=50400 38133 12267 8576 14001 24132 3691 6782 2176 6175 17172 15623 10294 4606 5329 876 7219 4070 9613 6960 6531 4850 3706 6004 9410 4453 2401 3046 6414 3127
internal_count=50400 38133 12267 8576 14001 24132 3691 6782 2176 6175 17172 15623 10294 4606 5329 876 7219 4070 9613 6960 6531 4850 3706 6004 9410 4453 2401 3046 6414 3127
cat_boundaries=0 3 6 9 24 25 28 31 32 48 64 67 83 99 115 131 147 163 179 194 197 212 215
cat_threshold=2567440768 1252012829 2986115 1126216518 1108815876 4393249 4054204420 111559685 1049072 256 4096 131074 0 0 16777216 1048576 4194304 2147483648 0 65536 0 0 83886145 1 6 16384 2304 262208 4194440 1073750152 8 65 33816576 33554433 1140932656 133184 0 4194304 1024 2155905024 1342178304 4128 16384 0 2147516928 269516800 0 1 536870920 4 537399296 1048576 0 4128 1048576 2147500032 32 4096 4100 2147489026 163840 268435464 1073742080 258 17 2147549184 327680 2048 67108864 524308 33554960 603979792 16793600 16777216 1275101184 8192 64 570433536 0 1073741824 0 536887440 128 24 0 4096 134218784 10485780 131072 272 536895488 538968064 167772160 1074003972 136224 4096 131072 257 256 0 0 8 1075904512 131072 2097152 268701696 262153 1342177536 2147483904 256 134250512 536870954 0 2147483652 4096 262144 1052672 524294 33562624 0 140288 8396800 1073741828 131072 10240 16 256 2176 192 0 385 0 256 138690592 335544320 2098308 0 2147485696 1073741824 1048576 2684354560 1073815568 0 262145 8388608 39059584 16512 64 65552 34078720 4 8192 16777216 675414084 8192 2147483648 768 75564032 268439552 68288544 0 4096 80 66560 32896 128 17043456 66561 0 2098176 5120 8392705 1048576 537919488 4 67371008 1073758224 1073742912 4096 2151680000 1090912256 71335952 0 8405072 16 2147549184 16777248 1056 2048 8388624 2097152 2147483648 537133056 4 2215133184 134219784 262214 32768 35651616 268435456 539557890 268451848 2624 262144 524416 64 0 2 538968066 8388608 2084 32 3223389249 68159488 133152
is_linear=0
shrinkage=0.05


Tree=21
num_leaves=31
num_cat=22
split_feature=28 37 2 30 37 36 36 37 36 36 30 30 36 8 29 37 31 37 37 35 37 35 37 37 34 36 36 36 12 36
split_gain=163.674 57.2969 51.9954 30.4582 21.9522 18.7511 18.7029 15.7024 15.1824 14.0671 12.0411 10.0829 9.77538 9.61246 11.0347 11.1561 9.54753 16.0373 12.5974 11.845 9.45515 9.33072 15.1557 11.3746 14.6815 8.95671 8.38534 8.12934 8.05963 7.99598
threshold=2.5851904238973353 0 4.1000621318817148 1 2 3 4 5 6 7 8 9 10 4.1000001430511483 3.258697280612763 11 12 13 14 25.755000114440922 15 22.755000114440922 16 17 0.75049999356269848 18 19 20 3.00000011920929 21
decision_type=2 9 2 1 9 9 9 9 9 9 1 1 9 2 2 9 1 9 9 2 9 2 9 9 2 9 9 9 2 9
left_child=3 13 5 7 16 -3 -4 12 -7 -6 -10 -8 -1 14 15 -2 17 -5 19 -18 28 23 -23 24 -11 -24 -25 -9 -13 -12
right_child=1 2 6 4 9 8 11 27 10 21 29 20 -14 -15 -16 -17 18 -19 -20 -21 -22 22 25 26 -26 -27 -28 -29 -30 -31
leaf_value=-0.0030532577395239319 -0.012431161859820877 0.0093840733681263 0.014374252246046923 0.009621452655386855 0.0045391286439490893 -0.0044755297628956128 0.0097684054219205514 0.0047132949365854757 0.0049575179063991179 0.0058468114633323659 -0.003814455511897949 -0.0091358224861118869 0.0051339765135868208 -0.014494122420168065 0.0066622283041835074 -0.0018975194570595754 -0.0078514822793004906 -0.0053586731682438628 -0.0050858314110359473 -0.020060003436554008 0.0063746914216220004 -0.003356134786773489 -0.0042186184988849745 -0.0079779357731114327 -0.0075576944868409783 0.0020341946610259276 -0.0013099163749340278 -0.0015619443041046924 0.0044650159974063434 0.0020183711635380886
leaf_weight=431 384 1008 1244 262 747 765 1759 554 3935 219 638 213 2047 244 216 770 721 510 5291 289 1283 4246 681 538 2401 3270 3761 5796 218 5959
leaf_count=431 384 1008 1244 262 747 765 1759 554 3935 219 638 213 2047 244 216 770 721 510 5291 289 1283 4246 681 538 2401 3270 3761 5796 218 5959
internal_value=1.31302e-06 0.00372225 0.00457629 -0.00218019 -0.00314022 0.00286207 0.00904718 0.000311581 0.00226539 -0.00209902 0.00276355 0.00706294 0.00368332 -0.00524967 -0.00360504 -0.00557014 -0.00546205 -0.00015476 -0.00611304 -0.0112826 0.00421689 -0.00243315 -0.0012842 -0.0037906 -0.00639375 0.000935898 -0.00217257 -0.00100006 -0.00209197 0.00144179
internal_weight=50400 18636 17022 31764 22936 12305 4717 8828 11297 15863 10532 3473 2478 1614 1370 1154 7073 772 6301 1010 1714 15116 8197 6919 2620 3951 4299 6350 431 6597
internal_count=50400 18636 17022 31764 22936 12305 4717 8828 11297 15863 10532 3473 2478 1614 1370 1154 7073 772 6301 1010 1714 15116 8197 6919 2620 3951 4299 6350 431 6597
cat_boundaries=0 3 4 7 23 39 42 57 73 74 75 91 94 95 98 100 103 106 109 125 141 157 172
cat_threshold=201328768 136466904 327810 6 2185765112 2688596010 2123273 16384 67112968 2148016132 33554944 0 8650752 1073741952 67108866 16785408 14336 24 131072 2177 128 0 1408 67109128 1052672 139266 16 1040 16777472 1057024 4194304 2147485696 0 65552 16777218 131072 67108865 1 8192 3256881670 6441281 1311185 2097156 128 16777216 0 134291456 335544320 266240 268436480 270533120 0 2147614784 4997152 67108904 25427968 64 2099208 268435456 67113008 1056 4 65536 264 268599296 2098176 524320 16 73760 33284 0 2097408 258 14 6 4194304 150995232 32768 2171136 268566528 0 32 786432 256 2 256 134217872 605028392 33558528 2415919232 64 67108864 264 262144 16 128 6144 512 0 2056 2147631104 41945089 3179264 1544683777 1275332369 561494 16800257 268501056 1540224 4718592 1073741832 0 1612709888 268582912 0 294944 802816 256 512 2304 16 537395202 4 0 52 150995072 1207959584 64 0 269484040 264768 1342177280 1107296384 16777281 1024 9437184 33554432 2 536870912 4 64 20972033 1181697 554696704 133120 0 1073741825 8256 33554432 128 9699330 32768 4 524544 301998080 4 1 32768 805568512 2097152 134217760 1024 65568 4 24576 1024 33882128 1077936129 2418016256 9232 0 4194304
is_linear=0
shrinkage=0.05


Tree=22
num_leaves=31
num_cat=21
split_feature=28 9 37 30 37 36 37 31 34 36 10 30 36 36 36 36 36 35 37 37 0 36 36 2 30 16 36 36 36 8
split_gain=149.522 46.2245 33.3419 33.2574 24.537 23.7998 20.5156 19.2708 17.822 14.4656 13.2125 12.8728 12.6868 12.607 11.1879 10.306 10.2865 10.1145 15.7579 11.4247 8.94521 8.70339 7.86591 7.68581 7.26739 6.55289 6.14052 5.75565 5.60404 5.55667
threshold=3.2736964055470064 2.4974881410598759 0 1 2 3 4 5 0.75249999761581432 6 5.7753543853759775 7 8 9 10 11 12 22.515000343322757 13 14 0.70000791549682628 15 16 3.6980929374694829 17 2.6999999284744267 18 19 20 2.504987478256226
decision_type=2 2 9 1 9 9 9 1 2 9 2 1 9 9 9 9 9 2 9 9 2 9 9 2 1 2 9 9 9 2
left_child=1 4 29 10 7 -5 15 -1 12 -7 -4 23 -6 -13 -9 -3 -8 18 20 28 -15 -14 -18 -10 -23 -17 -21 -11 -19 -2
right_child=2 6 3 5 8 9 16 14 11 27 -12 13 21 17 -16 25 22 19 -20 26 -22 24 -24 -25 -26 -27 -28 -29 -30 -31
leaf_value=0.0047611550593202514 -0.00098459212096314321 0.009125158297915166 0.0099544725927671607 0.011222105385235761 -0.0047434265039793221 -0.0041533557513806349 0.0041032313601307253 -0.012834059165888007 -0.00069369210763972492 0.0070824060487539213 0.019878867849142553 0.0021428145177402633 0.0082745905937564729 -0.017523255282646682 -0.0057944565930981018 0.00079363176740604707 -0.006858349311945202 -0.0047840031262155426 -0.0034991681055440114 0.00077514809218339181 -0.0077397649603999034 -0.0019648093792774316 -0.00082742399393042991 0.0084596939768395111 0.002417658578714137 0.0042070035465565959 -0.0048621218329757965 0.0029701954106792863 0.00084717082766983898 -0.010307905072602066
leaf_weight=347 410 641 1920 1130 924 584 976 783 3558 1234 424 944 439 290 2496 3000 585 529 3617 537 1514 1420 6520 245 2751 2721 3971 3188 2425 277
leaf_count=347 410 641 1920 1130 924 584 976 783 3558 1234 424 944 439 290 2496 3000 585 529 3617 537 1514 1420 6520 245 2751 2721 3971 3188 2425 277
internal_value=1.23128e-06 -0.00128187 0.00577807 0.00663446 -0.00251161 0.00466731 0.000995681 -0.00633834 -0.00190688 0.00315831 0.011721 -0.00268521 0.000560247 -0.0033927 -0.00754752 0.00311812 -0.000672106 -0.00380354 -0.00545863 -0.00259955 -0.00928873 0.00164086 -0.00133996 -9.06193e-05 0.000912575 0.00242159 -0.00417931 0.00414242 -0.000157124 -0.00474745
internal_weight=50400 41233 9167 8480 26790 6136 14443 3626 23164 5006 2344 17630 5534 13827 3279 6362 8081 12883 5421 7462 1804 4610 7105 3803 4171 5721 4508 4422 2954 687
internal_count=50400 41233 9167 8480 26790 6136 14443 3626 23164 5006 2344 17630 5534 13827 3279 6362 8081 12883 5421 7462 1804 4610 7105 3803 4171 5721 4508 4422 2954 687
cat_boundaries=0 3 4 7 23 26 27 41 42 55 71 85 101 116 119 122 138 154 155 170 186 202
cat_threshold=147456 148967816 262144 6 5243064 2147527080 24584 0 68161536 139270 8208 2097152 262144 1048704 1279262754 0 537925632 65536 2 129 67108864 1 8448 589464103 1078004064 5390704 16 32772 8704 41943040 134217728 512 525312 262144 17408 2098176 2147549696 1077936160 270550016 134225920 18088001 6 4210688 1092616192 32776 2097408 268439552 0 1073741824 1075318788 8393472 2048 8390656 134217748 545259776 520 1 8394752 402653184 20 49168 537919744 335544320 1115136 6144 1 1024 132112 268435520 256 128 16 8384 33554448 135266304 8462596 17301504 537919488 269485056 2097152 33554944 541196290 1064960 8192 16777216 1048608 128 0 0 67117312 8396800 536870912 1073742864 2048 33288 536870912 131328 1074004096 17825984 134352896 1 536889344 1 536936706 139392 514 8 264192 2147483652 266240 2156003842 40960 1049600 128 0 1 12800 570490880 3637248 287601156 1451967493 3604784 33554432 0 134758432 0 1049216 208904 8 2147631616 1024 0 16781328 0 2147484160 0 136446080 257 64 16777240 8388608 134283264 0 335548416 2147484672 1224736769 1024 2097152 8388608 539492352 100663296 8208 33554432 80 65 0 34603264 2097170 133186 77602944 4096 4096 1073938432 536870913 2147508256 0 0 0 34304 4194304 1140867328 4196360 0 1049088 67108880 151011328 1073750016 256 2147491840 4227072 524296 0 8783872 4096 0 1152 268436480 0 0 553648128 134234113 8 2883584 9 0 9445376 134217728 536870913 524288 20 134217744 4176
is_linear=0
shrinkage=0.05


Tree=23
num_leaves=31
num_cat=20
split_feature=9 28 2 37 36 37 37 31 37 30 29 34 36 36 30 36 36 36 3 16 34 15 36 31 36 36 37 28 37 37
split_gain=136.427 44.3951 38.8507 18.4331 17.0782 16.3272 15.2108 22.5196 17.3668 12.8251 19.0809 15.0632 10.9901 9.99308 9.77563 9.47554 9.43329 8.71405 7.95385 7.92339 7.8565 7.70344 7.49466 6.98958 6.83198 6.49083 6.35216 9.3597 6.87368 6.16485
threshold=3.0997776985168461 3.4755236932209566 2.3927955627441411 0 1 2 3 4 5 6 1.9675675059007309 0.75249999761581432 7 8 9 10 11 12 1.1000000834465029 4.1991252899169931 0.57150000333786022 2.999798178672791 13 14 15 16 17 1.5142857458974637 18 19
decision_type=2 2 2 9 9 9 9 1 9 1 2 2 9 9 1 9 9 9 2 2 2 2 9 1 9 9 9 2 9 9
left_child=2 3 6 24 -3 15 7 8 -1 10 22 18 -9 -7 -6 -4 -5 -13 -11 20 -15 23 -8 29 -2 -22 27 -18 -29 -19
right_child=1 4 5 16 14 13 9 12 -10 11 -12 17 -14 19 -16 -17 26 21 -20 -21 25 -23 -24 -25 -26 -27 -28 28 -30 -31
leaf_value=0.012688650189107363 0.0097483786073832377 0.022269941621870511 -0.0083969560256474639 0.0053176471347367851 0.010571559434359182 0.0075788467786575596 -0.0089916090838454213 -0.011158227632495256 -0.0051413319033788117 0.011066816962410173 -0.0188165409130726 -0.0064745999525403879 -0.0049698719952449826 0.0049182174012853738 0.0056752180980725693 -0.0011602434174926932 0.0052998551119330913 -0.013360505915015117 0.001405009379414886 0.0064696414215276304 -0.0050952230916701882 0.0026952043433222587 -0.0028022117664309072 -0.0013931599957966816 0.0036443452282535712 0.00064535912635423477 0.00018910662203222887 -0.013342962926253678 -0.0034980256195919577 -0.0036451470165927121
leaf_weight=289 549 201 526 645 1661 662 542 918 241 238 208 978 3991 1020 3172 3159 201 213 2280 671 520 967 5749 6273 3459 6804 2505 259 665 834
leaf_count=289 549 201 526 645 1661 662 542 918 241 238 208 978 3991 1020 3172 3159 201 213 2280 671 520 967 5749 6273 3459 6804 2505 259 665 834
internal_value=1.15622e-06 0.00434315 -0.00155676 0.0020844 0.00804978 0.000596477 -0.00277179 -0.00509926 0.00462912 -0.00207269 -0.00385853 -0.00108102 -0.00617016 0.00167727 0.00738667 -0.00222668 -0.00019288 -0.00201682 0.0023381 0.00123044 0.000804601 -0.0014751 -0.00336215 -0.00203486 0.00451508 0.000224878 -0.00119768 -0.0043041 -0.00649397 -0.0058318
internal_weight=50400 13317 37083 8283 5034 13362 23721 5439 530 18282 6499 11783 4909 9677 4833 3685 4275 9265 2518 9015 8344 8287 6291 7320 4008 7324 3630 1125 924 1047
internal_count=50400 13317 37083 8283 5034 13362 23721 5439 530 18282 6499 11783 4909 9677 4833 3685 4275 9265 2518 9015 8344 8287 6291 7320 4008 7324 3630 1125 924 1047
cat_boundaries=0 3 17 20 23 24 27 28 40 55 56 70 85 101 117 118 134 150 153 156 159
cat_threshold=1713537575 1145112641 4326258 0 0 131072 0 0 0 1048576 0 0 0 65536 0 0 67108864 2618966192 208175657 2361046 5775544 3758143962 26122 16 0 6144 512 65 256 8896 33554448 135266304 1082139908 16777216 1048576 286261264 2100256 33619968 537001986 16384 0 67108864 524292 135266832 67108881 2 16777216 201490688 41984 2112 33570832 0 1073744000 33554432 1 6 134217728 16908288 32768 8192 557056 549454848 32 64 1056 2048 8 541327360 2248147072 33652800 603980032 0 589824 12480 2 2147508224 16 2147487748 2148794368 2181038082 8192 263168 129 33619968 12288 16778304 65552 524288 65540 1064960 67110920 406847556 64 65536 768 8388608 1073745920 65568 2048 4128 80 33620992 32768 0 16781316 268435464 4194304 2098176 134218240 268439553 262656 34603008 4 67108864 1073741840 1088 4 16 262144 640 1024 33554432 8704 140288 1073741824 0 268437504 41480 536870912 1024 262144 16585 671105024 1 0 0 64 1073741824 0 0 268435456 9 1375731984 256 4194368 16 12323 512 2416705696 4192 2048 167792664 2424837 0 8 262144 512 65536 2359296
is_linear=0
shrinkage=0.05


Tree=24
num_leaves=31
num_cat=19
split_feature=2 1 2 37 36 37 10 36 36 36 36 37 35 36 16 30 31 30 36 22 36 37 23 19 29 34 37 36 36 37
split_gain=124.224 43.9147 32.8046 36.7332 18.71 18.1591 14.1287 11.9042 11.8374 10.8534 10.7996 10.1754 9.01471 8.9762 8.3985 8.39644 8.30126 8.26702 8.06687 7.86102 7.6469 7.57334 7.23001 7.16505 6.64668 14.3882 6.32386 5.74994 5.17683 5.15841
threshold=3.4000002145767216 2.1000138521194462 8.5999999046325701 0 1 2 2.050058245658875 3 4 5 6 7 21.545000076293949 8 3.5467163324356084 9 10 11 12 3.3000000715255742 13 14 3.6000000238418584 4.2126791477203378 1.6377988644136356 0.58550000190734874 15 16 17 18
decision_type=2 2 2 9 9 9 2 9 9 9 9 9 2 9 2 1 1 1 9 2 9 9 2 2 2 2 9 9 9 9
left_child=1 6 3 -2 -5 10 11 -8 -7 -6 -3 12 -1 -10 20 -12 -17 27 -13 21 -9 -19 26 -14 25 -20 -11 -15 -27 -21
right_child=2 5 -4 4 9 8 7 14 13 22 15 18 23 17 -16 16 -18 19 24 29 -22 -23 -24 -25 -26 28 -28 -29 -30 -31
leaf_value=0.0012032567170585076 -0.0050296267683117915 -0.0033115170847125134 0.019279338926103257 0.010388870031461578 -0.0024620106139510651 -0.0069666493582032293 -0.0074370141612119496 0.0036126464636347792 0.00487679392359496 -0.0001131833830446652 0.00068336552311084242 0.0026614582460556401 -0.0069909781905225414 0.0050168338036470812 0.0035538794424447243 0.008158738562914351 0.0031229121928035043 -0.012329597122139628 0.0086057132531766646 0.0077459231861575972 -0.0018439250063944448 -0.0027762215723169093 0.0070330554068483379 -0.017097900232523774 -0.012421004307783838 -0.0071457730630676399 0.0046610683629197862 5.1641131238369289e-05 -0.0031784770033296051 -0.00035121150594620435
leaf_weight=296 905 680 393 1612 529 682 731 690 790 898 2115 548 1961 644 970 1190 2817 219 244 230 7289 3207 2503 202 209 966 2847 5597 7396 1040
leaf_count=296 905 680 393 1612 529 682 731 690 790 898 2115 548 1961 644 970 1190 2817 219 244 230 7289 3207 2503 202 209 966 2847 5597 7396 1040
internal_value=1.0021e-06 -0.00120884 0.00509095 0.00448561 0.00551749 0.000526266 -0.0027614 -0.00133714 -0.000609007 0.0043378 0.00260178 -0.00392337 -0.00680718 -0.000229389 -0.000824053 0.00327109 0.0046194 -0.000606903 -0.00315002 -0.00219174 -0.00136357 -0.00344559 0.00492452 -0.00795797 -0.00351958 -0.00330168 0.00351506 0.000579197 -0.00365512 0.00113405
internal_weight=50400 40713 9687 9294 8389 19211 21502 9680 12409 6777 6802 11822 2459 11727 8949 6122 4007 10937 9363 4696 7979 3426 6248 2163 8815 8606 3745 6241 8362 1270
internal_count=50400 40713 9687 9294 8389 19211 21502 9680 12409 6777 6802 11822 2459 11727 8949 6122 4007 10937 9363 4696 7979 3426 6248 2163 8815 8606 3745 6241 8362 1270
cat_boundaries=0 3 19 22 38 54 70 86 89 105 106 107 108 124 139 142 145 160 175 178
cat_threshold=335562880 148906525 262274 67109120 67112960 143366 8720 0 16777216 1056896 138413314 2147483648 4194304 65544 16777218 8388608 67108928 1 8192 1109451269 7340036 4327712 4194624 16778240 0 134217728 16801792 553648256 36 286262304 33554480 256 12599298 268435456 0 65536 1179648 64 0 131200 68 262400 1073743872 128 131072 436207616 276828160 8192 67616 538968068 100663296 131088 64 2072 0 0 0 541589568 64 135432 8650752 16384 0 2147483680 1073872900 272654336 48 264320 32 16 268436480 0 0 2162688 402784256 2097152 32 786440 570425616 16777216 260 134250517 536870944 524292 2147483648 4100 1245708536 536877064 200 547356672 0 788736 131136 8192 671105312 0 2147483908 262144 0 20496 1280 513 268439552 0 386 65 64 30 4112 131072 4718592 131088 4 1077968897 132128 2181300224 66560 16384 1073741824 0 32784 536870976 1074806784 129 134217752 10241 1048578 0 135267328 8193 10240 167780352 538968064 8704 536870916 0 8 4 136331280 16 0 262208 1090519058 67111168 3801120 1073742336 1 671105025 18560 16777216 8388616 278528 163840 2148532228 0 4 4718594 0 34611200 536870916 37880832 16 0 16781316 806388232 576 1073741824 0 2281717760 2097672 2097168 4096 67117056 36 32 131074 75498240 1314880
is_linear=0
shrinkage=0.05


Tree=25
num_leaves=31
num_cat=20
split_feature=9 28 28 37 37 37 6 34 36 37 3 36 36 36 34 36 30 30 36 30 36 30 36 36 36 36 8 19 36 28
split_gain=114.363 35.3216 32.5304 23.7591 18.8704 16.4351 14.5955 13.7077 12.6214 12.422 21.0293 11.6381 11.4151 10.5336 9.73727 9.69286 9.17353 8.91613 8.82076 8.31067 6.95839 6.8049 6.24021 6.23776 6.10287 6.01328 5.95315 6.50032 5.83109 5.59816
threshold=3.1983202695846562 1.9142857518579282 4.085714442389353 0 1 2 6.8001606464385995 0.58750000596046459 3 4 1.7998927831649782 5 6 7 0.79649999737739574 8 9 10 11 12 13 14 15 16 17 18 3.6000002622604375 4.7290842533111581 19 1.5142857458974637
decision_type=2 2 2 9 9 9 2 2 9 9 2 9 9 9 2 9 1 1 9 1 9 1 9 9 9 9 2 2 9 2
left_child=1 5 4 6 29 14 9 25 -9 10 -3 -6 -4 -7 -1 -10 24 -15 -11 28 -12 -14 -18 -19 -17 -5 27 -20 -13 -2
right_child=2 3 12 7 11 13 -8 8 15 18 20 19 21 17 -16 16 22 23 26 -21 -22 -23 -24 -25 -26 -27 -28 -29 -30 -31
leaf_value=0.014145604549770858 0.0054551683732424862 0.0014044822561674756 0.0194089377958638 0 0.0092662421243362887 -0.0080473970993716875 0.0082071944832548122 0.0054663251141794907 -0.0047682050618082557 -0.0076339969750572187 -0.0068075987339802349 -0.0014723216355966597 0.011511512326145433 0.00028592613964239518 -0.0004350490851200968 -0.0029944827981730885 0.0034204057390066949 0.0014014194254346303 -0.001663987548013 0.00020365502662133113 -0.020395846994924208 0.005820286770867677 -0.0016839142333103252 -0.0039719615227761041 0.0019027390583442189 0.0061652740938406368 0.003577109527293581 -0.0095517794204914783 0.0046271956617506211 -0.0034356928502836527
leaf_weight=205 200 281 242 559 863 1243 279 1064 1044 710 206 415 877 1596 245 689 653 556 3433 1888 300 1723 5825 10380 6574 1520 484 287 4710 1349
