tree
version=v4
num_class=1
num_tree_per_iteration=1
label_index=0
max_feature_idx=37
objective=regression
feature_names=lag_1 lag_2 lag_3 lag_4 lag_5 lag_6 lag_7 lag_8 lag_9 lag_10 lag_11 lag_12 lag_13 lag_14 lag_15 lag_16 lag_17 lag_18 lag_19 lag_20 lag_21 lag_22 lag_23 lag_24 lag_25 lag_26 lag_27 lag_28 lag_mean_7 lag_std_7 wday month promo_bin is_event discount avg_temp store_code prod_code
feature_infos=[0:24.563737869262695] [0:24.563737869262695] [0:24.563737869262695] [0:24.563737869262695] [0:24.563737869262695] [0:24.563737869262695] [0:24.563737869262695] [0:24.563737869262695] [0:24.563737869262695] [0:24.563737869262695] [0:24.563737869262695] [0:24.563737869262695] [0:24.563737869262695] [0:24.563737869262695] [0:24.563737869262695] [0:24.563737869262695] [0:24.563737869262695] [0:24.563737869262695] [0:24.563737869262695] [0:24.563737869262695] [0:24.563737869262695] [0:24.563737869262695] [0:24.563737869262695] [0:24.563737869262695] [0:24.563737869262695] [0:24.563737869262695] [0:24.563737869262695] [0:24.563737869262695] [0.53775988306318012:13.018840653555733] [0.14846149058136673:7.4593613753535912] -1:3:4:0:1:2:5:6 -1:5:6:4 -1:2:1 -1:0:1 [0.31799998879432678:1] [18.360000610351562:29.200000762939453] -1:68:67:110:125:0:13:24:47:109:115:58:144:9:16:27:46:52:61:69:79:100:121:143:152:1:18:20:62:78:94:99:148:150:2:3:5:10:11:12:17:21:23:28:33:34:35:37:39:41:44:51:53:54:57:59:64:65:71:74:76:81:83:85:87:89:96:98:101:105:106:107:111:113:114:116:122:126:127:128:129:130:133:135:138:147:153:4:6:7:8:14:15:19:22:25:26:29:30:31:32:36:38:40:42:43:45:48:49:50:55:56:60:63:66:70:72:73:75:77:80:82:84:86:88:90:91:92:93:95:97:102:103:104:108:112:117:118:119:120:123:124:131:132:134:136:137:139:140:141:142:145:146:149 -1:10:4:25:27:11:29:31:18:12:32:2:22:26:28:0:16:1:8:3:5:19:7:13:20:30:14:24:34:6:9:15:17:21:23
tree_sizes=2874 3054 3099 3094 3147 3150 3112 3123 3045 3118 3074 3171 3176 3209 3254 3140 3164 3114 3123 3207 3100 3257 3072 3123 3191 3119 3087 3178 3192 3108 3056 3091 3091 3223 3134 3149 3038 3107 3108 3180 3165 3244 3077 3136 3156 3129 3198 3174 3227 3171 3197 3059 3147 3125 3127 3097 3217 3082 3136 3136 3141 3076 3149 3121 3176 3182 3098 3147 3150 3103 3218 3160 3053 3116 3141 3121 3127 3097 3188 3110 3078 3157 3181 3105 3166 3186 3209 3037 3225 3126 3115 3138 3152 3121 3063 3109 3169 3141 3161 3143 3137 3147 3210

Tree=0
num_leaves=31
num_cat=15
split_feature=1 36 36 36 30 30 28 36 28 30 15 31 36 36 30 34 36 8 36 28 28 28 8 35 23 11 30 35 1 30
split_gain=214.63 73.1643 48.7655 27.0519 22.5387 18.4217 14.4337 14.09 13.5899 11.4173 10.9996 8.075 6.42661 5.94995 5.62276 4.9722 4.21357 3.98393 3.38262 3.23944 2.83982 2.48055 2.3719 2.31307 1.5911 1.53313 1.37692 1.35412 1.3233 1.23933
threshold=4.1270360946655282 0 1 2 3 4 3.2406205960682466 5 4.3999635832650332 6 6.9048459529876718 7 8 9 10 0.7540000081062318 11 3.2999998331069951 12 2.3285714983940129 3.6456192902156288 4.1428572109767376 4.3999998569488534 22.494999885559086 2.4740935564041142 4.1999521255493173 13 22.855000495910648 6.3015244007110605 14
decision_type=2 9 9 9 1 1 2 9 2 1 2 1 9 9 1 2 9 2 9 2 2 2 2 2 2 2 1 2 2 1
left_child=2 10 9 14 8 13 15 -6 20 16 -2 -11 -8 27 -4 -7 -1 -9 -13 -17 -3 29 -15 -20 -21 -16 -19 -5 -10 -14
right_child=1 4 3 5 7 6 12 17 28 11 -12 18 21 22 25 19 -18 26 23 24 -22 -23 -24 -25 -26 -27 -28 -29 -30 -31
leaf_value=1.4980166786122324 1.5307161430024387 1.514759465795992 1.5202828622291502 1.5028158632078878 1.518301937604261 1.5044710846621465 1.5030487047776337 1.5045967505276561 1.5257708036638356 1.4860571984756759 1.5452840017039648 1.4903431436826236 1.5102588267472115 1.5111747340770147 1.5088297962615291 1.4914280038267846 1.5075043017157073 1.5083521965426265 1.5034196080475632 1.5028752109035688 1.5208336677398859 1.5139202495596411 1.5170815145748155 1.4961787716457755 1.4972556638793983 1.5143252685487638 1.5133681686319507 1.5082938167078146 1.5324768785535618 1.505826870432315
leaf_weight=212 346 408 352 207 657 382 650 356 265 268 241 203 286 683 214 202 330 209 249 248 447 243 239 275 459 281 331 326 202 309
leaf_count=212 346 408 352 207 657 382 650 356 265 268 241 203 286 683 214 202 330 209 249 248 447 243 239 275 459 281 331 326 202 309
internal_value=1.51026 1.52035 1.50498 1.50738 1.51695 1.50574 1.50335 1.51278 1.52175 1.4972 1.53634 1.49389 1.50674 1.51028 1.51547 1.49944 1.50355 1.50874 1.49662 1.49738 1.51799 1.50975 1.51273 1.49973 1.49916 1.51182 1.51136 1.50615 1.52878 1.50795
internal_weight=10080 3462 6618 5081 2875 4234 2779 1553 1322 1537 587 995 1488 1455 847 1291 542 896 727 909 855 838 922 524 707 495 540 533 467 595
internal_count=10080 3462 6618 5081 2875 4234 2779 1553 1322 1537 587 995 1488 1455 847 1291 542 896 727 909 855 838 922 524 707 495 540 533 467 595
cat_boundaries=0 5 10 15 16 17 22 23 24 29 34 35 40 45 46 47
cat_threshold=1346502656 1073741856 131104 65536 33557505 572530848 51511872 633372803 2148795908 37640 282216512 1073746352 1073753108 1344287200 262148 3 7 143935560 33152 1073760276 136329416 6 7 64 67110420 78194703 436289536 62930946 1130544 134513667 138985476 2149057320 96501778 524288 15 570433536 0 536870912 1312260 512 2097280 0 603979777 2148532740 256 68 24
is_linear=0
shrinkage=1


Tree=1
num_leaves=31
num_cat=13
split_feature=1 36 36 36 30 30 28 36 36 15 8 6 36 36 30 34 37 30 28 28 35 28 28 8 23 15 30 16 34 11
split_gain=193.99 67.1343 43.4169 24.9825 19.1663 17.6737 13.7321 12.89 12.0416 10.6329 10.2801 5.86608 5.56346 5.55442 5.44506 4.76786 4.66267 4.4908 3.11258 2.82957 2.78353 2.59444 2.58864 2.47055 1.66542 1.62614 1.55639 1.41289 1.34741 1.11125
threshold=4.1270360946655282 0 1 2 3 4 3.2406205960682466 5 6 6.7602233886718759 2.6000000238418584 2.3000140190124516 7 8 9 0.7150000035762788 10 11 4.054956555366517 3.6456192902156288 22.125000000000004 4.6003313234874188 2.3285714983940129 4.3999998569488534 2.4740935564041142 2.9239563941955571 12 3.8294090032577519 0.7540000081062318 4.1999521255493173
decision_type=2 9 9 9 1 1 2 9 9 2 2 2 9 9 1 2 9 1 2 2 2 2 2 2 2 2 1 2 2 2
left_child=2 9 10 17 8 12 15 -6 21 -2 11 -1 25 -8 -12 -7 27 -4 26 -10 -16 -3 -17 28 -24 -5 -15 -9 -14 -19
right_child=1 4 3 5 7 6 13 16 19 -11 14 -13 23 18 20 22 -18 29 -20 -21 -22 -23 24 -25 -26 -27 -28 -29 -30 -31
leaf_value=-0.025175937485267842 0.018787725440174909 0.013465617858159459 0.0095215802609989394 -0.0075552653544472079 0.0077507467381833913 -0.0054845803126873025 -0.0073616156035228586 -0.00099863035430885084 0.002756863621330452 0.032703772893660325 -0.0021764606937990558 -0.013922944182050241 0.0032197110703427716 -0.000182155849459196 -0.0069680510480950412 -0.017788431386513811 -0.0056945314812918172 -0.000796479925153179 0.0032432121908691778 0.0091234487217623107 -0.014351940630661085 0.021466203433904783 -0.0070944724957499768 0.0067116744432370277 -0.012699583231029921 -0.0016234770081835132 -0.005136261707158439 0.0040655863532617206 -0.0010769590444839265 0.003912537220022539
leaf_weight=205 343 290 339 211 645 383 555 253 321 267 241 356 324 331 232 203 370 204 289 470 418 229 255 245 483 319 356 274 395 274
leaf_count=205 343 290 339 211 645 383 555 253 321 267 241 356 324 331 232 203 370 204 289 470 418 229 255 245 483 319 356 274 395 274
internal_value=0 0.0095881 -0.00501898 -0.00283732 0.00626062 -0.00435158 -0.00665572 0.00239957 0.010715 0.0245582 -0.01264 -0.0181241 3.33096e-05 -0.00340562 -0.00927272 -0.0104265 -0.00143617 0.005118 -0.00101896 0.00652057 -0.0116147 0.016769 -0.0123847 0.00232253 -0.0108306 -0.0040038 -0.00289954 0.00151083 0.000789691 0.00176138
internal_weight=10080 3462 6618 5166 2852 4349 2855 1542 1310 610 1452 561 1494 1531 891 1324 897 817 976 791 650 519 941 964 738 530 687 527 719 478
internal_count=10080 3462 6618 5166 2852 4349 2855 1542 1310 610 1452 561 1494 1531 891 1324 897 817 976 791 650 519 941 964 738 530 687 527 719 478
cat_boundaries=0 5 10 15 16 17 22 27 31 36 37 38 39 40
cat_threshold=1346502656 1090519072 131104 65536 33557505 572530848 51511872 629178371 2148795908 37640 282216512 1073746352 1073753108 1344287200 4 3 7 143935561 33168 1073760276 2111688 4 136055304 32784 1090537564 2283829584 327686 134513667 138985476 2153251496 96501778 67110404 8988687 406929408 62930946 1130544 3 4588560 15 24
is_linear=0
shrinkage=0.05


Tree=2
num_leaves=31
num_cat=15
split_feature=1 36 36 28 30 30 36 36 36 9 8 30 36 30 6 37 37 36 28 23 35 36 30 28 28 28 9 10 2 16
split_gain=175.28 60.5774 39.8919 22.5087 17.3153 13.039 12.4094 11.829 10.2121 10.0965 9.23437 7.4424 5.45247 5.38542 4.65038 4.63514 4.30788 3.39731 3.25627 2.83387 2.6059 2.27482 2.21612 1.72436 1.57409 1.51562 1.35412 1.2833 0.966241 0.92357
threshold=4.1270360946655282 0 1 3.2285780225481311 2 3 4 5 6 7.3999998569488534 2.6000000238418584 7 8 9 2.3000140190124516 10 11 12 3.6456192902156288 2.4281663894653325 22.515000343322757 13 14 4.6003313234874188 4.6003313234874188 3.9419394390923643 3.5902651548385625 3.7000001668930058 3.0536237955093388 3.5875507593154912
decision_type=2 9 9 2 1 1 9 9 9 2 2 1 9 1 2 9 9 9 2 2 2 9 1 2 2 2 2 2 2 2
left_child=2 9 10 5 8 17 22 -6 24 -2 14 25 19 -12 -1 -13 -9 -4 -10 -7 -15 -17 -5 27 -3 -8 -23 -18 -14 -20
right_child=1 4 3 6 7 12 11 16 18 -11 13 15 28 20 -16 21 23 -19 29 -21 -22 26 -24 -25 -26 -27 -28 -29 -30 -31
leaf_value=-0.023506074653324032 0.018671487474318925 0.013482738801571742 -0.0056010193593760199 -0.00050624669089271621 0.0072540103767579391 -0.0093162616208298764 0.0049960738313719446 -0.0074656819782398303 0.0027993630598569237 0.032753741795543669 -0.0019054080914672992 0.0056454202009944519 -0.0075555857212870926 -0.0073877046577389277 -0.013428028681007016 -0.0034915048906912719 -0.004127641291323504 0.00074980199221201939 0.0061768190371384625 -0.016471874528379876 -0.014313467170009298 -0.0014803701843338311 -0.0067323642244070392 0.0043875561801216276 0.020689062408921197 0.010788613031443675 0.0030101749931927772 0.0011044382681676828 -0.0032096766720983885 0.011203357406593346
leaf_weight=209 395 230 317 228 668 314 403 217 338 215 244 313 475 282 354 538 205 561 211 343 367 307 571 201 205 200 350 251 242 326
leaf_count=209 395 230 317 228 668 314 403 217 338 215 244 313 475 282 354 538 205 561 211 343 367 307 571 201 205 200 350 251 242 326
internal_value=0 0.0091126 -0.00477221 -0.00267708 0.00595057 -0.00643615 0.000205623 0.00227864 0.0101849 0.0233343 -0.0120646 0.00223025 -0.00945867 -0.00886937 -0.0172581 0.000302512 -0.00150652 -0.0015241 0.00678168 -0.0129313 -0.0112085 -0.00109067 -0.00504572 0.000469185 0.0166119 0.00688604 0.00082322 -0.00113805 -0.00607379 0.00932142
internal_weight=10080 3462 6618 5162 2852 2252 2910 1542 1310 610 1456 2111 1374 893 563 1508 874 878 875 657 649 1195 799 657 435 603 657 456 717 537
internal_count=10080 3462 6618 5162 2852 2252 2910 1542 1310 610 1456 2111 1374 893 563 1508 874 878 875 657 649 1195 799 657 435 603 657 456 717 537
cat_boundaries=0 5 10 11 12 17 22 27 28 33 34 36 37 41 46 47
cat_threshold=1346502656 1090519072 131104 65536 33557505 572530816 50463296 633372835 2148795908 37640 3 7 67109909 281552911 402653704 130039810 3227680 143935560 33152 1073760276 673462472 4 135531016 32784 1090537500 2283809088 65542 7 17039394 68730880 3949320 570425368 18415632 3 2689079360 4 234958852 151257091 68206592 524552 67633176 134283776 2888892416 33640464 134782977 17047696 7
is_linear=0
shrinkage=0.05


Tree=3
num_leaves=31
num_cat=14
split_feature=28 36 30 30 36 36 28 36 23 36 37 28 2 28 37 30 28 28 9 34 8 36 16 36 20 34 2 37 35 36
split_gain=159.365 50.2086 45.396 29.4268 28.6575 12.3976 11.1779 10.8456 9.23831 8.69899 6.95956 4.91069 4.77122 4.34662 4.01184 3.48639 3.005 2.65143 2.57027 2.31053 2.02626 1.59542 1.51793 1.37171 1.32415 1.22107 1.07251 0.996286 0.868671 0.789444
threshold=4.068811586924963 0 1 2 3 4 3.2285780225481311 5 6.5756409168243417 6 7 2.1684478053024843 1.9000740647315981 3.0865504060472766 8 9 2.885714335100992 4.6003313234874188 3.7000001668930058 0.73649999499320995 2.9236320257186894 10 4.6946716308593759 11 2.7478129863739018 0.9924999773502351 4.7005255222320566 12 22.375000000000004 13
decision_type=2 9 1 1 9 9 2 9 2 9 9 2 2 2 9 1 2 2 2 2 2 9 2 9 2 2 2 9 2 9
left_child=2 8 5 17 10 16 11 -5 -2 -8 12 -6 -4 24 26 23 -1 -3 19 -13 -14 -15 -19 -11 -7 -12 -9 -25 -23 -21
right_child=1 3 4 7 6 13 9 14 -10 15 25 18 20 21 -16 -17 -18 22 -20 29 -22 28 -24 27 -26 -27 -28 -29 -30 -31
leaf_value=-0.0082605954207971809 0.01702580829920269 0.010967567177704042 -0.023156745319202202 0.0067221797900792373 -0.015089017470177282 0.0039677453435896879 -0.0066512777747397226 0 0.030323396579773444 -0.00090861927842729733 -0.0047665677590988855 -0.0042338713189139397 -0.016695320172591017 0.0022447715212369746 -0.0050455518915878805 -0.0027702951937433602 -0.00050911904986719093 0.013879840385236937 -0.0025633655966554548 -0.0053852570516497106 -0.01012476082126211 0.011391749135709332 0.021242940265049297 0.0055416696731762369 -0.001073248859149693 -0.010287311195355395 0.0040450026247261725 0.0011113331253316415 0.00678448355381464 -0.01086697625934489
leaf_weight=249 342 320 214 898 201 223 651 394 247 212 219 361 341 201 352 531 281 205 352 215 266 204 205 324 290 299 254 289 458 482
leaf_count=249 342 320 214 898 201 223 651 394 247 212 219 361 341 201 352 531 281 205 352 215 266 204 205 324 290 299 254 289 458 482
internal_value=0 0.00917852 -0.00430843 0.00610864 -0.00682448 0.00223302 -0.0044613 0.00275408 0.0223084 -0.00195004 -0.0130924 -0.00758651 -0.0161755 0.00474634 -0.000791035 0.00031681 -0.00416658 0.0146078 -0.00648154 -0.00773787 -0.0138983 0.00695812 0.0176833 0.00237305 0.00102059 -0.00789732 0.00148563 0.0035846 0.00815656 -0.00948097
internal_weight=10080 3217 6863 2628 4957 1906 3618 1898 589 2007 1339 1611 821 1376 1000 1356 530 730 1410 1058 607 863 410 825 513 518 648 613 662 697
internal_count=10080 3217 6863 2628 4957 1906 3618 1898 589 2007 1339 1611 821 1376 1000 1356 530 730 1410 1058 607 863 410 825 513 518 648 613 662 697
cat_boundaries=0 5 6 7 12 17 22 27 29 30 31 36 41 42 47
cat_threshold=1346502656 1073741856 131104 65536 33557504 3 3 589570210 34734080 562069665 2165573124 103176 639705219 4374534 2689073824 68159004 33280 144001032 1098000 1073768476 270538952 16777284 66049 338241611 268435978 381829122 1064992 335638552 1 2420378736 28 528 2105344 268484610 570982400 17825792 134222868 536870912 167792704 32769 131072 536874244 201326853 2 512 71434240 4210688
is_linear=0
shrinkage=0.05


Tree=4
num_leaves=31
num_cat=15
split_feature=1 36 2 36 30 36 36 15 30 36 36 8 3 36 37 37 30 36 28 37 28 35 28 30 5 10 0 22 11 10
split_gain=144.454 50.0602 33.8295 17.4662 13.4981 13.4937 10.3338 9.31924 9.1861 8.38633 7.58428 4.71007 4.28595 4.2314 4.08678 3.80447 3.03537 2.84388 2.71882 2.18713 1.95123 1.56163 1.54921 1.51767 1.47139 1.38794 1.3024 1.22404 1.37226 1.20263
threshold=4.1270360946655282 0 3.0946267843246464 1 2 3 4 6.50000023841858 5 6 7 4.2768561840057382 2.1000256538391118 8 9 10 11 12 3.6456192902156288 13 3.706378817558289 24.335000038146976 4.6003313234874188 14 2.6683915853500371 3.3999999761581425 4.5444738864898691 3.4000378847122197 3.2999998331069951 4.1000001430511483
decision_type=2 9 2 9 1 9 9 2 1 9 9 2 2 9 9 9 1 9 2 9 2 2 2 1 2 2 2 2 2 2
left_child=2 7 3 12 9 16 26 -2 24 -3 27 14 -1 25 20 -8 -4 21 -11 -14 -12 -16 29 -13 -5 -10 -6 28 -7 -17
right_child=1 4 5 8 6 10 15 -9 13 18 11 23 19 -15 17 22 -18 -19 -20 -21 -22 -23 -24 -25 -26 -27 -28 -29 -30 -31
leaf_value=-0.019032760241440887 0.015494317634129737 0.015180119424277697 0.010285220300273923 -0.0030291664650902001 0.0042541549201842886 -0.011613911253779736 -0.0071703557356116946 0.028481073034562678 -0.012886414647951504 0.0025262393413868268 -0.0079720677006276594 0.0057686234641290621 -0.0059486244140067052 -0.005012159754959911 -0.0051805743743520921 -0.0036312529612223445 0.0026855392710373759 0.0019228652325895231 0.0084461163691488435 -0.013918645090379683 -0.0015347314767559196 8.7067842225259341e-05 0.0040502297609750909 0.0002460107416826836 0.0020321764377298659 -0.0072796776441028084 0.0090837348909051704 -0.0041960752562790853 -0.0053924363874499268 0.001414570055988639
leaf_weight=327 326 415 207 257 322 235 207 281 425 344 382 245 216 809 347 240 471 559 550 383 201 206 207 296 322 221 355 298 211 215
leaf_count=327 326 415 207 257 322 235 207 281 425 344 382 245 216 809 347 240 471 559 550 383 201 206 207 296 322 221 355 298 211 215
internal_value=-9.7956e-07 0.00826976 -0.00433511 -0.00831174 0.00540159 -0.00110361 0.00215914 0.0212388 -0.00558446 0.00914779 -0.00256209 -0.00106551 -0.0140365 -0.00770682 -0.00238314 -0.00140493 0.00519424 -0.000521937 0.0061553 -0.0114598 -0.00573998 -0.00307233 0.000403318 0.00295061 -0.000125866 -0.0108773 0.00676065 -0.00691977 -0.00878268 -0.00113707
internal_weight=10080 3462 6618 2960 2855 3658 1546 607 2034 1309 2980 2236 926 1455 1695 869 678 1112 894 599 583 553 662 541 579 646 677 744 446 455
internal_count=10080 3462 6618 2960 2855 3658 1546 607 2034 1309 2980 2236 926 1455 1695 869 678 1112 894 599 583 553 662 541 579 646 677 744 446 455
cat_boundaries=0 5 10 11 16 21 22 27 32 37 39 40 41 46 48 49
cat_threshold=1346502664 1090519072 131104 65536 3073 570434690 34734592 564428801 2182350356 99072 3 13781056 1073746352 1076103188 1342190016 17055876 143935553 33152 1073760276 539244744 33554436 7 135531008 32784 1090537492 2283809088 33619974 639639681 34209792 608174762 89129988 1086008 19202080 76056640 2220360490 16924680 18370568 277160080 1 234958852 7 134251298 805595650 2450030593 545292290 532480 2315289600 1 7
is_linear=0
shrinkage=0.05


Tree=5
num_leaves=31
num_cat=15
split_feature=28 36 30 30 36 36 28 36 36 36 28 37 9 28 37 36 30 8 28 28 16 36 36 11 20 0 28 21 30 35
split_gain=131.649 42.5683 38.1596 26.1898 24.2124 12.1909 10.6117 10.4438 7.75441 5.68337 5.15284 4.13719 3.91422 3.74916 3.06043 3.04182 2.79752 2.41987 2.23974 2.06511 1.42784 1.40945 1.40099 1.39416 1.23703 1.23437 1.15943 0.96857 0.907741 0.810693
threshold=4.068811586924963 0 1 2 3 4 3.2285780225481311 5 6 7 2.1414324045181279 8 5.8029463291168222 3.0865504060472766 9 10 11 3.1007220745086674 2.885714335100992 4.6571430393627722 4.7673950195312509 12 13 2.9999998807907109 2.7478129863739018 3.3609712123870854 2.9383225440979008 3.1000000238418584 14 22.375000000000004
decision_type=2 9 1 1 9 9 2 9 9 9 2 9 2 2 9 9 1 2 2 2 2 9 9 2 2 2 2 2 1 2
left_child=2 -2 7 12 9 19 10 18 -8 -4 -6 -7 20 24 23 27 25 26 -1 -5 -3 -15 -13 -12 -9 -10 -11 -16 -24 -23
right_child=1 3 4 5 6 11 8 13 16 17 14 22 -14 21 15 -17 -18 -19 -20 -21 -22 29 28 -25 -26 -27 -28 -29 -30 -31
leaf_value=-0.0074179262729521141 0.024885068244487843 0.0096230787539863753 -0.019989659002171985 0.0038950730293970111 -0.014824324584593858 -0.0062874627917704293 -0.0058022083116652514 0.0037109921305168389 0.00032683506967570589 -0.014234075561603391 -0.005743160769511339 0.0032894981068747214 0.02042185196607578 0.0019712270508267615 -0.0048132326013784719 -0.0012084076420625508 -0.0022442847571247037 -0.0067732435768329607 -0.00063330426411888823 0.0093647778724890302 0.015504640662240693 0.010633570322990601 0.0018683161099033896 -0.011789400589854657 -0.0011591029871731368 0.0044065283002895249 -0.009082528486649288 -0.010067065878446205 -0.0022708651768212234 0.006202670353211967
leaf_weight=246 341 377 232 293 201 213 735 226 395 398 201 448 205 201 260 493 515 360 276 611 216 204 214 305 287 405 255 202 299 466
leaf_count=246 341 377 232 293 201 213 735 226 395 398 201 448 205 201 260 493 515 360 276 611 216 204 214 305 287 405 255 202 299 466
internal_value=-2.34248e-07 0.00834084 -0.00391736 0.00625357 -0.00622446 0.0032253 -0.00415363 0.00207831 -0.00172544 -0.0122766 -0.00714359 -0.000108707 0.0139398 0.00436273 -0.00605268 -0.00413763 0.00055509 -0.0102831 -0.00385264 0.00756361 0.0118498 0.0064014 0.00125993 -0.0093026 0.000888931 0.00242438 -0.0122989 -0.00706565 -0.000445879 0.00751425
internal_weight=10080 3217 6863 2876 4957 2078 3712 1906 2050 1245 1662 1174 798 1384 1461 955 1315 1013 522 904 593 871 961 506 513 800 653 462 513 670
internal_count=10080 3217 6863 2876 4957 2078 3712 1906 2050 1245 1662 1174 798 1384 1461 955 1315 1013 522 904 593 871 961 506 513 800 653 462 513 670
cat_boundaries=0 5 6 7 12 17 22 27 32 33 35 40 41 46 51 52
cat_threshold=1073872896 0 131104 65536 3072 3 3 589570210 34603009 562069665 2165573124 37640 282396680 1073791264 1073752084 270538880 50331716 639705219 4374598 2689073824 68158996 33280 590337 338241610 402670090 381829122 1130528 33554560 0 553648128 2147484160 768 469958658 2147811505 1 67142401 805888 2147500800 71434240 17367168 28 528 2105344 268484610 570982400 17825792 134762563 2685403280 16392 8264 4194307 12
is_linear=0
shrinkage=0.05


Tree=6
num_leaves=31
num_cat=13
split_feature=28 36 30 30 37 36 36 36 36 9 36 8 36 9 28 34 2 37 8 6 28 2 33 36 28 22 13 6 6 1
split_gain=119.061 39.3504 34.5161 23.6451 21.8978 12.6616 11.1376 9.50934 8.96865 4.37268 3.90277 3.88139 3.7638 3.56875 3.34169 2.45404 2.24192 2.15485 2.13803 2.0444 1.98794 1.96075 1.92005 1.69124 1.17119 1.14407 1.13916 1.34938 1.10854 1.09375
threshold=4.068811586924963 0 1 2 3 4 5 6 7 4.50000023841858 8 2.3000140190124516 9 5.8029463291168222 3.3285849094390874 0.58700001239776622 3.3000326156616215 10 2.8999999761581425 2.8000823259353642 3.6782810347420836 5.65921974182129 11 12 4.640958996755737 2.6001023054122929 2.40001392364502 2.7461985349655156 3.8999999761581425 4.7005255222320566
decision_type=2 9 1 1 9 9 9 9 9 2 9 2 9 2 2 2 2 9 2 2 2 2 1 9 2 2 2 2 2 2
left_child=2 -2 7 13 5 11 21 19 15 20 22 -4 -8 24 17 -6 -17 -9 -12 -1 23 -5 -10 -7 -3 -14 -25 -28 -20 -27
right_child=1 3 4 6 8 9 12 14 10 -11 18 -13 25 -15 -16 16 -18 -19 28 -21 -22 -23 -24 26 -26 29 27 -29 -30 -31
leaf_value=-0.0070347118359472193 0.024177951309542357 0.008525341185982669 -0.019540937375897904 0.0054179465475574359 -0.0010903390248507227 -0.0039889254783462488 -0.0059497345972958689 -0.0024296729304755685 -0.00011748489331638004 0 -0.0015931150438871153 -0.01184969566059345 -0.0018928180210114423 0.019437619610192275 0.0068679693609590697 -0.0092337009943981568 -0.0035529546783651029 0.0034657876017599818 0.00627297054018232 -0.00058139835615293126 -0.0030706523776106126 0.010629142779632145 -0.0052084762326210727 -0.0061591014641453517 0.013738635386647165 0.00060879522000782584 -0.014333629478448226 -0.0088984005905609256 0.0011994377609571873 0.0047426800715231867
leaf_weight=248 328 294 302 595 213 248 216 200 405 216 209 505 212 206 642 580 297 536 299 280 225 318 377 220 302 475 240 409 212 271
leaf_count=248 328 294 302 595 213 248 216 200 405 216 209 505 212 206 642 580 297 536 299 280 225 318 377 220 302 475 240 409 212 271
internal_value=-1.00571e-06 0.00793102 -0.00372639 0.00596479 -0.00592071 -0.0094109 0.00309121 0.00197491 -0.00269303 -0.00661061 -0.000141692 -0.0146089 -0.000102596 0.0132508 0.00417242 -0.00613001 -0.0073669 0.0018099 0.00246156 -0.00363829 -0.00771577 0.00720883 -0.0026025 -0.00860668 0.0112509 0.00121195 -0.00970935 -0.0109854 0.00426595 0.00217754
internal_weight=10080 3217 6863 2889 4957 2365 2087 1906 2592 1558 1502 807 1174 802 1378 1090 877 736 720 528 1342 913 782 1117 596 958 869 649 511 746
internal_count=10080 3217 6863 2889 4957 2365 2087 1906 2592 1558 1502 807 1174 802 1378 1090 877 736 720 528 1342 913 782 1117 596 958 869 649 511 746
cat_boundaries=0 5 6 7 9 14 19 24 29 34 39 41 42 47
cat_threshold=1073741824 32 131104 65536 3072 3 3 2533486745 1 587464832 101711872 562036737 2686191108 99080 282527752 1073791232 1073752084 270538880 50331716 639705219 4374598 2689073824 68159004 528 201360643 593412 2150974336 67108866 20520992 65556 880058368 302515208 8437760 425984 2147483648 8392704 92274688 2282225664 1376416 2416185392 1 1 134217729 8388618 134221824 16793601 16384
is_linear=0
shrinkage=0.05


Tree=7
num_leaves=31
num_cat=14
split_feature=1 36 2 36 36 36 23 30 36 30 30 3 36 8 8 37 30 35 28 36 4 28 35 0 36 0 2 13 15 30
split_gain=108.324 38.3399 26.7271 13.6118 10.8286 10.4779 8.69002 7.79995 5.93046 5.86117 4.74359 4.18346 3.55002 3.48787 3.11596 3.09096 2.51898 2.39222 2.36065 2.17207 1.64141 1.45761 1.43132 1.23832 1.17078 1.11956 1.11436 1.10491 1.10396 1.05397
threshold=4.1270360946655282 0 3.0946267843246464 1 2 3 6.5756409168243417 4 5 6 7 2.1000256538391118 8 5.00000023841858 3.2999998331069951 9 10 22.224999427795414 4.3999635832650332 11 3.2002017498016362 2.9383225440979008 22.98499965667725 4.3999998569488534 12 3.2000001668930058 4.2730271816253671 2.9000173807144169 4.4498977661132821 13
decision_type=2 9 2 9 9 9 2 1 9 1 1 2 9 2 2 9 1 2 2 9 2 2 2 2 9 2 2 2 2 1
left_child=2 6 3 11 10 16 -2 21 26 18 -3 -1 20 15 -11 17 -4 -10 27 -17 -9 -5 -21 -12 -19 -14 -7 -6 -29 -13
right_child=1 4 5 7 9 8 -8 12 13 14 23 29 25 -15 -16 19 -18 24 -20 22 -22 -23 -24 -25 -26 -27 -28 28 -30 -31
leaf_value=-0.018418992225963937 0.013552175148319202 0.012519119682655551 0.0093086559518856266 -0.0023301006442134771 0.0066029463134623587 -0.0073304490082276193 0.026275649700396427 -0.012593333829986951 0.00017862644278007544 -0.0045576854578446577 0.0027043599376912414 -0.0062077546465168117 -0.0064891116672407267 0.0050561889472757341 0.0015298388470805198 -0.0021479833606536432 0.002372049037208702 -0.0018195465064572746 0.0099524748429837759 -0.0008307181384658353 -0.0068194283510971251 0.0025880788862254595 0.0039470118624503727 0.0074477051668044962 -0.0072348293392695013 -0.00269472657510407 -0.0025810941861821521 -0.00046768590303908119 0.0044340835244400766 -0.012761824905420834
leaf_weight=271 354 468 207 375 209 542 248 366 234 332 284 231 517 222 559 549 470 204 205 231 265 248 406 376 385 408 208 211 216 279
leaf_count=271 354 468 207 375 209 542 248 366 234 332 284 231 517 222 559 549 470 204 205 231 265 248 406 376 385 408 208 211 216 279
internal_value=-1.49172e-06 0.00715994 -0.00375533 -0.00728998 0.00465989 -0.000881468 0.0185684 -0.00514051 -0.00216749 0.00210757 0.008482 -0.0129909 -0.00703744 -0.000835787 -0.000674774 -0.00151592 0.0046704 -0.00384795 0.00508737 9.18631e-05 -0.0100878 -0.000287432 0.00210292 0.00540056 -0.00559786 -0.00481745 -0.00599996 0.00352059 0.0018948 -0.0102632
internal_weight=10080 3462 6618 2960 2860 3658 602 2179 2981 1732 1128 781 1556 2231 891 2009 677 823 841 1186 631 623 637 660 589 925 750 636 427 510
internal_count=10080 3462 6618 2960 2860 3658 602 2179 2981 1732 1128 781 1556 2231 891 2009 677 823 841 1186 631 623 637 660 589 925 750 636 427 510
cat_boundaries=0 5 10 15 20 21 26 27 28 33 35 36 41 45 46
cat_threshold=1346502656 1090519072 131104 2162688 3073 570434690 33686016 564166656 2182350340 99072 143919112 33040 1092634652 134232529 33620004 13781056 1073746352 1076104212 268448192 17055876 7 639639681 34209792 2218852522 89129988 1086008 3 3 19202080 76546112 2220622089 16924696 18370568 310706320 1 7 2281734150 816081408 302023168 8683554 256 70144 536936450 32832 167919617 71
is_linear=0
shrinkage=0.05


Tree=8
num_leaves=31
num_cat=15
split_feature=28 36 30 30 36 36 36 28 36 36 37 28 37 36 28 3 30 9 25 19 28 30 35 37 23 28 7 16 20 37
split_gain=98.4808 32.9151 29.0521 21.8056 19.1282 10.995 7.98712 7.96017 6.88049 4.71341 4.48941 3.87368 3.37098 3.3529 3.12824 2.262 1.98807 1.9674 1.88559 1.86283 1.68767 1.47244 1.45176 1.84131 1.4192 1.40783 1.33804 1.33273 1.1695 1.09616
threshold=4.068811586924963 0 1 2 3 4 5 3.1285715443747386 6 7 8 2.1414324045181279 9 10 3.0865504060472766 3.8999999761581425 11 3.5902651548385625 3.3000000715255742 4.6761410236358651 5.5584314720971255 12 21.605000495910648 13 2.40001392364502 2.885714335100992 3.4000002145767216 4.3000299930572519 2.7478129863739018 14
decision_type=2 9 1 1 9 9 9 2 9 9 9 2 9 9 2 2 1 2 2 2 2 1 2 9 2 2 2 2 2 9
left_child=2 -2 6 10 9 20 25 11 -9 -4 -3 -6 27 21 28 26 -15 24 -14 -12 -5 -10 -16 -24 -13 -1 -11 -7 -8 -26
right_child=1 3 4 5 7 12 14 8 13 15 19 17 18 16 22 -17 -18 -19 -20 -21 -22 -23 23 -25 29 -27 -28 -29 -30 -31
leaf_value=-0.0070337148871121198 0.02639868549908125 0.019813702376537817 -0.017772800084742264 0.0053209118602579554 -0.013118123452208238 0 0.0032905860578887596 -0.0055510922725269807 0.00032854420284212152 -0.011749462034194901 0.0079479091722635727 -0.003846436231834692 -0.0072858733923959673 0.0042429827393393434 0.009431720839551419 -0.0042182410098865501 -0.00059279573806553807 -0.0019273636656647064 -0.00036007283166961167 0.014319741903874764 0.0099648822904803633 -0.0043279295036782062 0 0.0058058951942371317 -0.0045203319851039019 -0.001004496942733496 -0.0065017950971973312 0.0042271834951264796 -0.0012582215757354349 -0.010405317748593393
leaf_weight=215 202 206 232 660 200 418 242 755 268 573 424 349 204 523 200 223 329 341 221 208 348 390 201 509 234 217 220 326 322 320
leaf_count=215 202 206 232 660 200 418 242 755 268 573 424 349 204 523 200 223 329 341 221 208 348 390 201 509 234 217 220 326 322 320
internal_value=-1.71338e-06 0.00721182 -0.00339031 0.00580295 -0.00540374 0.00309818 0.00183855 -0.00355898 -0.00168913 -0.0107747 0.0126512 -0.00648198 -0.000172902 0.000243892 0.00360707 -0.00897028 0.00233243 -0.00537488 -0.0037147 0.00996639 0.00690529 -0.00237999 0.00545244 0.00426109 -0.0066214 -0.00402766 -0.0103567 0.00180642 0.000604919 -0.00827927
internal_weight=10080 3217 6863 3015 4957 2177 1906 3709 2265 1248 838 1444 1169 1510 1474 1016 852 1244 425 632 1008 658 910 710 903 432 793 744 564 554
internal_count=10080 3217 6863 3015 4957 2177 1906 3709 2265 1248 838 1444 1169 1510 1474 1016 852 1244 425 632 1008 658 910 710 903 432 793 744 564 554
cat_boundaries=0 5 6 7 12 17 22 27 32 34 35 40 41 42 43 44
cat_threshold=1073741824 0 32 65536 1024 3 3 589570208 34734145 562069665 2165573124 37640 282527752 1074839840 1073874964 270538944 50333764 639639682 4374534 2689073824 68158996 512 67732993 2485676042 2151678472 306331650 1638448 33554560 0 553648128 2147484160 768 2685472770 4 2151943760 134217750 549520932 436289538 75530241 417920 28 12 9248820 1207962626
is_linear=0
shrinkage=0.05


Tree=9
num_leaves=31
num_cat=17
split_feature=36 30 28 28 36 36 37 30 28 9 28 37 37 28 36 36 8 34 36 36 31 35 30 2 29 36 1 37 15 37
split_gain=90.3049 36.3331 22.657 19.868 12.7581 12.2235 7.37981 6.57856 5.68128 4.87422 4.48565 3.69366 3.3616 3.12955 3.10116 2.78819 2.72771 2.41282 2.2103 2.04102 1.78124 1.7138 1.57386 1.43406 1.25269 1.21656 1.16954 1.16031 1.1496 1.1297
threshold=0 1 2.9470333712441588 5.9725929158074527 2 3 4 5 3.7933447190693452 7.1352269649505624 3.2406205960682466 6 7 4.1603698799652724 8 9 2.40001392364502 0.56749999523162853 10 11 12 22.244999885559086 13 4.1000001430511483 0.80844352218162785 14 3.6161519289016728 15 5.9000003337860116 16
decision_type=9 1 2 2 9 9 9 1 2 2 2 9 9 2 9 9 2 2 9 9 1 2 1 2 2 9 2 9 2 9
left_child=3 4 6 7 13 20 16 28 11 -5 12 19 -6 -2 26 -8 -3 -10 -19 -7 29 -20 -21 27 -14 -13 -9 -12 -1 -4
right_child=1 2 5 9 10 8 15 14 17 -11 23 25 24 -15 -16 -17 -18 18 21 22 -22 -23 -24 -25 -26 -27 -28 -29 -30 -31
leaf_value=0.0091030534172337457 0.0065138373710439583 -0.019870963686858534 -0.0067708012389121781 0.013578550493474749 -0.0056114538269241791 -0.0033137043310960978 -0.0099064018604608436 -0.00176085879466319 0.0062179898605277039 0.024694610205456897 0.0042068286966152335 -0.0023233991837878424 -0.0011082584165258492 0.014624444672714267 0.0069931133821307381 -0.0044927448973692856 -0.0113729585090892 0.0028164107731911067 0.0014264923756033363 0.0033928008831531071 -0.00440486186333935 -0.0033059782646349687 -0.0019783539089298064 0.0061742323522377129 0.0038590307605540007 -0.0068233605801106996 0.0031462449263885955 -0.00035428283273988099 0.014479735798039933 -0.013089282886651689
leaf_weight=426 363 205 362 247 329 422 522 210 207 211 235 310 317 211 404 652 264 536 310 334 309 460 207 310 203 551 267 286 202 208
leaf_count=426 363 205 362 247 329 422 522 210 207 211 235 310 317 211 404 652 264 536 310 334 309 460 207 310 203 551 267 286 202 208
internal_value=-1.97347e-06 -0.00233936 -0.00441684 0.00957647 0.0030344 -0.00246728 -0.00941595 0.00680465 -0.00105131 0.0188089 0.000780828 -0.00294139 -0.0017317 0.00941829 0.00377712 -0.00700541 -0.0148768 0.00118727 0.000351626 -0.000712949 -0.00768651 -0.00131864 0.00124831 0.00341735 0.000720878 -0.00530585 0.000862971 0.00168101 0.0107411 -0.00951263
internal_weight=10080 8113 5859 1967 2254 4216 1643 1509 3337 458 1680 1824 849 574 881 1174 469 1513 1306 963 879 770 541 831 520 861 477 521 628 570
internal_count=10080 8113 5859 1967 2254 4216 1643 1509 3337 458 1680 1824 849 574 881 1174 469 1513 1306 963 879 770 541 831 520 861 477 521 628 570
cat_boundaries=0 5 6 11 16 18 19 20 21 26 31 36 41 42 43 48 49 50
cat_threshold=1355941960 1073742256 1073874996 2169280 33557509 3 135025152 25169921 50349120 2566938624 6766754 417 59246658 2751496832 2202010628 1639208 86040 1 7 138937636 33575064 64 1073742256 1073741872 4416 1 69468322 67371520 3932545 34603032 18940168 134287362 2885730304 16801800 2013265928 16777218 134250498 807413248 268435464 75546626 17039360 32 28 33554448 4390924 20482 537001985 16781312 2181039104 1258292242
is_linear=0
shrinkage=0.05


Tree=10
num_leaves=31
num_cat=13
split_feature=1 36 2 37 36 36 23 0 30 36 30 6 36 36 30 28 30 34 9 34 19 1 30 8 35 0 37 18 15 8
split_gain=81.3611 29.5236 21.1252 11.8732 9.32791 8.13731 5.7838 5.71656 5.53982 4.78496 4.78379 4.66163 4.56798 4.41248 3.08975 3.52742 3.02269 2.30956 2.13567 2.5544 2.13565 2.02521 1.92626 1.8223 1.20689 1.19547 0.862688 0.855316 0.830418 0.770355
threshold=4.1270360946655282 0 3.0946267843246464 1 2 3 6.5756409168243417 3.4000002145767216 4 5 6 2.3950551748275761 7 8 9 3.7855903250830516 10 0.72450000047683727 4.3633069992065439 0.71349999308586132 3.6212046146392827 5.1001350879669198 11 3.8999999761581425 22.634999275207523 4.3999998569488534 12 3.4817640781402592 3.00000011920929 2.7000001668930058
decision_type=2 9 2 9 9 9 2 2 1 9 1 2 9 9 1 2 1 2 2 2 2 2 1 2 2 2 9 2 2 2
left_child=2 6 3 7 10 22 -2 11 -5 21 -3 -1 29 24 23 17 18 -16 19 -11 -13 -6 -4 28 -10 -12 -17 -15 -14 -7
right_child=1 4 5 8 9 12 -8 -9 13 16 25 20 14 27 15 26 -18 -19 -20 -21 -22 -23 -24 -25 -26 -27 -28 -29 -30 -31
leaf_value=-0.018261968220560039 0.012327183365121133 0.011537844174977226 0.0069685844920260535 0.0014871655512778198 0.0024431747913193844 -0.0082284550616162008 0.023816643747726851 -0.0045135630916684306 -0.010966333813444411 0.0036128935993239735 0.0021620600866816167 -0.0068748662379986948 -0.002785358355184832 -0.0039386377586580739 -0.0012953676071576544 -0.0005893072860985426 -0.0043551766358134935 -0.0066486182948710948 0.0058677002729382371 -0.0032090498842116373 -0.013580733274968049 0.0081717252941723561 0.0013694625834995394 0.0044593676722449139 -0.0060935102629345143 0.0065903664877190573 0.0033124497515876466 -0.00036320844034586726 0.0012655503219989386 -0.004119287713724361
leaf_weight=271 263 495 324 384 370 227 231 321 295 248 305 323 201 427 401 381 309 469 201 306 249 314 368 334 360 420 202 330 332 419
leaf_count=271 263 495 324 384 370 227 231 321 295 248 305 323 201 427 401 381 309 469 201 306 249 314 368 334 360 420 202 330 332 419
internal_value=-3.72276e-06 0.00620211 -0.00325767 -0.00640016 0.00424044 -0.000701139 0.0174478 -0.0103493 -0.00373447 0.00183392 0.00760487 -0.0126348 -0.00185146 -0.00519015 -0.000779438 -0.0021981 -0.000228925 -0.00423867 0.00142933 -6.49308e-05 -0.00988144 0.0050719 0.00412417 0.00153904 -0.00823869 0.00473113 0.000723534 -0.00241416 -0.000168282 -0.00555464
internal_weight=10080 3462 6618 2960 2968 3658 494 1164 1796 1748 1220 843 2966 1412 2320 1453 1064 870 755 554 572 684 692 867 655 725 583 757 533 646
internal_count=10080 3462 6618 2960 2968 3658 494 1164 1796 1748 1220 843 2966 1412 2320 1453 1064 870 755 554 572 684 692 867 655 725 583 757 533 646
cat_boundaries=0 5 7 12 17 18 23 24 29 34 35 36 37 38
cat_threshold=1346502656 1090519040 131104 65536 3072 2233561272 1 143919113 33072 1090537500 136329617 33619973 13781056 1073746352 1076103188 268579144 17055876 3 546368 2323644545 238813248 2688827464 262242 3 639639680 34209792 2214658730 89129988 37432 2393634 67636228 2218558337 1196032 3760128 7 43 15 267312
is_linear=0
shrinkage=0.05


Tree=11
num_leaves=31
num_cat=11
split_feature=36 30 28 1 36 36 36 8 36 36 15 34 28 28 1 34 28 3 34 36 30 6 37 23 10 12 36 11 26 35
split_gain=74.1939 30.5908 19.1375 16.3163 11.2103 10.8774 6.39389 5.42606 4.94547 4.12299 3.49082 3.38621 3.18616 2.86811 2.60887 2.5214 1.85857 1.6119 1.56125 1.61859 1.40827 1.41788 1.3857 1.34893 1.29247 1.12302 1.1149 1.09017 1.01831 0.969332
threshold=0 1 2.9470333712441588 6.576122760772706 2 3 4 5.5788867473602304 5 6 6.8999998569488534 0.56749999523162853 3.6868637869400644 4.1285714932850439 3.2000001668930058 0.82100000977516185 3.7261326483317787 2.1000256538391118 0.58700001239776622 7 8 2.3950551748275761 9 2.4740935564041142 4.2000000476837167 4.6940429210662851 10 2.8999999761581425 3.7000001668930058 21.835000038146976
decision_type=9 1 2 2 9 9 9 2 9 9 2 2 2 2 2 2 2 2 2 9 1 2 9 2 2 2 9 2 2 2
left_child=3 4 6 7 13 15 17 14 11 -6 -5 -7 22 -2 -1 -4 18 -3 -10 -20 21 -8 -11 -22 -13 -26 -18 -17 -29 -24
right_child=1 2 5 10 9 8 20 -9 16 12 -12 24 -14 -15 -16 27 26 -19 19 -21 23 -23 29 -25 25 -27 -28 28 -30 -31
leaf_value=-5.2493138168558843e-05 0.0060607616360292722 -0.01723131266780014 -0.0025460359616586428 0.012775062030265367 -0.0040523120071493347 0.0075470826594782256 -0.0063196394953998038 0.011474620956001956 0.0003041572505677703 -0.0029090301974049621 0.022723149629891852 -0.0012727983466760406 0.0057292171158900007 0.013977027879292636 0.0057260509903705936 -0.012164951149475425 0.00174980826426084 -0.010780798758195702 -0.0016428991692578666 -0.0058832907423226853 -0.0048936134908223921 -0.00046340303355080312 -0.00098080799302004053 -0.010017309259757797 0.0043163003176603801 -0.00026650505345107055 -0.001934046168970027 -0.0047085954635656653 -0.010049899990248377 0.0027542564310840106
leaf_weight=230 337 213 254 225 336 205 238 393 201 221 200 512 413 209 869 202 329 327 444 645 277 218 238 370 289 213 493 265 200 514
leaf_count=230 337 213 254 225 336 205 238 393 201 221 200 512 413 209 869 202 329 327 444 645 277 218 238 370 289 213 493 265 200 514
internal_value=-2.5579e-06 -0.00208836 -0.0039892 0.00881806 0.00282617 -0.00220922 -0.00858954 0.00634946 -0.000847594 0.000793497 0.0175742 0.00165673 0.00202467 0.0090174 0.00447121 -0.00699438 -0.00231759 -0.0131738 -0.00351806 -0.00426945 -0.00612492 -0.00355171 0.000421654 -0.00778072 0.000432912 0.0022722 -0.000401022 -0.00871826 -0.00711346 0.0014859
internal_weight=10080 8163 5895 1917 2268 4252 1643 1492 3331 1722 425 1219 1386 546 1099 921 2112 540 1290 1089 1103 456 973 647 1014 502 822 667 465 752
internal_count=10080 8163 5895 1917 2268 4252 1643 1492 3331 1722 425 1219 1386 546 1099 921 2112 540 1290 1089 1103 456 973 647 1014 502 822 667 465 752
cat_boundaries=0 5 6 11 16 21 26 31 36 37 38 43
cat_threshold=1355941960 1073742256 1073874996 2169152 33557509 3 134758912 58724353 50349120 2566938752 2572514 417 59246656 2768274048 2202010628 1671976 587210880 1179648 11796737 538183168 103168 134565888 2283175936 3940672 2013536440 4194370 637542400 4210694 2684355072 68945412 512 16777236 274739212 134222850 67665921 16912384 12 268697744 8706 604061697 8470536 0 17039360
is_linear=0
shrinkage=0.05


Tree=12
num_leaves=31
num_cat=17
split_feature=28 36 30 30 37 36 36 36 36 8 37 36 36 2 36 30 8 36 19 6 37 28 35 37 27 28 36 35 3 14
split_gain=67.073 24.2979 19.926 15.6611 14.322 7.82592 7.58929 7.58912 6.13026 4.03383 3.84757 3.66112 2.73808 2.45256 2.44506 2.20822 1.72206 1.89353 1.5954 1.49686 1.49331 1.40919 1.4073 1.63567 1.3497 1.27586 1.17698 1.16391 0.955927 0.876194
threshold=4.068811586924963 0 1 2 3 4 5 6 7 4.1306667327880868 8 9 10 3.0946267843246464 11 12 2.7000184059143071 13 4.3633069992065439 2.7000001668930058 14 4.640958996755737 22.025000572204593 15 3.6000002622604375 2.885714335100992 16 24.57499980926514 2.6000630855560307 2.6001023054122929
decision_type=2 9 1 1 9 9 9 9 9 2 9 9 9 2 9 1 2 9 2 2 9 2 2 9 2 2 9 2 2 2
left_child=2 -2 8 10 7 28 21 -4 25 13 -3 15 -8 27 -10 -7 -13 -18 -12 -15 -16 -5 -14 24 -24 -1 -22 -9 -6 -30
right_child=1 3 4 6 5 11 12 9 14 -11 18 16 22 19 20 -17 17 -19 -20 -21 26 -23 23 -25 -26 -27 -28 -29 29 -31
leaf_value=-0.0065298087118334132 0.022432295071347707 0.015283759735473546 -0.017379907936135423 0.0024877042383129569 -0.0080025561048464727 0.00013987707410445771 -0.0053470656237659397 -0.0078925535694628676 0.00025318221368678665 -0.00016068089758880649 0.004595510261984832 -0.0017900576478992168 0.0038689006398304488 -0.0087865537789443299 0.00044668871414614846 -0.0043624190894890743 0 0.0052154272186644736 0.010650471399316195 -0.0033423419237027957 0.0018386533348136959 0.0069561515739451352 0.0045469593527874474 -0.0033863624708507867 -0.00089239213233652378 -0.00091373853377133083 0.0070835348108334185 -0.012657717278581027 -0.0023501343271639542 -0.0060520916920568657
leaf_weight=202 202 318 203 289 376 437 207 415 522 212 283 242 279 225 202 648 308 397 237 402 201 704 205 262 231 252 527 293 327 472
leaf_count=202 202 318 203 289 376 437 207 415 522 212 283 242 279 225 202 648 308 397 237 402 201 704 205 262 231 252 527 293 327 472
internal_value=-4.64586e-06 0.00594762 -0.00280203 0.00473648 -0.00446995 -0.00244375 0.00244174 -0.00811972 0.00152501 -0.00676865 0.0105398 -0.000527669 -0.000231153 -0.00783125 0.00312668 -0.00251867 0.00170371 0.00299807 0.00731074 -0.00537575 0.0046665 0.00564913 0.000845306 -0.000279522 0.00151566 -0.00344673 0.00574772 -0.0099352 -0.00568274 -0.0045996
internal_weight=10080 3217 6863 3015 4957 3207 2177 1750 1906 1547 838 2032 1184 1335 1452 1085 947 705 520 627 930 993 977 698 436 454 728 708 1175 799
internal_count=10080 3217 6863 3015 4957 3207 2177 1750 1906 1547 838 2032 1184 1335 1452 1085 947 705 520 627 930 993 977 698 436 454 728 708 1175 799
cat_boundaries=0 5 6 7 9 14 19 24 29 31 36 41 46 47 52 54 55 60
cat_threshold=1073741824 0 32 65536 1024 3 3 2499899544 1 203466275 543232 2150679457 71434240 3678224 282527753 1074839840 1073874968 270538752 50333764 16777344 0 16777216 2147484160 33280 639705090 6340614 2684879520 76580372 512 2853245442 4 65808 342172678 302842888 8437762 17154080 2164260864 8392704 75497472 2282225664 327840 134481077 268902976 474251274 655368 16822288 12 2147483652 671121712 1073741840 33 4325376 2155876368 1 2688556608 33024 537398272 2097408 536870946 1573120
is_linear=0
shrinkage=0.05


Tree=13
num_leaves=31
num_cat=17
split_feature=36 30 28 1 36 36 36 8 36 36 34 28 36 30 1 31 36 34 28 11 28 37 34 12 36 36 30 36 23 37
split_gain=61.6197 24.5651 15.7611 13.9901 9.43673 9.23636 5.66669 4.77655 4.11127 3.76868 3.18673 2.9181 2.89497 2.51984 2.33792 2.04942 2.27221 2.04146 1.79332 1.51769 1.48036 1.41438 1.36492 1.13197 1.12796 1.08816 1.00363 1.01405 0.9951 0.993275
threshold=0 1 2.9470333712441588 6.576122760772706 2 3 4 5.4960951805114755 5 6 0.56549999117851268 3.6868637869400644 7 8 3.2000001668930058 9 10 0.82100000977516185 3.7933447190693452 2.7000184059143071 3.7933447190693452 11 0.91749998927116405 3.4999998807907109 12 13 14 15 4.6000001430511483 16
decision_type=9 1 2 2 9 9 9 2 9 9 2 2 9 1 2 1 9 2 2 2 2 9 2 2 9 9 1 9 2 9
left_child=3 5 6 7 17 20 -3 14 10 19 -6 21 -5 -8 -1 -15 -17 -4 22 -7 -2 -11 23 -10 -19 -23 -16 -28 -9 -20
right_child=1 2 4 12 8 9 13 28 18 11 -12 -13 -14 15 26 16 -18 24 29 -21 -22 25 -24 -25 -26 -27 27 -29 -30 -31
leaf_value=-0.00036962442592574431 0.0056464319253747538 -0.014123860023299798 -0.0024752210148782923 0.020818060469605271 0.0072563960375298525 -0.0061640086421677898 -0.0012258549044898916 0.0071331934102189659 0 -0.0028199003010263876 0.00033868620305708779 0.0056074370537779047 0.009802068493143027 -0.011699092098390387 0.0076985361851867442 -0.0095265439200609477 -0.0036736931074773807 -0.0053076083575780064 0.0016801421127475603 -0.00018845289023519153 0.0121736007947785 -0.00038016425719504152 -0.0049474264655051782 -0.0037833714037995674 -0.010748132769986587 0.0034332733490838267 0.00061273705110150749 0.005219362697375129 0.01289874433973863 -0.0019889338346819525
leaf_weight=234 207 306 248 209 204 210 251 202 428 215 1008 437 221 235 288 316 535 347 375 252 227 313 619 346 298 393 236 356 221 343
leaf_count=234 207 306 248 209 204 210 251 202 428 215 1008 437 221 235 288 316 535 347 375 252 227 313 619 346 298 393 236 356 221 343
internal_value=-3.60437e-06 -0.00193524 -0.00364407 0.00790777 -0.00201539 0.00248104 -0.00781509 0.00566703 -0.000758408 0.000866042 0.00153167 0.00221256 0.0159847 -0.00618192 0.00387674 -0.00726013 -0.00606089 -0.00655492 -0.00209782 -0.00294901 0.00896896 0.000571486 -0.00315451 -0.00165604 -0.00814766 0.00169108 0.00506271 0.00350668 0.0102637 -7.29656e-06
internal_weight=10080 8113 5859 1967 4216 2254 1643 1537 3323 1820 1212 1358 430 1337 1114 1086 851 893 2111 462 434 921 1393 774 645 706 880 592 423 718
internal_count=10080 8113 5859 1967 4216 2254 1643 1537 3323 1820 1212 1358 430 1337 1114 1086 851 893 2111 462 434 921 1393 774 645 706 880 592 423 718
cat_boundaries=0 5 6 11 16 21 26 31 36 37 38 43 44 49 54 55 59 60
cat_threshold=1355941960 1073742256 1073874996 136386880 33557509 3 536871329 59246658 2772468352 2168456196 1639208 134758912 25169921 50349120 2164269184 475298 50331648 1179648 10485761 263680 37632 134565888 2283175936 3941696 1879318712 4194370 639639682 6307846 2684879360 77366788 528 1073741824 1073741824 32 65536 3072 4 64 2105474 0 68944128 571473944 21045248 262288 536870945 8388674 71336576 4195328 524320 360485 805570048 268468360 33685504 18350080 7 64 1073741952 1073741872 134218048 2147746320
is_linear=0
shrinkage=0.05


Tree=14
num_leaves=31
num_cat=17
split_feature=36 30 28 28 36 36 37 30 36 36 36 34 28 36 8 36 28 36 26 11 28 36 37 36 37 14 36 35 6 0
split_gain=55.8764 22.2157 14.2796 12.7318 8.4187 8.35253 5.35126 5.02211 3.94966 3.83622 3.42788 3.0253 2.83412 2.53049 2.18599 2.08497 2.05068 1.71821 1.50994 1.45247 1.31859 1.27835 1.26319 1.20207 1.16871 1.10769 1.01033 0.844578 0.83389 0.821735
threshold=0 1 2.9470333712441588 5.9725929158074527 2 3 4 5 6 7 8 0.61050000786781322 3.6868637869400644 9 2.4982559680938725 10 3.7933447190693452 11 3.8000000715255742 2.7482241392135625 3.7933447190693452 12 13 14 15 2.3950551748275761 16 22.785000801086429 4.2489876747131357 3.8000000715255742
decision_type=9 1 2 2 9 9 9 1 9 9 9 2 2 9 2 9 2 9 2 2 2 9 9 9 9 2 9 2 2 2
left_child=3 5 6 7 17 20 14 -1 11 -5 19 -6 22 -9 -3 27 18 -4 21 -7 -2 -10 -12 -18 -13 -17 -24 -8 -26 -19
right_child=1 2 4 9 8 10 15 13 16 -11 12 24 -14 -15 -16 25 23 29 -20 -21 -22 -23 26 -25 28 -27 -28 -29 -30 -31
leaf_value=0.0087269132273332991 0.0053641103646450269 -0.016474291242227174 -0.01081002140864842 0.019556929369545766 0.0072257906639957709 -0.0060870817760660077 -0.010938000121801746 -0.00021890175427213685 -0.0050789145812512367 0.0082294827193718206 -0.0026851717379435692 -0.001763115200398813 0.0055285808191666095 0.0050577964276392355 -0.0088666107018792809 -0.0062724287277894685 0.0023546561745069593 -0.0062343103129216936 -0.0052510662584124091 -0.00021633498533004433 0.011564920742284213 -0.00071310731516610853 -0.00036312817912068611 -0.0015156708157512038 0.0038835369651763936 -0.002011845819609549 0.0032658693554437307 -0.0056605627476994701 0 -0.0019313792161070428
leaf_weight=628 207 207 203 242 202 201 223 393 225 216 215 353 423 488 262 269 329 405 531 261 227 764 327 480 267 479 393 203 250 207
leaf_count=628 207 207 203 242 202 201 223 393 225 216 215 353 423 488 262 269 329 405 531 261 227 764 327 480 267 479 393 203 250 207
internal_value=-3.56321e-06 -0.00184322 -0.00346844 0.00752987 -0.00191742 0.00235594 -0.00743911 0.00530042 -0.000793497 0.0149306 0.000818705 0.00168358 0.00210395 0.00267179 -0.0120735 -0.00539631 -0.00195736 -0.00645724 -0.00304856 -0.00281773 0.00852614 -0.00181546 0.000523644 6.86e-06 0.000358653 -0.00356327 0.00156681 -0.00834465 0.0019014 -0.00478246
internal_weight=10080 8113 5859 1967 4216 2254 1643 1509 3401 458 1820 1072 1358 881 469 1174 2329 815 1520 462 434 989 935 809 870 748 720 426 517 612
internal_count=10080 8113 5859 1967 4216 2254 1643 1509 3401 458 1820 1072 1358 881 469 1174 2329 815 1520 462 434 989 935 809 870 748 720 426 517 612
cat_boundaries=0 5 6 11 16 18 19 24 29 34 39 44 49 54 55 60 62 67
cat_threshold=1355941960 1073742256 1073874996 136386880 33557509 3 536871329 59246656 2751496832 2168456196 1639208 134758912 25169921 50349120 2164269184 475298 86040 1 7 282624 2283175936 3940672 1879318712 4194370 1073741824 1073741824 32 65536 1024 637542530 6307846 2684887552 77366788 528 0 1073742208 1073741872 134218048 1 69468290 67371520 3932545 34603024 16777472 128 33554432 2684354560 2164260868 776 67117570 17410 9 33554432 16777216 262288 134291458 603996161 25247752 33554432 16777216 268435860 1 2457637 805570048 268468360 33685504 18350080
is_linear=0
shrinkage=0.05


Tree=15
num_leaves=31
num_cat=14
split_feature=8 36 1 36 36 8 2 30 30 36 36 36 30 34 30 36 0 36 29 0 37 2 18 1 10 18 13 30 9 1
split_gain=51.2628 21.6252 18.1208 9.47795 8.13987 6.92036 5.64945 3.902 3.80684 3.4771 3.37417 3.16746 2.63904 2.43189 1.92352 1.89434 1.74526 1.65864 1.49152 1.30915 1.24905 1.17232 1.05007 1.02406 0.990879 0.969726 0.870488 0.819182 0.73258 0.637772
threshold=4.2768561840057382 0 3.4999998807907109 1 2 7.50000023841858 1.8945583105087282 3 4 5 6 7 8 0.7150000035762788 9 10 2.7000184059143071 11 1.3143633709039555 2.8000823259353642 12 3.3000000715255742 3.3495403528213505 2.3000000715255742 3.6681793928146367 4.8999998569488534 4.3291592597961435 13 3.5902651548385625 4.7401347160339364
decision_type=2 9 2 9 9 2 2 1 1 9 9 9 1 2 1 9 2 9 2 2 9 2 2 2 2 2 2 1 2 2
left_child=2 5 3 6 14 20 -1 10 17 29 26 13 21 -10 -4 -9 -14 -5 24 -8 -2 -11 -18 -15 -13 -17 -3 -12 -24 -6
right_child=1 7 4 8 9 -7 19 15 11 12 27 18 16 23 -16 25 22 -19 -20 -21 -22 -23 28 -25 -26 -27 -28 -29 -30 -31
leaf_value=-0.016762601057998837 0.012241849838088823 0.0052393988802410564 -0.0083136180758767546 -0.0032245374950711225 0.0038048722537890843 0.01858095363568282 -0.0091454365561470952 0.0029984914612945094 -0.002374499137433447 0.00080538609514025381 0.0035702479808924549 -0.0045651439213526606 -0.0046057792665543766 -0.010839308372388284 -0.001826113114955847 -0.00012113153466349817 -0.00163030680951942 0.001225996394755886 0.00083265791026078905 -0.0042818781850831262 0.0064858969469262827 0.0061445173610852931 -0.00021335339524493729 -0.0062318572507011113 -0.0013200858361212067 -0.0044234564520288693 0.009840251915640261 0.00014673411816706411 0.0030654323858252423 0.007836843404247118
leaf_weight=205 243 326 233 319 332 264 364 321 255 202 361 767 208 300 302 401 378 552 221 311 467 276 259 344 412 215 236 405 383 218
leaf_count=205 243 326 233 319 332 264 364 321 255 202 361 767 208 300 302 401 378 552 221 311 467 276 259 344 412 215 236 405 383 218
internal_value=-4.10147e-06 0.0051729 -0.00246256 -0.00460029 0.000621574 0.0113784 -0.00921004 0.0024214 -0.00326548 0.00195268 0.00415979 -0.00433624 0.000788531 -0.00671182 -0.00484396 -7.51448e-06 -0.000408284 -0.000365338 -0.00273853 -0.00697867 0.00879009 0.00391101 0.000394653 -0.00845583 -0.00347357 -0.0016767 0.00713347 0.00184982 0.0016648 0.0053958
internal_weight=10080 3239 6841 4050 2791 974 880 2265 3170 2256 1328 2299 1706 899 535 937 1228 871 1400 675 710 478 1020 644 1179 616 562 766 642 550
internal_count=10080 3239 6841 4050 2791 974 880 2265 3170 2256 1328 2299 1706 899 535 937 1228 871 1400 675 710 478 1020 644 1179 616 562 766 642 550
cat_boundaries=0 5 10 15 16 17 22 27 32 33 34 39 44 45 46
cat_threshold=1489111048 1090535712 1090652192 2552301568 50334720 587203712 50463233 554729507 2148533764 33544 2214592550 268517378 1023410825 353796100 17826688 7 7 273828928 151027888 1376276 20872 133124 1851968 2222981265 16472 536879448 4260039 2138144 77348928 2229617024 570441752 1118224 3 28 2148073473 536903697 8280 536883328 68 134520835 67141632 2150368000 524298 17367040 2685407232 2
is_linear=0
shrinkage=0.05


Tree=16
num_leaves=31
num_cat=14
split_feature=36 30 28 0 36 36 36 34 23 28 30 36 37 11 30 23 28 36 29 36 14 36 35 10 36 37 35 13 1 26
split_gain=46.433 18.4791 11.8169 11.2376 7.44194 7.33369 4.67276 3.90569 3.85517 3.227 3.1306 3.06331 2.47692 1.91907 1.87031 2.29166 1.4805 1.60887 1.45491 1.41108 1.37372 1.33016 1.2526 1.23584 1.22043 1.17327 1.22987 1.08661 0.982506 0.942845
threshold=0 1 2.9470333712441588 6.5794651508331308 2 3 4 0.56149998307228099 5.8604633808135995 3.2406205960682466 5 6 7 4.3621473312377939 8 2.6999999284744267 3.7546401875359678 9 0.75673842559928972 10 2.3950551748275761 11 24.804999351501468 4.1306667327880868 12 13 24.755000114440922 3.9000002145767216 2.0000573396682744 3.3999999761581425
decision_type=9 1 2 2 9 9 9 2 2 2 1 9 9 2 1 2 2 9 2 9 2 9 2 2 9 9 2 2 2 2
left_child=3 4 6 10 29 24 28 22 -5 12 27 23 -6 -12 -8 20 17 -13 -14 -18 -16 -15 -7 -9 -4 26 -11 -1 -3 -2
right_child=1 2 5 8 9 7 14 11 -10 25 13 16 18 21 15 -17 19 -19 -20 -21 -22 -23 -24 -25 -26 -27 -28 -29 -30 -31
leaf_value=0.0047045955430771958 0.01063013789677978 -0.014628021666911224 -0.010035516545854229 0.0085216673756949614 -0.0042342195424791241 0.0063129561794449665 -0.00058768134754659106 -0.00087585646532437837 0.018660187968936075 0.0023553840882073792 -0.00016446568036229521 -0.0012322809237079568 -0.0013218208376041889 0.0016619960798223499 -0.0063532756991893135 -0.0084144358011737971 0.0015971658465311956 -0.005202582008392671 0.004107355658354175 -0.0026561619954122511 -0.00072494765563014575 0.0067303662653311145 0.00073543430519854968 0.002476469020079326 -0.0046048038262891345 0 0.0073693606404782236 0.0096777503037056324 -0.0087002591259659028 0.0052230252877052408
leaf_weight=230 226 206 203 200 409 217 232 559 232 441 313 483 273 304 217 518 323 727 214 439 263 322 231 517 516 282 201 367 207 208
leaf_count=230 226 206 203 200 409 217 232 559 232 441 313 483 273 304 217 518 323 727 214 439 263 322 231 517 516 282 201 367 207 208
internal_value=-3.23642e-06 -0.00168121 -0.00316399 0.00686156 0.00214731 -0.0017513 -0.00677696 -0.000776398 0.0140822 0.000695467 0.00484288 -0.00143105 -0.00140181 0.00285023 -0.00501631 -0.00598016 -0.00259969 -0.00371225 0.000941885 -0.000801523 -0.00337359 0.00448298 0.00354865 0.000682072 -0.00632331 0.00279083 0.00394167 0.0077163 -0.0114996 0.00797027
internal_weight=10080 8112 5858 1968 2254 4215 1643 3496 432 1820 1536 3048 896 939 1230 998 1972 1210 487 762 480 626 448 1076 719 924 642 597 413 434
internal_count=10080 8112 5858 1968 2254 4215 1643 3496 432 1820 1536 3048 896 939 1230 998 1972 1210 487 762 480 626 448 1076 719 924 642 597 413 434
cat_boundaries=0 5 6 11 16 21 22 27 28 29 34 39 44 49 50
cat_threshold=1355941960 1073742256 1073874996 2169152 33557511 3 545280 25169921 50349120 2298486912 2572448 33184 59246656 2751496832 2168455172 1639208 587202688 1179648 11534593 1312256 37632 7 134287362 2282127360 2912576 2013536441 20971520 302307480 4 50348052 6303758 134218754 67666944 167936 8705 604061697 159449096 33554432 262144 1048584 1073742080 1073741840 2101312 2051 128 33554432 2684354560 2164260868 776 2315257104
is_linear=0
shrinkage=0.05


Tree=17
num_leaves=31
num_cat=18
split_feature=8 36 1 37 36 2 8 36 36 36 30 31 30 30 30 37 30 36 35 19 2 1 11 36 15 36 18 36 37 0
split_gain=42.7598 18.2046 15.0033 8.19914 6.97688 5.2455 4.89667 3.61518 3.61022 3.21159 2.45406 2.28482 2.24711 2.20277 2.17724 2.15343 2.06008 2.0493 1.78876 1.90658 1.69863 1.5547 1.24896 1.23326 1.02523 1.02084 0.954946 0.930411 0.891854 0.78363
threshold=4.2768561840057382 0 3.4000002145767216 1 2 1.9000000357627871 7.50000023841858 3 4 5 6 7 8 9 10 11 12 13 22.164999961853031 3.0979351997375493 3.3400455713272099 5.0685508251190194 3.2999998331069951 14 3.3000000715255742 15 3.1998518705368046 16 17 3.1000000238418584
decision_type=2 9 2 9 9 2 2 9 9 9 1 1 1 1 1 9 1 9 2 2 2 2 2 9 2 9 2 9 9 2
left_child=2 6 3 5 26 -1 27 13 18 29 11 -7 21 -3 25 -14 22 -13 -5 -20 -16 -11 -9 -18 -17 -10 -4 -2 -25 -6
right_child=1 7 4 8 9 10 -8 16 14 12 -12 17 15 -15 20 24 23 -19 19 -21 -22 -23 -24 28 -26 -27 -28 -29 -30 -31
leaf_value=-0.014010600747951685 0.0055790834328520549 0.006805976248101352 -0.0068448861019387271 -0.0082631870236559452 -0.0034817598253149688 -0.011720807000039982 0.016949179301927037 0.00039048277974352208 -0.0016090874987033507 0.0035243509467006531 -0.0019492345255950477 -0.009507603781911329 -0.0027909636558048328 0.0016683205639074679 -0.0041660546515128591 0.00020689654670813691 0.0014886888100479085 -0.0026059751227074995 -0.00052998572724883056 -0.0063703808953724673 0 0.0091099268121277166 0.0055708156719291675 -0.00040724290544555218 0.0043127655342792628 0.0023960604538729299 -0.0023081438387188057 0.010721670121537559 -0.004770640066615206 0
leaf_weight=256 341 542 262 316 224 244 251 249 218 471 348 201 226 422 636 283 315 335 318 282 371 202 263 314 413 463 291 321 221 481
leaf_count=256 341 542 262 316 224 244 251 249 218 471 348 201 226 422 636 283 315 335 318 282 371 202 263 314 413 463 291 321 221 481
internal_value=-3.70395e-06 0.00472405 -0.00224946 -0.00423132 0.000503313 -0.00735264 0.010684 0.00230729 -0.00251527 0.00173203 -0.00586247 -0.0074241 0.00297896 0.00464847 -0.00108879 0.00126723 0.000591993 -0.00551337 -0.00504984 -0.0033583 -0.00257151 0.00519791 0.0030888 -0.000872257 0.00267666 0.00103685 -0.00446719 0.00839446 -0.0023559 -0.00102133
internal_weight=10080 3239 6841 3988 2853 1384 913 2326 2604 2300 1128 780 1595 964 1688 922 1362 536 916 600 1007 673 512 850 696 681 553 662 535 705
internal_count=10080 3239 6841 3988 2853 1384 913 2326 2604 2300 1128 780 1595 964 1688 922 1362 536 916 600 1007 673 512 850 696 681 553 662 535 705
cat_boundaries=0 5 7 12 17 22 27 28 29 30 31 32 33 34 39 44 49 54 55
cat_threshold=1489111048 1090535712 1090652192 404815872 50334720 352403641 1 2214592802 268517378 486544009 353804292 1049344 786434 67109009 201347160 2684369240 327783 136357410 4718592 2218607361 38010880 17302304 50929669 2691443205 545259522 537396226 19423376 120 64 11 7 15 469827600 6 50339968 1048584 541065248 536871964 8 2165379649 536903680 33562628 128 4194304 256 2146308 32784 76201986 8192 268437504 1090519040 1090521088 136314880 33556480 100664376
is_linear=0
shrinkage=0.05


Tree=18
num_leaves=31
num_cat=14
split_feature=1 8 36 37 36 36 36 2 30 30 36 2 23 18 0 37 2 36 36 35 30 20 34 30 3 27 30 15 0 13
split_gain=38.8358 14.9671 13.5563 10.5776 6.39621 4.80768 4.56178 4.07904 3.95143 3.26222 2.83997 2.75101 2.69368 2.46538 1.76887 1.76714 1.67107 1.61087 1.58707 1.43056 1.34765 1.15589 1.67487 1.02385 1.70581 1.3496 0.981988 0.807781 0.785011 0.733039
threshold=4.8008964061737069 4.1000001430511483 0 1 2 3 4 2.1000000238418584 5 6 7 3.8424024581909184 5.9000003337860116 3.7999998331069951 3.6161519289016728 8 3.3000326156616215 9 10 24.605000495910648 11 3.8457940816879277 0.90150001645088207 12 3.530412077903748 3.2999998331069951 13 4.0287590026855478 3.6161519289016728 3.5000493526458745
decision_type=2 2 9 9 9 9 9 2 1 1 9 2 2 2 2 9 2 9 9 2 1 2 2 1 2 2 1 2 2 2
left_child=1 3 12 4 7 26 -3 -1 10 18 -4 14 -2 -10 23 27 19 -17 -7 -11 -19 22 -12 -6 25 -25 -5 -8 -28 -13
right_child=2 6 8 5 11 9 15 -9 13 16 21 29 -14 -15 -16 17 -18 20 -20 -21 -22 -23 -24 24 -26 -27 28 -29 -30 -31
leaf_value=-0.016366028593029564 0.0089922386425896547 0.0058767382361058704 0.0086550076780379948 -9.1915304105025426e-05 -0.002950604153227271 -0.0025420403436504815 0.00072434108356820117 -0.0069860769385918873 -0.0043860604138048686 -0.0066521704666263632 0.0044581367010069805 -0.0025482973845773731 0.017501387026288784 0.0030009668765131892 -0.0017650694635778061 0.0020234807632328335 -0.0014591801399232779 -0.0056063894737056058 0.0010076798534932076 -0.0015339092743675558 -0.00049473563472194726 0.0056109053242709046 -0.0013640659693240501 -0.0055734226203174864 -0.0032192465698391189 -0.011418885878136036 0.0012391212754855156 0.0045061218863914898 0.0051971403301940616 0.0014814189498321396
leaf_weight=202 200 544 425 366 283 526 335 348 201 634 251 223 255 256 332 305 440 203 734 209 413 346 225 219 211 291 315 303 269 216
leaf_count=202 200 544 425 366 283 526 335 348 201 634 251 223 255 256 332 305 440 203 734 209 413 346 225 219 211 291 315 303 269 216
internal_value=-3.3489e-06 -0.00162859 0.00593623 -0.00293877 -0.00554974 -0.00116732 0.00197227 -0.0103341 0.00376606 -0.00230823 0.00522544 -0.00398966 0.0135727 -0.000135654 -0.00514466 0.000536629 -0.00408361 -0.000822812 -0.000443165 -0.00544254 -0.00232178 0.00330944 0.001601 -0.00621241 -0.00728145 -0.00900681 0.00182687 0.00255866 0.00309487 -0.000451672
internal_weight=10080 7921 2159 5818 2325 3493 2103 550 1704 2543 1247 1775 455 457 1336 1559 1283 921 1260 843 616 822 476 1004 721 510 950 638 584 439
internal_count=10080 7921 2159 5818 2325 3493 2103 550 1704 2543 1247 1775 455 457 1336 1559 1283 921 1260 843 616 822 476 1004 721 510 950 638 584 439
cat_boundaries=0 5 7 12 17 22 23 24 29 30 35 40 41 42 43
cat_threshold=1212286976 1090519040 67239968 65536 3072 2500030651 1 50331776 84934656 83886088 2147746304 99072 2165459012 68161714 9236 1611141624 4227072 281427976 67125401 1140852824 2107401 50610180 27 15 278401032 67141665 1090519056 2283798912 33882113 4031251982 526928 536870912 142610432 436224064 98433 2106162 4245508 2150727816 67272706 16785408 112 7 96
is_linear=0
shrinkage=0.05


Tree=19
num_leaves=31
num_cat=15
split_feature=28 36 36 30 30 37 36 36 37 36 28 6 36 36 36 35 35 18 36 30 36 28 16 12 29 19 4 24 28 28
split_gain=35.2909 13.8966 11.1753 10.3146 9.43372 6.27854 4.14758 3.71863 3.19395 2.94321 2.74574 2.40318 2.01919 1.98811 1.58906 1.57935 1.48419 1.41971 1.85987 1.30234 1.27171 1.07394 0.979222 0.940862 0.922031 0.900574 0.891285 0.871925 0.739232 0.715589
threshold=4.068811586924963 0 1 2 3 4 5 6 7 8 3.6674114465713505 2.50000011920929 9 10 11 22.445000648498539 22.025000572204593 2.50000011920929 12 13 14 2.4638946184090211 3.1000000238418584 3.6999999284744267 0.76074245221621362 2.8000000715255742 3.1999999284744267 3.1845072507858281 3.3928745474134177 2.9470333712441588
decision_type=2 9 9 1 1 9 9 9 9 9 2 2 9 9 9 2 2 2 9 1 9 2 2 2 2 2 2 2 2 2
left_child=2 -2 -1 7 8 10 23 27 -3 19 14 24 28 -8 22 -10 -15 -11 -19 -7 -18 -16 -5 -6 -9 -23 -27 -4 -13 -21
right_child=1 4 3 5 6 9 13 11 15 17 -12 12 -14 16 21 -17 20 18 -20 29 -22 25 -24 -25 -26 26 -28 -29 -30 -31
leaf_value=-0.012960769675453522 0.016787057774984893 0.012087605576025232 -0.00041987182701213227 -0.0057651979229431834 0.007426485827418579 -0.00016997741109352243 -0.0045781951917539523 -0.0034563366727876927 0.008719410130919274 -0.0029340713557002404 -0.0010470365784879035 -0.0016364005297655239 0.0042669184839829307 0.0036224040157459801 -0.011212524502372145 0.0027166312051231101 0.001880443829886128 -0.0010876740671062488 0.0032803656109369247 -0.0071591934172535142 -0.0022112004833783256 -0.0036381033479942152 -0.00079014694962080152 0.0032282761862381312 0.00060578934453316743 -0.010481286955197178 -0.0057691018205323907 -0.003964191096692435 0.0024002163969874726 -0.003329352660990366
leaf_weight=218 202 318 382 247 202 248 209 212 203 278 306 250 949 303 216 317 307 456 481 241 447 230 209 709 369 237 317 383 205 429
leaf_count=218 202 318 382 247 202 248 209 212 203 278 306 250 949 303 216 317 307 456 481 241 447 230 209 709 369 237 317 383 205 429
internal_value=-3.38596e-06 0.00431282 -0.00203387 -0.00164589 0.00339355 -0.00330101 0.0016093 0.000683709 0.00789616 -0.00142762 -0.0055198 0.00183745 0.00297359 -0.000211171 -0.00646338 0.00505889 0.000640272 0.000153577 0.00112466 -0.00355335 -0.000483313 -0.00764509 -0.00351748 0.00416829 -0.000790374 -0.00669596 -0.00787522 -0.00223055 7.08478e-05 -0.00471126
internal_weight=10080 3217 6863 6645 3015 3895 2177 2750 838 2133 1762 1985 1404 1266 1456 520 1057 1215 937 918 754 1000 456 911 581 784 554 765 455 670
internal_count=10080 3217 6863 6645 3015 3895 2177 2750 838 2133 1762 1985 1404 1266 1456 520 1057 1215 937 918 754 1000 456 911 581 784 554 765 455 670
cat_boundaries=0 5 10 11 12 14 19 24 26 31 36 41 46 51 52 56
cat_threshold=1073741824 0 32 65536 1024 128 16777216 16777216 2147746304 512 7 3 2541822105 1 282527753 1073791264 133144 270534656 50333764 637870083 4769792 2952856232 80774148 524544 2853245442 4 201434112 70069764 2151482240 67108866 20455424 150996276 404955716 134254594 16908346 135168 2147483648 8392704 67108864 2282225664 327841 134480385 32842 134221824 21118985 16520 278 943718656 301989912 49152 491552 8 134217794 68157456 24644 537137368
is_linear=0
shrinkage=0.05


Tree=20
num_leaves=31
num_cat=15
split_feature=8 36 1 36 36 8 2 34 37 36 36 30 37 36 2 30 36 30 29 28 30 11 37 1 28 17 37 9 18 1
split_gain=32.4289 14.4307 11.4103 6.84508 5.91455 4.14284 3.33522 3.13751 3.04946 2.96885 2.96084 2.24674 2.3798 2.07944 1.8224 1.77869 1.54599 1.5245 1.34 1.25343 1.08436 1.06809 1.02311 1.01896 0.979345 0.946253 0.915607 0.914422 0.802016 0.793565
threshold=4.2768561840057382 0 3.4000002145767216 1 2 7.50000023841858 2.1000000238418584 0.7540000081062318 3 4 5 6 7 8 3.0946267843246464 9 10 11 1.1901029600880582 2.1414324045181279 12 3.2999998331069951 13 3.9996117353439335 2.8142857977322175 4.3999998569488534 14 4.5966153144836435 3.1998518705368046 4.7401347160339364
decision_type=2 9 2 9 9 2 2 2 9 9 9 1 9 9 2 1 9 1 2 2 1 2 9 2 2 2 9 2 2 2
left_child=2 5 3 6 28 27 -1 13 14 29 15 18 -13 -5 19 -3 24 21 26 -9 -15 -12 23 -19 -10 -14 -11 -2 -4 -6
right_child=1 10 4 7 9 -7 -8 8 16 11 17 12 25 20 -16 -17 -18 22 -20 -21 -22 -23 -24 -25 -26 -27 -28 -29 -30 -31
leaf_value=-0.014249773942658981 0.004333538502563742 0.0058502884309621084 -0.0064535946985358368 -0.0027476496334808572 0.0028464152500288398 0.015069523712323972 -0.0058479491465705021 -0.010652816537778685 -0.0010306059059888143 0.0028923961203639044 3.7099260114873053e-05 -0.0058925938983623574 -0.0011030924171700274 0.0041587198501894986 -0.002968793701923763 0.0014192793653825305 0 -0.001644949123821164 0.0060120532792643649 -0.0056692892289856665 -0.00017860060483640568 0.004938302281719144 -0.0031488146845028496 0.0028618965124924413 -0.0059880923086560499 0.0027884640339660744 -0.00098939152662938794 0.0088328842949963616 -0.002188733211124142 0.0068412326966308659
leaf_weight=203 235 579 254 533 383 261 367 211 206 313 243 202 479 228 495 463 586 259 200 577 320 244 316 235 262 230 257 404 282 253
leaf_count=203 235 579 254 533 383 261 367 211 206 313 243 202 479 228 495 463 586 259 200 577 320 244 316 235 262 230 257 404 282 253
internal_value=-3.84688e-06 0.00411272 -0.00196022 -0.00368873 0.000438414 0.00947254 -0.00877397 -0.00279223 -0.00383425 0.00155016 0.00198003 0.000405809 -0.00123373 -0.00051909 -0.00548219 0.00396116 -0.00171256 0.000332021 0.00240062 -0.00706716 0.00157856 0.00254318 -0.000951231 0.000389889 -0.00383093 8.75737e-05 0.00108785 0.00725644 -0.00422424 0.00444429
internal_weight=10080 3239 6841 3988 2853 900 570 3418 2337 2317 2339 1681 911 1081 1283 1042 1054 1297 770 788 548 487 810 494 468 709 570 639 536 636
internal_count=10080 3239 6841 3988 2853 900 570 3418 2337 2317 2339 1681 911 1081 1283 1042 1054 1297 770 788 548 487 810 494 468 709 570 639 536 636
cat_boundaries=0 5 10 15 17 22 27 28 30 35 36 41 42 43 44 45
cat_threshold=1489111048 1090535712 1090650144 2552299520 50334720 33555584 16908289 553648131 2148533764 33544 2214592802 268517378 486544009 353771524 1049344 2502100153 1 274091072 151028152 3997716 16776 133156 1835026 67109009 201349208 536885592 327783 11 234946824 1 134250512 340274180 2181103616 8437762 16785408 7 2106146 8405248 49664 4456448 1572896 6 15 608177180 2281702400
is_linear=0
shrinkage=0.05


Tree=21
num_leaves=31
num_cat=14
split_feature=36 30 36 9 36 0 3 34 30 10 16 36 34 35 24 18 36 36 36 36 5 36 7 23 28 36 25 30 36 11
split_gain=29.604 12.3769 8.07183 7.43613 5.37136 4.99596 3.65556 3.38499 3.37733 3.30364 2.54217 2.38488 2.35318 2.32925 2.96024 2.15097 2.05795 2.05514 1.51276 1.22907 1.11591 1.10633 1.04356 0.897121 0.891083 0.880097 0.828422 1.02226 0.972463 1.24673
threshold=0 1 2 7.3999998569488534 3 5.4000003337860116 2.1000256538391118 0.58700001239776622 4 4.2000000476837167 4.1001644134521493 5 0.82949998974800121 21.775000572204593 4.3655793666839608 6.8116447925567636 6 7 8 9 3.6998471021652226 10 4.8378698825836191 3.1998518705368046 3.7933447190693452 11 1.2993783354759219 12 13 3.6000002622604375
decision_type=9 1 9 2 9 2 2 2 1 2 2 9 2 2 2 2 9 9 9 9 2 9 2 2 2 9 2 1 9 2
left_child=3 4 6 8 24 7 -3 19 -1 10 11 -9 18 -8 25 21 -11 -14 -6 -4 -20 -10 -23 -19 -2 -15 -13 -28 -29 -30
right_child=1 2 5 -5 12 -7 13 9 15 16 -12 26 17 14 -16 -17 -18 23 20 -21 -22 22 -24 -25 -26 -27 27 28 29 -31
leaf_value=0.0079215089725511913 0.0042551933101669685 -0.011171972303563963 -0.0011561122596544962 0.013027810097675292 -0.00023151703298278435 0.004506911427450154 -0.0004642937491588663 -0.0013333866915309373 -0.00013105548185538628 0.0031165638422837186 -0.00036152609525081725 -0.0087254855814169873 -0.0054720117859585887 -0.006609345103808232 -0.01094247566191997 0.0074211598590549184 -0.0015950196518572672 -0.0021601037955473476 0.0018700192775219105 0.0035396478777949916 0.0066623362083101561 0.0048151871087832136 0.00021776571618813308 0.001465843222269956 0.0094368086869042744 -0.0021102266618259918 -0.0012888811822783757 -0.002915328478007774 -0.0087452682706462819 -0.0037080806771755993
leaf_weight=452 223 280 212 287 322 316 283 543 434 311 528 209 204 213 225 208 810 271 325 330 242 363 223 456 211 383 224 345 410 237
leaf_count=452 223 280 212 287 322 316 283 543 434 311 528 209 204 213 225 208 810 271 325 330 242 363 223 456 211 383 224 345 410 237
internal_value=-3.79015e-06 -0.00134418 -0.0025582 0.0054783 0.00178678 -0.00150263 -0.00590015 -0.00197487 0.00419144 -0.00253257 -0.00354679 -0.00437597 0.000549292 -0.00457125 -0.00592602 0.00269135 -0.000229705 -0.00116861 0.00241077 0.00165466 0.00393421 0.0017042 0.00309811 4.48255e-05 0.0067344 -0.00394833 -0.00545264 -0.00489384 -0.00558814 -0.00687119
internal_weight=10080 8113 5859 1967 2254 4475 1384 4159 1680 3617 2496 1968 1820 1104 821 1228 1121 931 889 542 567 1020 586 727 434 596 1425 1216 992 647
internal_count=10080 8113 5859 1967 2254 4475 1384 4159 1680 3617 2496 1968 1820 1104 821 1228 1121 931 889 542 567 1020 586 727 434 596 1425 1216 992 647
cat_boundaries=0 5 6 11 16 17 22 27 32 37 42 47 52 53 58
cat_threshold=1355941960 1073742256 1073874996 136386880 33557509 3 572530848 50987008 2709553795 2169505284 103176 524800 58724353 59786304 2168463360 475298 3 134218004 2430705674 66560 1677983785 131104 263169 134217736 201338888 805314584 262144 33562624 49152 536870920 787972 524288 1040 275064836 2415984640 1620082720 16785408 134316032 2107392 268435456 32768 19931136 268435456 1073741840 1073741872 136315136 1 35659808 0 545259522 16777220 4608 8 263680 604241924 2359304 663568 16
is_linear=0
shrinkage=0.05


Tree=22
num_leaves=31
num_cat=14
split_feature=8 36 1 36 36 8 30 37 36 36 36 30 37 4 30 30 29 13 37 9 37 22 2 17 11 35 13 17 19 34
split_gain=26.9422 12.3078 9.47241 5.92752 5.2035 3.4744 2.88945 2.7079 2.49399 2.45719 1.86912 1.70137 2.09208 1.6367 1.35109 1.29943 1.28908 1.20716 1.15829 1.13689 1.02028 1.1602 1.00514 0.970126 0.834652 0.806945 0.782447 0.773114 0.667958 0.648091
threshold=4.2768561840057382 0 3.4000002145767216 1 2 7.50000023841858 3 4 5 6 7 8 9 2.7000001668930058 10 11 0.970462927252281 3.0525062084198002 12 3.9999998807907109 13 3.6999999284744267 3.3000000715255742 3.7212550640106206 3.6439936161041264 24.265000343322757 4.3291592597961435 4.3999998569488534 3.0568085908889775 0.78450000286102306
decision_type=2 9 2 9 9 2 1 9 9 9 9 1 9 2 1 1 2 2 9 2 9 2 2 2 2 2 2 2 2 2
left_child=2 5 3 -1 17 18 16 13 14 -6 -9 22 -13 -8 26 -10 19 -4 -2 29 21 -17 -11 25 -15 28 -3 -14 -12 -5
right_child=1 8 4 6 9 -7 7 10 15 11 23 12 27 24 -16 20 -18 -19 -20 -21 -22 -23 -24 -25 -26 -27 -28 -29 -30 -31
leaf_value=-0.0097888817479585971 0.010101556784182866 0.0035822683583446751 -0.0011238103520507328 -0.0003463796657572106 0.0041083616968698522 0.013838468033774004 -0.009724234765906066 -0.004668069951559879 0.0028114703531404734 0 -0.0015347443442739867 -0.0053657826908509922 -0.00085146527773122802 -0.0065303337820507195 0.0013577004315070908 -0.0014910557184341787 0.0026806321355222719 -0.0060951336684714388 0.0045859903151697868 0.0016265542209912926 -0.0025598394802075937 0.0028649070624839641 0.0037026079094761781 0.00067882448426113159 -0.002240368097998885 -7.8029634653143975e-07 0.0079239517203076627 0.0026419818497354437 -0.0055320276722138108 -0.0040587197168931756
leaf_weight=328 204 314 251 230 631 261 249 649 381 309 274 203 469 276 428 289 246 306 435 201 389 308 450 399 274 294 230 234 233 335
leaf_count=328 204 314 251 230 631 261 249 649 381 309 274 203 469 276 428 289 246 306 435 201 389 308 450 399 274 294 230 234 233 335
internal_value=-5.00268e-06 0.00374675 -0.00178865 -0.00336366 0.000395418 0.00869708 -0.00273996 -0.00361275 0.00177582 0.00146371 -0.00248258 0.000413048 -0.00100876 -0.0061033 0.00370877 0.000348137 -0.000394291 -0.00387511 0.00665493 -0.00145222 -0.000572188 0.000661411 0.0021663 -0.00123046 -0.00448406 -0.00225932 0.00541036 0.000236868 -0.00347038 -0.002636
internal_weight=10080 3239 6841 3988 2853 900 3660 2648 2339 2296 1849 1665 906 799 972 1367 1012 557 639 766 986 597 759 1200 550 801 544 703 507 565
internal_count=10080 3239 6841 3988 2853 900 3660 2648 2339 2296 1849 1665 906 799 972 1367 1012 557 639 766 986 597 759 1200 550 801 544 703 507 565
cat_boundaries=0 5 10 15 16 18 23 28 33 34 36 37 38 39 40
cat_threshold=1489111048 1090535712 1090650144 2552299520 50334720 33554560 16908289 553648128 2147485188 8 2214592774 268517378 486539913 353771524 17826560 7 363004089 1 786450 67109009 201349208 1610627352 327783 274091072 151027896 3997716 20872 133156 2139680 8930340 2151481729 37879808 18350848 11 234946824 1 7 2 3759144960 641729560
is_linear=0
shrinkage=0.05


Tree=23
num_leaves=31
num_cat=16
split_feature=1 36 36 30 36 31 36 0 30 28 36 34 30 6 36 37 36 37 37 35 22 11 36 22 20 13 35 35 19 30
split_gain=24.673 9.9163 9.85044 6.39365 5.24429 5.2928 3.82324 3.47925 3.02954 2.53387 2.4195 2.06762 1.75139 1.57496 1.69525 1.53794 1.51753 1.51653 1.45858 1.50305 1.43993 1.4031 1.25636 1.11956 1.05851 1.02479 1.02218 0.994123 0.938603 0.819189
threshold=4.8008964061737069 0 1 2 3 4 5 5.9883463382720956 6 3.7855903250830516 7 0.70750001072883617 8 2.50000011920929 9 10 11 12 13 22.295000076293949 5.9214107990264901 3.3000000715255742 14 3.3866174221038823 3.3000507354736333 2.6001023054122929 23.914999961853031 22.545000076293949 3.6999999284744267 15
decision_type=2 9 9 1 9 1 9 2 1 2 9 2 1 2 9 9 9 9 9 2 2 2 9 2 2 2 2 2 2 1
left_child=1 12 7 6 5 -5 21 29 15 11 -7 16 22 -8 -15 -4 -6 -11 19 -13 -9 23 -1 -3 -21 -20 27 -16 -17 -2
right_child=2 3 8 4 9 10 13 20 -10 17 -12 18 -14 14 26 28 -18 -19 25 24 -22 -23 -24 -25 -26 -27 -28 -29 -30 -31
leaf_value=-7.3357728566441941e-05 0.0073789289155022494 -0.0073082100379637848 0.0051259218407486064 -0.013049829065380809 -0.0031646482179212921 -0.0072927097212868832 -0.0010437631034342029 0.0082412046086045906 -0.0023293205208256593 0.0023166895097364985 -0.0011088329930031694 -0.0089103894582674703 0.0060236520485165692 -0.0003948569251543345 0.0038618998574881779 -0.0013906107858239654 0.0008971189701649509 -0.0018464739024738207 8.8657938520370742e-05 -0.0012235564938496933 0.014696711041180513 0 0.0037826395755664586 -0.001987201829345081 -0.0065110486719225135 -0.0036329177111938116 0.0053709646692762358 -0.00050596407664558855 0.0031986146073537686 0.0022171977418033468
leaf_weight=457 254 237 490 244 429 334 547 210 322 398 360 288 338 428 258 211 451 460 227 224 253 217 352 226 210 620 388 228 218 201
leaf_count=457 254 237 490 244 429 334 547 210 322 398 360 288 338 428 258 211 451 460 227 224 253 217 352 226 210 620 388 228 218 201
internal_value=-4.97311e-06 -0.0013014 0.00472825 -0.00203268 -0.0032177 -0.00654337 -1.90533e-05 0.00863662 0.00171343 -0.00224245 -0.00427804 -0.00306884 0.00296568 0.00114097 0.00210599 0.00319358 -0.00105194 3.18958e-05 -0.00416818 -0.00588468 0.0118767 -0.00321657 0.00156906 -0.00481891 -0.00389723 -0.00254642 0.00335401 0.0017099 0.000806103 0.00541949
internal_weight=10080 7921 2159 6774 4245 938 2529 918 1241 3307 694 2449 1147 1849 1302 919 880 858 1569 722 463 680 809 463 434 847 874 486 429 455
internal_count=10080 7921 2159 6774 4245 938 2529 918 1241 3307 694 2449 1147 1849 1302 919 880 858 1569 722 463 680 809 463 434 847 874 486 429 455
cat_boundaries=0 5 10 11 16 17 22 23 28 29 34 36 41 42 44 49 50
cat_threshold=282216520 4528 1073884180 1075853632 33816582 1481513025 1090552096 1157759016 134285696 33623041 7 572522656 58851841 633372675 2148533760 103185 64 2281971843 4243968 2164265128 81036804 520 27 2097312 8388608 616562689 2148532736 33536 120 637605136 2284464196 939589698 131248 16908288 134288948 4 99344 2690052 2147549184 16386 18882560 2822766864 2147484816 1 16448 4368 1073742864 1073750336 262144 19
is_linear=0
shrinkage=0.05


Tree=24
num_leaves=31
num_cat=15
split_feature=36 30 36 9 36 10 3 34 14 24 34 36 37 7 36 6 30 30 29 36 27 37 1 36 36 34 24 2 36 36
split_gain=22.489 9.6598 6.32672 6.06378 4.62138 3.7798 3.56593 3.10282 2.88078 2.26529 2.18184 2.05364 2.04395 1.97817 1.98062 1.91259 1.62906 1.5965 1.52019 1.22147 1.21672 1.49889 1.19994 1.1872 1.1486 0.955477 0.795811 0.740188 0.708407 0.626776
threshold=0 1 2 7.3999998569488534 3 4.2000000476837167 2.1000256538391118 0.58700001239776622 6.477494716644288 4.4000003337860116 0.82100000977516185 4 5 4.7999999523162851 6 1.7773833274841311 7 8 1.1984184716888875 9 2.7000001668930058 10 4.50000023841858 11 12 0.9924999773502351 4.9000003337860116 4.2000000476837167 13 14
decision_type=9 1 9 2 9 2 2 2 2 2 2 9 9 2 9 2 1 1 2 9 2 9 2 9 9 2 2 2 9 9
left_child=3 4 6 8 27 7 -3 -4 16 10 -8 -6 -7 14 25 -16 -1 22 23 -18 -19 -22 -13 -17 -14 29 -21 -2 -12 -9
right_child=1 2 5 -5 11 12 9 13 -10 -11 28 17 24 -15 15 18 19 20 -20 26 21 -23 -24 -25 -26 -27 -28 -29 -30 -31
leaf_value=0.0056576650378268147 0.0039457845265720871 -0.010636396481455715 0.0015712813942211194 0.011579414365708848 -0.0030792775057646845 0.0048889472964567604 0.0018618377436453528 -0.0016416467259491416 0.0081988647226913999 -0.00773199459615474 -0.0012098268171006174 0.0013625893926967445 -0.0026356901552655409 0.0010990255946343693 -0.0091569547003164196 -0.0023926971201416888 0 -0.0028050246148843077 -0.0002665042217005167 0.0013212855367342971 0.0042823031195705187 -0.0013478191625020265 0.0058055284063448197 -0.0060001341159580815 0.0008604629183173951 -0.0032553355878601159 0.0058526611934939868 0.0087309706199164613 -0.0053898221876006579 0.0019952296972571113
leaf_weight=334 229 263 428 288 322 241 202 206 292 300 217 499 312 255 200 517 595 307 288 248 209 233 250 649 851 322 210 205 365 243
leaf_count=334 229 263 428 288 322 241 202 206 292 300 217 499 312 255 200 517 595 307 288 248 209 233 250 649 851 322 210 205 365 243
internal_value=-4.83837e-06 -0.00117374 -0.00224669 0.00477263 0.00159081 -0.00132666 -0.00525917 -0.00230645 0.0036037 -0.00395694 -0.00244863 0.000441615 0.000797217 -0.00294439 -0.00339019 -0.0043709 0.00260025 0.001247 -0.00370825 0.00151487 -0.000330485 0.00126766 0.00287393 -0.00451547 -4.93041e-05 -0.00114983 0.0034332 0.0061789 -0.00403061 0.000223157
internal_weight=10080 8113 5859 1967 2254 4512 1347 3108 1679 1084 784 1820 1404 2680 2425 1654 1387 1498 1454 1053 749 442 749 1166 1163 771 458 434 582 449
internal_count=10080 8113 5859 1967 2254 4512 1347 3108 1679 1084 784 1820 1404 2680 2425 1654 1387 1498 1454 1053 749 442 749 1166 1163 771 458 434 582 449
cat_boundaries=0 5 6 11 16 21 22 27 28 29 34 35 39 44 49 54
cat_threshold=1355958344 1073742256 1073874996 2169152 33557509 3 589299840 50987008 2709553795 2169505284 103176 524800 58724353 17843264 2302681088 2572450 637534208 6307846 537403392 77334020 512 2151809604 2282226448 954302464 272696320 1678016689 4341760 3 2 268453952 1073742000 1073741872 2097408 2049 2583692288 67182629 2147753984 34082824 34095112 532993 8491009 66560 34340864 131232 536870912 50462720 32897 1024 264 134217984 270598144 268502016 128 4194304
is_linear=0
shrinkage=0.05


Tree=25
num_leaves=31
num_cat=16
split_feature=8 36 0 36 36 36 8 30 37 30 36 6 36 6 30 11 22 5 37 25 2 36 1 35 37 30 30 23 29 37
split_gain=20.5369 9.93343 7.55951 6.57341 5.98235 2.99173 2.89147 2.71186 2.85246 1.86668 1.86205 1.83497 1.77064 1.43971 1.36813 1.29226 1.2701 1.13219 1.10116 1.05833 1.01063 0.983567 0.940738 0.85559 0.818847 0.776976 0.638573 0.634259 0.623717 0.911758
threshold=4.2768561840057382 0 3.6161519289016728 1 2 3 7.50000023841858 4 5 6 7 2.1000000238418584 8 2.50000011920929 9 3.7000001668930058 3.6000000238418584 3.4674116373062138 10 3.9766429662704472 3.3613047599792485 11 3.4999998807907109 24.605000495910648 12 13 14 3.3539460897445683 0.66059919805817147 15
decision_type=2 9 2 9 9 9 2 1 9 1 9 2 9 2 1 2 2 2 9 2 2 9 2 2 9 1 1 2 2 9
left_child=2 6 3 11 16 -6 21 13 17 12 23 -1 19 -5 20 18 -4 -9 -16 -3 -7 -2 27 26 -11 -15 -10 -12 -14 -30
right_child=1 9 4 7 5 14 -8 8 10 24 22 -13 28 25 15 -17 -18 -19 -20 -21 -22 -23 -24 -25 -26 -27 -28 -29 29 -31
leaf_value=-0.011642548032570631 0.0089571630171004449 0.0064347331319486488 -0.0059171622059343816 -0.0022303370759563473 0.0055225256953707622 8.0799491403417466e-05 0.012208836840010945 -0.0069315183246727299 -0.0016430391802405861 0.00095094536238149961 -7.2920154376310441e-05 -0.0055547425130097559 -0.0012153039728434387 0.0041787296795398306 0.0001263893964474689 0.0015897946965968562 -0.00080002405452991334 -0.0028521860588177446 -0.004274358935991155 0.0020635379482950552 0.004710061401651526 0.0040324172399836709 0.0017992250161353454 -0.00060894505210132505 -0.0025739408058100656 0.00021623245312160592 -0.0057842718051726782 -0.0032929093891517353 -0.0009253676270073529 0.0027044731675057629
leaf_weight=200 207 338 338 303 439 225 266 473 214 288 467 508 236 231 268 469 228 351 256 309 314 486 373 232 330 329 368 255 222 557
leaf_count=200 207 338 338 303 439 225 266 473 214 288 467 508 236 231 268 469 228 351 256 309 314 486 373 232 330 329 368 255 222 557
internal_value=-4.13291e-06 0.00327079 -0.00156202 -0.00284012 0.000586566 0.00190334 0.0075246 -0.00193387 -0.00270803 0.00142042 -0.00158854 -0.00724278 0.00229935 0.000463442 0.00080474 -0.000255463 -0.00387571 -0.00519152 -0.00200733 0.00435704 0.0028181 0.00576304 -0.00018338 -0.00339293 -0.000862672 0.00201853 -0.00447508 -0.00127943 0.000909209 0.00162869
internal_weight=10080 3239 6841 4304 2537 1971 959 3596 2733 2280 1909 708 1662 863 1532 993 566 824 524 647 539 693 1095 814 618 560 582 722 1015 779
internal_count=10080 3239 6841 4304 2537 1971 959 3596 2733 2280 1909 708 1662 863 1532 993 566 824 524 647 539 693 1095 814 618 560 582 722 1015 779
cat_boundaries=0 5 10 15 20 21 23 24 29 34 35 36 41 43 44 45 47
cat_threshold=1489111050 1090535712 1090652192 2552299520 50334752 571211776 50462752 562036771 2148794884 33544 83886098 272648199 100696704 457351203 1573664 14041153 59805856 10756100 262152 32772 6 2179142065 1 15 136349345 275342336 2151416576 67108864 20799488 1851472 8388753 67108952 537147800 327749 11 263216 1216348160 16640 131104 268435456 16778240 541592085 4 2 9 574886144 1
is_linear=0
shrinkage=0.05


Tree=26
num_leaves=31
num_cat=15
split_feature=0 8 36 37 6 36 36 36 36 15 36 2 30 30 15 34 16 30 35 30 30 36 37 30 28 7 5 27 21 35
split_gain=18.9376 8.90923 7.0347 5.89157 4.88844 4.53045 3.42034 3.28157 2.75163 1.92457 1.75148 1.5453 1.39635 1.39581 1.33568 1.31309 1.30061 1.29837 0.979918 0.94263 0.913514 1.27808 0.830644 0.800828 0.752809 0.702766 0.664085 0.62555 0.524627 0.521478
threshold=5.4000003337860116 4.1000001430511483 0 1 2.7000001668930058 2 3 4 5 3.1000000238418584 6 4.800100803375245 7 8 2.3920040130615239 0.58700001239776622 7.00000023841858 9 20.775000572204593 10 11 12 13 14 4.6003313234874188 3.4999998807907109 2.4663350582122807 4.5953352451324472 2.7000184059143071 23.32499980926514
decision_type=2 2 9 9 2 9 9 9 9 2 9 2 1 1 2 2 2 1 2 1 1 9 9 1 2 2 2 2 2 2
left_child=1 3 16 4 5 -1 13 14 19 -7 27 15 -10 -3 -5 -9 -2 -4 -12 -6 28 26 29 -16 -19 -14 -22 -8 -17 -20
right_child=2 6 17 7 8 9 10 11 12 -11 18 -13 25 -15 23 20 -18 24 22 -21 21 -23 -24 -25 -26 -27 -28 -29 -30 -31
leaf_value=-0.0018304842893850728 0.0076191359898405185 0.00081097120557938106 0 -0.0016788512020883863 -0.0062259286217276446 -0.012384251259567393 0.0059045351999918276 0.00050610688704004502 0.0024750079080350755 -0.0057762336648732159 0.0046870449257064798 0.0022977656807581133 -0.0035422047419794555 -0.0041880626765688446 0.0043081923790287829 0.00098099300371880531 0.013356318590837758 0.0016565191600774708 0 -0.0018592750553867972 -0.0073529631058861528 -0.0015415630366369443 -0.00040679560980396887 0.00089377217418822356 0.0058050048549662678 7.3410050644027278e-05 -0.0035922801832571163 0.0021935743553529261 -0.002161433926278278 0.0032968704396423923
leaf_weight=331 331 228 373 211 373 329 432 409 311 222 202 220 264 301 389 253 211 239 201 287 205 790 614 415 298 221 561 224 256 379
leaf_count=331 331 228 373 211 373 329 432 409 311 222 202 220 264 301 389 253 211 239 201 287 205 790 614 415 298 221 561 224 256 379
internal_value=-3.35643e-06 -0.000897369 0.00527456 -0.00195073 -0.00391487 -0.00689449 0.00155116 -0.000686723 -0.00210246 -0.00963769 0.00247964 -0.00160818 -3.03237e-05 -0.00196563 0.00170203 -0.00198222 0.00976471 0.00241147 0.00140177 -0.00445781 -0.00249928 -0.00310082 0.000815838 0.00267266 0.0039777 -0.00175539 -0.0046039 0.00464282 -0.000491591 0.00216602
internal_weight=10080 8628 1452 6047 2338 882 2581 3709 1456 551 2052 2694 796 529 1015 2474 542 910 1396 660 2065 1556 1194 804 537 485 766 656 509 580
internal_count=10080 8628 1452 6047 2338 882 2581 3709 1456 551 2052 2694 796 529 1015 2474 542 910 1396 660 2065 1556 1194 804 537 485 766 656 509 580
cat_boundaries=0 5 7 12 17 22 27 32 33 34 35 36 37 42 43 44
cat_threshold=1212547073 1073758208 147488 65536 50334727 2500030619 1 671096833 41975872 541098496 553665548 4640 536900609 1092661254 536928256 59245600 2228754 17975364 1141936304 33562628 1611141368 4423680 688193536 101744705 549487136 2702704668 103232 8783882 8389025 1275201560 1478494465 17106944 70 3 100 104 10 67215890 527872 2419933577 12582912 3956736 2751532038 15
is_linear=0
shrinkage=0.05


Tree=27
num_leaves=31
num_cat=17
split_feature=2 36 36 30 34 36 30 36 36 37 30 29 37 0 37 36 26 20 5 36 36 35 34 36 24 29 36 33 34 34
split_gain=17.2557 8.1311 7.33963 4.76384 3.99929 4.34886 3.77778 3.25208 2.4835 1.99953 1.92345 1.91233 1.832 1.5968 1.58356 1.54937 1.64238 1.31607 1.27118 1.14336 1.07919 1.03956 0.836563 0.817808 0.680643 0.676787 0.662194 0.660984 0.532615 0.501301
threshold=4.800100803375245 0 1 2 0.83199998736381542 3 4 5 6 7 8 1.4501769120504711 9 3.4999998807907109 10 11 2.8777871131896977 3.8000000715255742 3.4999998807907109 12 13 23.785000801086429 0.56549999117851268 14 3.1544023752212529 1.2351067453340649 15 16 0.81949999928474437 0.58700001239776622
decision_type=2 9 9 1 2 9 1 9 9 9 1 2 9 2 9 9 2 2 2 9 9 2 2 9 2 2 9 1 2 2
left_child=1 10 -2 7 8 17 12 14 29 -8 23 -11 -4 15 -3 -7 -17 -6 -18 -9 -15 -10 -21 -1 -16 26 28 -23 -24 -5
right_child=2 3 6 4 5 13 9 19 21 11 -12 -13 -14 20 24 16 18 -19 -20 22 -22 27 25 -25 -26 -27 -28 -29 -30 -31
leaf_value=0.0023470165056693431 0.012941783270964145 -0.0053139707882605466 0.0085561784115677202 -0.00064191211097005922 -0.010633621325086088 -0.0016395526926725576 0.0034740193962056382 0.0038098313209516468 -0.00070493037555545294 0.0018762074198189886 0.00076754084381113266 -0.0033552942338367329 0.0029804531184838977 -0.0039029122343275783 0.0012334008192496136 -0.0012876103815815981 -0.0092636411268914101 -0.0048959614469721502 -0.0040273222284415945 0.003364039771923847 0.00029123758415983158 0.004433913229323151 0 0.0073148664192520477 -0.0026908946938279908 0.0025369882238529891 0.0006024925833359795 0.00040350584677695858 -0.0031707127400955938 -0.0037596905970116883
leaf_weight=217 201 337 348 220 297 542 521 316 491 359 509 332 382 200 218 202 298 216 267 218 505 235 226 277 208 224 604 233 303 574
leaf_count=217 201 337 348 220 297 542 521 316 491 359 509 332 382 200 218 202 298 216 267 218 505 235 226 277 208 224 604 233 303 574
internal_value=-2.21864e-06 -0.00108213 0.00397409 -0.00169489 -0.00272628 -0.00401121 0.0029384 -8.8523e-06 -0.000861048 0.00114919 0.00309032 -0.000556918 0.00578574 -0.0028758 -0.00276167 -0.00393506 -0.0054002 -0.00815624 -0.00687763 0.00108427 -0.0008789 0.000815135 0.00048529 0.00532171 -0.00055235 0 -0.000469957 0.00253416 -0.00176696 -0.00292199
internal_weight=10080 7937 2143 6934 4280 2527 1942 2654 1753 1212 1003 691 730 2014 763 1309 767 513 565 1891 705 959 1575 494 426 1357 1133 468 529 794
internal_count=10080 7937 2143 6934 4280 2527 1942 2654 1753 1212 1003 691 730 2014 763 1309 767 513 565 1891 705 959 1575 494 426 1357 1133 468 529 794
cat_boundaries=0 5 10 11 16 17 22 27 29 30 32 33 38 43 47 51 56 57
cat_threshold=282216520 4512 1073875988 270539200 33818629 1073741824 67108864 32 65536 1024 7 50397312 17825793 622854144 2148008464 1147410 67 67411974 205570060 2684354728 76318212 656128 134513664 69807108 2415985032 2148581378 18882560 8260613 4 15 672204306 4 304402449 2214593319 738197514 135794824 21118977 4345888 0 1115815939 109068288 167772161 16859136 2147483649 1140867074 32832 725745664 1048576 416 1040 268437632 687932545 2419065408 406683648 17850378 4194376 1
is_linear=0
shrinkage=0.05


Tree=28
num_leaves=31
num_cat=14
split_feature=0 8 36 37 6 36 36 36 36 15 30 35 36 30 36 36 23 37 27 15 16 7 21 16 10 34 36 7 25 30
split_gain=15.9309 7.50421 6.01614 4.90723 4.28512 4.34741 3.05072 2.82948 2.42916 2.13143 1.88166 1.73834 1.62118 1.36433 1.40341 1.39425 1.2206 1.25241 1.10279 1.08843 1.04091 0.825605 0.741751 0.7405 0.669259 0.635046 0.578771 0.529631 0.481904 0.444827
threshold=5.4000003337860116 4.1000001430511483 0 1 2.7000001668930058 2 3 4 5 3.1000000238418584 6 20.664999961853031 7 8 9 10 4.8356680870056161 11 3.2999998331069951 2.40001392364502 7.00000023841858 3.5319707393646245 2.7000184059143071 2.3981368541717534 4.2000000476837167 0.90150001645088207 12 4.1000459194183358 3.8175146579742436 13
decision_type=2 2 9 9 2 9 9 9 9 2 1 2 9 1 9 9 2 9 2 2 2 2 2 2 2 2 9 2 2 1
left_child=1 3 20 4 5 -1 24 19 18 -7 -10 -8 27 14 -9 23 17 -4 -6 -5 -2 -12 -16 -15 -3 -14 -21 -13 -27 -17
right_child=2 6 16 7 8 9 11 13 10 -11 21 12 25 15 22 29 -18 -19 -20 26 -22 -23 -24 -25 -26 28 -28 -29 -30 -31
leaf_value=-0.0012565683017825135 0.0070352242491682829 0.0023827308512318832 0.0031595638717530289 -0.0013139697081540995 -0.0018281552488098479 -0.011791919159749104 0.0042430364437372192 -0.0026757208874700535 0.0037483464630236295 -0.0050566860119927613 -0.003102386977699666 -0.0048982224821585664 0.0018551951837210276 -0.0058964555010003151 0.0030988452694972256 0.00033996743038456809 0.0051797132303119282 -0.0010992968830301985 -0.0068298652063232164 0.00080277354076743539 0.01225709541506571 0.00014495258988090373 -7.0553781739774083e-05 -0.0025628727250183447 0.0058852293097424006 0.00086792121237245785 0.0039510069369004868 -0.0009150582735464966 -0.0018331019727385513 -0.0018516633748879179
leaf_weight=315 331 322 324 207 234 333 250 316 208 234 394 201 596 294 317 419 257 329 286 330 211 334 372 621 366 329 399 207 310 434
leaf_count=315 331 322 324 207 234 333 250 316 208 234 394 201 596 294 317 419 257 329 286 330 211 334 372 621 366 329 399 207 310 434
internal_value=0 -0.000820114 0.00484072 -0.00178716 -0.00358019 -0.00637002 0.0014262 -0.000632073 -0.00188044 -0.00894276 -0.000271445 0.000346705 -0.000213621 -0.00144362 0 -0.00227862 0.00218893 0.00096881 -0.00458704 0.00170921 0.0089944 -0.00152294 0.00129626 -0.00364876 0.00425678 0.000661029 0.00265968 -0.00292813 -0.000364187 -0.000725716
internal_weight=10080 8628 1452 6047 2338 882 2581 3709 1456 567 936 1893 1643 2773 1005 1768 910 653 520 936 542 728 689 915 688 1235 729 408 639 853
internal_count=10080 8628 1452 6047 2338 882 2581 3709 1456 567 936 1893 1643 2773 1005 1768 910 653 520 936 542 728 689 915 688 1235 729 408 639 853
cat_boundaries=0 5 7 12 17 22 27 28 33 34 39 44 45 50 51
cat_threshold=1212547073 1073758208 147488 65536 50334727 2500030619 1 134217728 41975872 541098528 553664540 4640 12978186 8389025 1275201560 1478494465 17139712 17958980 1141936304 33562628 1611141368 229376 688193536 101744641 536904224 2684878876 70464 6 21504 3238006796 562061376 50857056 578 11 2097712 140526086 32777 67272705 16785408 203530755 269225472 2419868040 4194304 22814720 640156944 17827844 1073774736 33554432 1073741984 131072 20
is_linear=0
shrinkage=0.05


Tree=29
num_leaves=31
num_cat=15
split_feature=1 36 2 36 36 30 30 36 31 6 0 37 37 37 21 19 0 17 37 30 36 23 15 36 35 4 25 0 14 36
split_gain=14.602 7.11576 6.28923 5.18442 4.5426 2.62857 2.29129 2.18622 2.04773 1.83518 1.77278 1.52897 1.46834 1.42196 1.28564 1.17288 1.24067 1.15698 1.26406 1.02727 1.05462 0.930615 0.930385 0.880023 0.746365 0.67759 0.676786 0.618783 0.594298 0.439941
threshold=4.8008964061737069 0 3.0946267843246464 1 2 3 4 5 6 2.2691037654876713 5.9883463382720956 7 8 9 3.8999999761581425 3.8000000715255742 2.8376791477203374 2.8365534543991093 10 11 12 6.1854653358459482 3.5000493526458745 13 25.095000267028812 3.8709340095520024 4.1001644134521493 2.8000000715255742 3.1691806316375737 14
decision_type=2 9 2 9 9 1 1 9 1 2 2 9 9 9 2 2 2 2 9 1 9 2 2 9 2 2 2 2 2 9
left_child=2 10 3 9 22 11 12 17 -9 -1 -2 -3 -5 23 25 16 -11 -6 -19 -15 -21 -12 -4 -10 -25 28 -13 -14 -8 -22
right_child=1 5 4 6 7 -7 14 8 13 15 21 26 27 19 -16 -17 -18 18 -20 20 29 -23 -24 24 -26 -27 -28 -29 -30 -31
leaf_value=-0.0092344126873966439 0.0046303766989513944 0.005262002091636687 0.0013579392778791412 -0.0023461790905218698 0 -0.002256340143565929 -0.0059666989529002512 0.003694690216345423 -0.00063858185673488252 0.00014078460814112459 0.0068921752321080961 0.0023685878647764433 -6.8247681540521067e-05 -0.0040325666600256231 -0.00013560450225886086 -0.007072272383437707 -0.0049667661331329596 -0.0016466892418785435 -0.0068278815230633332 -0.0037517301508899516 0.0021067770796844754 0.012408997503242012 0.0050073826180019113 0.00071965090841744669 0.0042777130459122452 -0.0011633506122048381 -0.00087141940374230913 0.0027941337303848727 -0.0023337779115473797 -0.0005552925650166193
leaf_weight=294 367 366 344 321 273 352 406 347 660 203 219 399 266 330 355 251 236 325 244 204 212 214 484 559 227 221 242 456 233 470
leaf_count=294 367 366 344 321 273 352 406 347 660 203 219 399 266 330 355 251 236 325 244 204 212 214 484 559 227 221 242 456 233 470
internal_value=0 0.00364065 -0.000997974 -0.00269147 0.000164733 0.00134836 -0.00131927 -0.00054906 6.7822e-05 -0.00571794 0.00736328 0.00266735 0.00036029 -0.000385914 -0.00279305 -0.00423003 -0.00249106 -0.00278718 -0.00410531 -0.0016499 -0.000671547 0.00973421 0.00350919 0.000649365 0.0017881 -0.00386436 0.00105097 0.0016475 -0.00472027 0.000218445
internal_weight=10080 2159 7921 3242 4679 1359 2258 3851 3009 984 800 1007 1043 2662 1215 690 439 842 569 1216 886 433 828 1446 786 860 641 722 639 682
internal_count=10080 2159 7921 3242 4679 1359 2258 3851 3009 984 800 1007 1043 2662 1215 690 439 842 569 1216 886 433 828 1446 786 860 641 722 639 682
cat_boundaries=0 5 10 15 16 17 22 23 25 27 29 31 32 37 42 47
cat_threshold=1480988737 1090552097 1157759016 134283392 3073 33621122 109199936 2779021440 2181826064 82688 281165834 67109040 539363588 2635776 33898758 27 15 203464896 17342466 67174442 357564416 1053241 16 134287924 4 337903762 1 3863482144 4 2550139930 1 80 34340865 5373952 29360144 1024 4194304 16843296 807673344 3524297728 8552610 2105472 1028 2155872264 1073774720 167772164 524352
is_linear=0
shrinkage=0.05


Tree=30
num_leaves=31
num_cat=14
split_feature=2 36 36 30 34 36 36 22 36 3 30 29 36 36 16 5 25 30 27 24 31 37 15 26 31 30 34 2 35 9
split_gain=13.4944 6.45241 6.05472 3.89294 3.42182 3.64773 2.85863 2.3053 2.20808 2.1811 1.63516 1.62617 1.68566 1.23272 1.18319 1.17793 1.28666 1.15857 0.996491 0.946277 1.14806 1.64937 0.806848 0.840634 0.773813 0.750317 0.744518 0.765592 0.73232 0.656717
threshold=4.800100803375245 0 1 2 0.83199998736381542 3 4 7.00000023841858 5 6.2000000476837167 6 1.1901029600880582 7 8 3.8999999761581425 2.8000000715255742 4.2000000476837167 9 3.2575095891952519 1.9000740647315981 10 11 3.3683652877807622 2.6999999284744267 12 13 0.58700001239776622 3.3400455713272099 22.494999885559086 2.7461985349655156
decision_type=2 9 9 1 2 9 9 2 9 2 1 2 9 9 2 2 2 1 2 2 1 9 2 2 1 1 2 2 2 2
left_child=1 10 7 6 8 29 -3 25 26 15 -1 12 18 -7 -13 -4 17 -17 -8 -15 -21 -22 23 -10 -14 -2 -5 -28 -23 -6
right_child=2 3 9 4 5 13 11 -9 22 -11 -12 14 24 19 -16 16 -18 -19 -20 20 21 28 -24 -25 -26 -27 27 -29 -30 -31
leaf_value=0.0047849318453097953 0.002240855052485639 -0.0043999324136458186 -0.00078210089729206322 0 -0.010508373377261607 -0.0010250651554880249 -0.0038209902196441117 0.011871696707191579 -0.0020418764443564242 -0.0026590850814841361 0.00060066485820489679 0.0057669049441725524 0 -0.00035474725189574416 0.00030615357139590876 0.0075849115452879708 0.0006655341018912801 0.0023066401784157414 0 -0.0072810640237030051 -0.0061601465890583186 0.00047858995133630788 0.0029177028276468199 0.0016021742471538558 0.002505402203657677 0.006779136646363578 -0.0049406693747657202 -0.00080149949693678892 -0.0031354755818968198 -0.0056595720629056181
leaf_weight=499 219 314 210 217 202 796 369 203 305 256 511 237 728 210 206 222 348 318 270 270 305 245 324 325 527 367 385 202 275 215
leaf_count=499 219 314 210 217 202 796 369 203 305 256 511 237 728 210 206 222 348 318 270 270 305 245 324 325 527 367 385 202 275 215
internal_value=-1.17418e-06 -0.000956734 0.00351459 -0.00150527 -0.0024379 -0.00363047 0 0.00698228 -0.000715187 0.0013951 0.0027436 0.000610284 0 -0.00270111 0.00334046 0.00239858 0.00320708 0.00475237 -0.00209612 -0.00366983 -0.00429346 -0.00325509 0.000874761 -8.26439e-05 0.00103786 0.00532234 -0.00264198 -0.00360147 -0.00131132 -0.00793794
internal_weight=10080 7937 2143 6927 4276 2518 2651 789 1758 1354 1010 2337 1894 2101 443 1098 888 540 639 1305 1095 825 954 630 1255 586 804 587 520 417
internal_count=10080 7937 2143 6927 4276 2518 2651 789 1758 1354 1010 2337 1894 2101 443 1098 888 540 639 1305 1095 825 954 630 1255 586 804 587 520 417
cat_boundaries=0 5 10 11 16 21 26 27 32 37 38 39 41 42 43
cat_threshold=282216520 4256 1073880084 270539200 33818629 1082529792 1157660960 86179936 136404992 4197378 7 50397312 17825792 622854144 2148008464 1081362 67108868 4194312 536871072 9176580 524800 295936 69807108 2449539464 2148556802 18882560 15 151298179 2348868164 2281766920 83918848 21102656 2214855175 671121690 135274696 205807617 4325408 3 64 2189439107 1 32 36
is_linear=0
shrinkage=0.05


Tree=31
num_leaves=31
num_cat=13
split_feature=0 30 36 36 9 36 7 37 34 37 36 36 11 14 12 31 23 37 27 23 35 35 30 37 34 11 19 36 11 3
split_gain=12.4183 5.96901 4.70678 4.69164 3.4183 3.65104 2.57081 3.30335 2.21251 2.12954 1.93501 1.76647 1.45242 1.35266 1.13309 1.13235 1.12126 1.05571 1.05336 0.926451 0.901753 0.889401 0.846074 0.839446 0.798982 0.778366 1.00363 0.68043 0.675055 0.667779
