tree
version=v4
num_class=1
num_tree_per_iteration=1
label_index=0
max_feature_idx=37
objective=regression
feature_names=lag_1 lag_2 lag_3 lag_4 lag_5 lag_6 lag_7 lag_8 lag_9 lag_10 lag_11 lag_12 lag_13 lag_14 lag_15 lag_16 lag_17 lag_18 lag_19 lag_20 lag_21 lag_22 lag_23 lag_24 lag_25 lag_26 lag_27 lag_28 lag_mean_7 lag_std_7 wday month promo_bin is_event discount avg_temp store_code prod_code
feature_infos=[0:25.647819519042969] [0:25.647819519042969] [0:25.647819519042969] [0:25.647819519042969] [0:25.647819519042969] [0:25.647819519042969] [0:25.647819519042969] [0:25.647819519042969] [0:25.647819519042969] [0:25.647819519042969] [0:25.647819519042969] [0:25.647819519042969] [0:25.647819519042969] [0:25.647819519042969] [0:25.647819519042969] [0:25.647819519042969] [0:25.647819519042969] [0:25.647819519042969] [0:25.647819519042969] [0:25.647819519042969] [0:25.647819519042969] [0:25.647819519042969] [0:25.647819519042969] [0:25.647819519042969] [0:25.647819519042969] [0:25.647819519042969] [0:25.647819519042969] [0:25.647819519042969] [0:13.020238195146833] [0:9.5103782918648747] -1:3:4:0:1:2:5:6 -1:5:6:4 -1:2:1 -1:0:1 [0.31799998879432678:1] [18.360000610351562:29.709999084472656] -1:109:164:205:318:317:91:25:40:333:349:494:52:68:324:350:229:151:287:336:418:450:132:261:266:320:142:194:223:238:256:299:402:3:130:319:43:366:462:4:20:64:78:136:149:173:183:301:391:423:441:484:11:26:31:50:76:108:254:297:300:477:422:66:118:214:387:18:79:83:86:88:100:200:208:222:251:277:303:325:331:345:380:407:448:469:478:62:65:116:134:157:184:236:248:263:291:308:313:323:338:364:372:388:401:431:437:453:458:467:475:486:32:41:45:69:133:135:137:196:212:237:241:343:365:389:487:46:53:97:115:121:128:152:158:172:182:207:221:224:230:329:334:340:430:452:460:480:485:492:0:1:8:19:22:38:58:72:85:87:94:96:102:120:122:139:141:161:163:174:175:177:192:193:209:226:239:244:249:262:289:305:306:315:321:326:335:346:347:360:362:363:384:385:397:412:454:465:468:473:482:483:488:493:14:23:24:29:30:35:44:57:70:81:84:93:123:124:125:127:129:138:144:154:181:186:187:204:210:215:219:220:225:228:232:233:234:252:253:271:285:293:309:322:332:351:353:354:399:410:420:421:428:455:457:459:466:470:476:479:2:6:7:13:15:16:27:33:49:55:67:73:74:75:77:82:89:92:95:98:104:105:106:107:110:111:113:114:117:146:156:160:165:167:178:185:188:189:195:197:198:203:211:213:217:235:240:247:250:259:260:264:278:279:281:286:288:292:295:296:307:312:341:342:348:352:355:358:359:367:368:369:371:375:377:379:381:386:390:393:395:396:398:403:409:411:419:424:432:440:443:445:456:461:481:490:491:5:9:10:12:17:21:28:34:36:37:39:42:47:48:51:54:56:59:60:61:63:71:80:90:99:101:103:112:119:126:131:140:143:145:147:148:150:153:155:159:162:166:168:169:170:171:176:179:180:190:191:199:201:202:206:216:218:227:231:242:243:245:246:255:257:258:265:267:268:269:270:272:273:274:275:276:280:282:283:284:290:294:298:302:304:310:311:314:316:327:328:330:337:339:344:356:357:361:370:373:374:376:378:382:383:392:394:400:404:405:406:408:413:414:415:416:417:425:426:427:429:433:434:435:436:438:439:442:444:446 -1:21:6:85:43:2:76:50:73:72:11:84:79:82:83:81:4:35:8:59:69:0:41:7:31:30:17:66:58:9:80:24:48:44:26:75:70:5:40:57:32:55:1:14:19:15:18:36:71:27:47:53:78:54:60:68:28:52:13:37:46:56:64:25:29:62:65:10:22:33:51:67:74:86:3:12:16:20:23:34:38:39:42:45:49:61:63:77
tree_sizes=3297 3509 3618 3418 3531 3927 3556 3695 3743 3641 3610 3856 3487 3934 3482 4083 3668 3926 3659 3974 4091 4158 3970 4127 4048 4250 4070 4230 4127 4162 4240 4098 4308 4423 4199 4218 3650 4281 4326 4085 3875 3940 4248 4147 4005 4186 4083 4391 3798 4117 4180 3809 4062 4017 4135 3916 4473 3959 4394 4220 4230 4090 3690 3905 3950 3915 3974 4159 3942 3926 4092 4159 3843 4378 4017 3614 4121 4130 3790 3643 4103 3790 3431 3881 4054 3559 3886 3827 3866 3904 4026 3833 4039 3868 3893 3788 3596 3774 3909 3656 3902 3638 4020 3657 3729 4210 4095 3738 3687 4190 3564 3557 3654 3738 3813 3990 3644 4164 4135 3770 4032 3933 4226 3394 3493 4789 4218 4801 3801 4616 4122 3641 4273 3589 4006 4150 3882 4338 3920 3983 3707 4433 3447 3550 4386 4677 4008 3699

Tree=0
num_leaves=31
num_cat=18
split_feature=28 11 28 37 28 30 28 30 37 37 30 30 37 37 28 30 4 34 36 28 36 30 15 28 37 37 36 36 36 28
split_gain=1401.27 299.014 213.113 143.09 97.5238 80.5504 70.2039 68.229 44.365 41.5141 41.3076 34.8618 26.8803 26.5047 25.8785 25.6089 24.9845 20.9053 20.6161 16.5994 14.9613 13.829 14.5603 13.7885 13.729 12.5851 12.0763 11.846 11.6075 11.3645
threshold=2.7428571539265776 4.1000549793243417 2.0857143274375374 0 4.6190435886383066 1 3.6768706355776111 2 3 4 5 6 7 8 6.6179322855813174 9 4.5619888305664071 0.69650000333786022 10 4.2633832863398968 11 12 0.70000001788139354 3.3583052328654701 13 14 15 16 17 1.7962925987584251
decision_type=2 2 2 9 2 1 2 1 9 9 1 1 9 9 2 1 2 2 9 2 9 1 2 2 9 9 9 9 9 2
left_child=2 3 5 10 15 13 11 12 -7 20 16 -5 -4 29 -6 23 25 -10 -12 -8 -9 28 -23 -3 -20 -2 -11 -13 -19 -1
right_child=1 4 7 6 14 8 19 9 17 26 18 27 -14 -15 -16 -17 -18 21 24 -21 -22 22 -24 -25 -26 -27 -28 -29 -30 -31
leaf_value=1.1757575136457905 1.1800681197201641 1.2023471129149443 1.1841344692190883 1.2010940050508585 1.2165305658790113 1.167410079917836 1.2009828763854802 1.1786553306431726 1.1821341536006462 1.1861100997563172 1.18915688770307 1.1855157956098161 1.1927190994909267 1.1849046644531473 1.2332430993027883 1.1972854596547584 1.2104382879280047 1.1839454962332949 1.1860762503524385 1.2095396567048062 1.1872066976666251 1.1633161622334172 1.1739554992646566 1.2110872918308282 1.1759963877145378 1.1965225409852782 1.1788497073890603 1.193215704183942 1.1762297617931674 1.182585990953285
leaf_weight=1728 200 784 1272 1516 1104 1726 1391 572 1300 647 646 566 3137 3384 313 1011 204 572 464 1031 4204 364 3922 1235 1242 248 4659 3892 6084 982
leaf_count=1728 200 784 1272 1516 1104 1726 1391 572 1300 647 646 566 3137 3384 313 1011 204 572 464 1031 4204 364 3922 1235 1242 248 4659 3892 6084 982
internal_value=1.18608 1.19839 1.18043 1.19409 1.20939 1.17709 1.19743 1.18505 1.175 1.18278 1.18473 1.19452 1.19023 1.18193 1.22026 1.20429 1.19575 1.17609 1.18162 1.20465 1.18616 1.17536 1.17307 1.20761 1.17874 1.18916 1.17974 1.19223 1.17688 1.17824
internal_weight=50400 15847 34553 11400 4447 20062 8396 14491 13968 10082 3004 5974 4409 6094 1417 3030 652 12242 2352 2422 4776 10942 4286 2019 1706 448 5306 4458 6656 2710
internal_count=50400 15847 34553 11400 4447 20062 8396 14491 13968 10082 3004 5974 4409 6094 1417 3030 652 12242 2352 2422 4776 10942 4286 2019 1706 448 5306 4458 6656 2710
cat_boundaries=0 3 4 5 7 10 11 12 15 18 19 34 50 51 54 57 72 88 104
cat_threshold=318900400 148978649 856262 24 24 4202680 536903688 1394737926 1116143684 1180017 24 24 1024198656 239141400 2953346 1845681 906596890 2183176 56 536872976 2147483649 65792 268435488 0 525584 2048 0 268437536 536873472 20 1280 134217728 214144 257 49152 0 0 65536 196608 2097156 262144 13 268435712 32768 268435456 134250514 536871170 536870912 402653184 4164 97 16910384 12648960 528388 16779264 134283272 262144 536870912 1 134217728 268566560 2097280 0 1048576 131072 1049601 2147483648 1141383168 268436544 32 272629824 402653184 8208 256 2097160 131072 142606848 134217728 276824064 20480 536870912 0 1073742336 268763140 16 16 1078984752 16 0 155648 1074790418 8272 36 20 9248 8454144 0 294912 1073741824 1 24 268443648 512 161
is_linear=0
shrinkage=1


Tree=1
num_leaves=31
num_cat=19
split_feature=28 11 28 37 28 30 30 28 37 30 37 30 37 37 4 30 37 36 36 36 34 28 28 37 37 28 5 37 36 36
split_gain=1265.16 269.907 192.886 128.997 87.9505 70.6261 64.6646 64.3211 42.5728 38.4144 37.8835 33.7686 27.2654 23.7117 23.5454 23.2339 23.2077 18.9486 15.3573 15.0151 14.1941 13.894 12.0218 11.802 11.7922 10.957 10.789 10.9254 10.6455 10.6352
threshold=2.7428571539265776 4.1000549793243417 2.0353016172136584 0 4.6190435886383066 1 2 3.8347891909735545 3 4 5 6 7 8 6.1000001430511483 9 10 11 12 13 0.67950001358985912 3.5285715545926779 3.3177726098469331 14 15 4.8101510831287939 2.4970580339431767 16 17 18
decision_type=2 2 2 9 2 1 1 2 9 1 9 1 9 9 2 1 9 9 9 9 2 2 2 9 9 2 2 9 9 9
left_child=2 3 5 9 15 16 12 11 18 13 19 -5 -4 -2 -6 21 28 -11 -8 -7 -12 -3 -13 26 29 -9 -19 -28 -1 -10
right_child=1 4 6 7 14 10 8 25 24 17 20 22 -14 -15 -16 -17 -18 23 -20 -21 -22 -23 -24 -25 -26 -27 27 -29 -30 -31
leaf_value=-0.013460994381580086 0.022906255964533113 0.01568787535516852 -0.0016758011467326792 0.014558667537951193 0.026447157731306032 -0.019568051172423037 -0.0071474000432710412 0.016591198355233483 -0.0027346731909824442 0.0026609309084040123 -0.0028795653427928425 0.0045140784438946167 0.0062273698043111185 0.0020762542949885835 0.03975425128843986 0.0085089927241171932 -0.00099136183653489285 -0.0054048217252846576 0.00092858458713511991 -0.012637938548412365 -0.0094050848029346348 0.023577956748229687 0.0098133898849554341 -0.00098991019885787471 -0.0045076675625830313 0.02573206196789999 -0.024388885108473181 -0.0087088952368210969 -0.0056942735440072782 -0.011151534344060682
leaf_weight=591 207 1152 1649 1667 779 1131 666 1431 531 638 978 3338 3165 408 638 670 2917 557 4536 4134 6703 1208 1624 515 3650 464 213 338 2181 1721
leaf_count=591 207 1152 1649 1667 779 1131 666 1431 531 638 978 3338 3165 408 638 670 2917 557 4536 4134 6703 1208 1624 515 3650 464 213 338 2181 1721
internal_value=0 0.0116975 -0.00536493 0.00761533 0.0221512 -0.00881809 -0.00131922 0.0106986 -0.00341831 -0.00153735 -0.0108604 0.00837529 0.00351197 0.00942165 0.0324739 0.0173072 -0.00413545 -0.00456861 -0.000107501 -0.0141704 -0.00856956 0.0196644 0.00624597 -0.00744005 -0.00632287 0.0188558 -0.0103577 -0.0154617 -0.00741057 -0.00920989
internal_weight=50400 15847 34553 11400 4447 18635 15918 8524 11104 2876 12946 6629 4814 615 1417 3030 5689 2261 5202 5265 7681 2360 4962 1623 5902 1895 1108 551 2772 2252
internal_count=50400 15847 34553 11400 4447 18635 15918 8524 11104 2876 12946 6629 4814 615 1417 3030 5689 2261 5202 5265 7681 2360 4962 1623 5902 1895 1108 551 2772 2252
cat_boundaries=0 3 4 5 8 9 12 13 16 19 20 23 38 54 70 73 76 79 95 111
cat_threshold=318898352 148978649 856262 24 24 1403126534 1116151876 1180017 24 37757689 2688585736 2253312 24 1024198912 515966488 2953346 16 6401 4160 120 152841136 906596890 2183180 536872976 2147483649 65792 268435488 1024 524560 2048 0 268437536 536871424 4 1280 134217728 214144 524545 134266880 0 1 65536 196608 4 262144 262157 268435712 32768 268435720 134250514 258 538968064 268435456 4164 1049856 64 16 135266305 1082130432 0 1114112 286269984 1024 34611200 1082132626 0 2097152 128 0 16 128 136329609 262272 2215116816 402655528 2359936 0 134217736 262144 0 1088 0 1052672 8388608 536887296 3145734 420495392 134284352 1107296256 1107296259 0 327680 0 33554432 16384 570425344 1048897 134234144 65 8388608 0 2147483650 0 0 2147483648 1754800128 1024 160 20973568 33554433 32
is_linear=0
shrinkage=0.05


Tree=2
num_leaves=31
num_cat=24
split_feature=28 4 28 37 30 36 28 37 30 30 37 37 30 30 37 37 37 28 36 28 36 30 36 36 36 30 37 30 37 36
split_gain=1142.3 244.52 175.714 130.506 76.7625 73.9019 50.7407 47.6667 45.1938 39.2312 32.3587 32.2358 31.278 27.5503 27.0445 20.5425 20.1569 20.1564 16.8869 15.8167 13.9183 13.6472 12.2273 12.1957 11.9909 11.2012 10.4785 10.0551 9.55189 9.46673
threshold=2.7428571539265776 4.4994952678680429 1.8571429124900274 0 1 2 3.4755236932209566 3 4 5 6 7 8 9 10 11 12 6.0429510899952481 13 4.028592688696726 14 15 16 17 18 19 20 21 22 23
decision_type=2 2 2 9 1 9 2 9 1 1 9 9 1 1 9 9 9 2 9 2 9 1 9 9 9 1 9 1 9 9
left_child=2 3 8 10 11 17 12 18 15 19 -2 29 -5 28 -10 -1 -11 -3 -6 -7 -8 22 -9 -15 -20 -16 -14 -22 -12 -4
right_child=1 5 4 6 7 9 20 21 14 16 13 -13 26 23 25 -17 -18 -19 24 -21 27 -23 -24 -25 -26 -27 -28 -29 -30 -31
leaf_value=-0.0090292123628180048 -0.012909626398087282 0.027656113513164896 -0.0014622614582462815 0.013414125256675428 0.0067095249104474125 0.018578409214958656 0.021226553414100117 0.0012179004244861477 -0.017419774553157949 -0.0039545641019325352 0.019582663982927184 -0.0015549392107627124 0.0013195561512374119 -0.0094608948139966228 -0.0077008515193724677 -0.0019087762437171613 0.013177071337981835 0.041982529288503073 -0.007444422317107297 0.028872669533900688 0.017939038826224069 -0.0093043428387449261 -0.0060366419312044908 0.00020441790193931756 -0.00091807651079703779 -0.011768702543332888 0.0068401840052976339 0.010658293146950319 0.0036395882631386567 0.0065505447923603285
leaf_weight=1859 549 653 410 1642 628 999 830 664 1631 202 208 2859 1267 425 3114 2301 1006 437 816 652 838 3267 4196 1276 5032 4702 2975 1677 211 3074
leaf_count=1859 549 653 410 1642 628 999 830 664 1631 202 208 2859 1267 425 3114 2301 1006 437 816 652 838 3267 4196 1276 5032 4702 2975 1677 211 3074
internal_value=0 0.0111145 -0.00509839 0.00752989 -0.00222144 0.0219018 0.0103405 -0.0042159 -0.00952335 0.0174222 -0.00220072 0.00236528 0.00753963 0.000596602 -0.011441 -0.00511673 0.0102623 0.0331416 -0.00100175 0.0225375 0.0152835 -0.00676657 -0.00503475 -0.00222245 -0.00184842 -0.0101663 0.00521002 0.0131655 0.0119426 0.00559179
internal_weight=50400 15847 34553 11898 20946 3949 9229 14603 13607 2859 2669 6343 5884 2120 9447 4160 1208 1090 6476 1651 3345 8127 4860 1701 5848 7816 4242 2515 419 3484
internal_count=50400 15847 34553 11898 20946 3949 9229 14603 13607 2859 2669 6343 5884 2120 9447 4160 1208 1090 6476 1651 3345 8127 4860 1701 5848 7816 4242 2515 419 3484
cat_boundaries=0 3 4 20 23 24 25 28 31 32 33 35 38 41 57 73 74 89 104 120 121 124 125 128 144
cat_threshold=285345952 144784281 856262 24 67109120 1052672 139266 16 16 16777472 1056768 4194560 2147483648 536870912 65536 16777218 131072 67108865 16385 8192 1940013830 1116676165 1180017 24 24 0 134226056 262272 3257008759 1076254993 1180656 24 24 33555128 536903688 138946992 872780314 2183176 0 134219776 262144 2105368 64 4352 2147483648 1049092 132114 256 268444160 6291520 2148008448 4096 24832 4 0 256 128 67109120 67112960 8212 8720 16 0 8320 4194338 2147483648 536877056 24 2 8388609 0 0 384 97 33554432 0 134234147 141312 640 16 270336 536952832 1053697 2147483648 262144 0 32768 1024 136445952 2097156 8832 0 0 73988 16777216 0 1024 2098176 65536 537001984 16392 8192 16777217 536887296 402669568 0 0 65536 268501056 4 2147745792 524297 268435712 262144 33619968 671121426 33554690 2228224 268435456 4100 96 2147484497 37748736 3178512 56 131200 2305 68 0 0 0 1 2147618820 2097152 4096 8389129 256 258 134217728 134217872 4136 256 2420113536 64
is_linear=0
shrinkage=0.05


Tree=3
num_leaves=31
num_cat=19
split_feature=28 11 28 37 28 30 30 28 30 37 37 30 4 36 18 37 37 36 36 31 9 34 36 37 33 28 28 30 36 30
split_gain=1031.67 225.668 161.368 109.434 68.3063 58.2877 51.1647 48.061 37.9244 36.5066 30.5167 28.3151 27.2028 24.8832 20.2648 19.8541 19.3144 19.2796 17.4331 16.5516 16.482 15.7027 15.1901 13.0816 13.0159 12.2051 11.1587 11.0891 10.8759 9.91848
threshold=2.7428571539265776 4.2999999523162851 2.1000000430004939 0 4.6190435886383066 1 2 4.2633832863398968 3 4 5 6 4.9547383785247812 7 4.2168741226196298 8 9 10 11 12 0.5000097155570985 0.67950001358985912 13 14 15 1.7285715086119517 3.2980030030012135 16 17 18
decision_type=2 2 2 9 2 1 1 2 1 9 9 1 2 9 2 9 9 9 9 1 2 2 9 9 1 2 2 1 9 1
left_child=2 3 5 7 14 15 16 11 12 19 28 -2 23 -10 29 -1 -4 -6 -13 -7 -15 -11 -12 -5 -24 -21 -20 -23 -8 -3
right_child=1 4 6 8 17 9 10 -9 13 21 22 18 -14 20 -16 -17 -18 -19 26 25 -22 27 24 -25 -26 -27 -28 -29 -30 -31
leaf_value=-0.0070870386390024884 0.014390973960704807 0.01552720013664715 -0.0017225539401816107 -0.0063106146621213282 0.041002373509411889 -0.0033530662337926558 -0.0013675196077760862 0.020448369514790603 0.0063320675033779238 -0.0023201909295922874 0.0061401163874367296 -0.0014330129104800403 0.024986685551480831 -0.018791311009481781 0.020882729574568319 -0.0012855994911032233 0.0058428186131931391 0.025096309237227207 0.0055953900247048879 -0.016323337887875718 -0.003953883614937306 -0.0061338846995066913 -0.0038297038207447767 0.0088469051052108057 0.00051844267600978779 -0.010596036221910316 0.010509695877335941 -0.0099600195074621839 -0.009797533696731614 0.0067473440363669734
leaf_weight=2468 1728 907 1138 201 359 401 530 1020 562 1218 635 553 207 209 1229 3747 3150 1013 2529 2564 2042 3413 3821 424 3099 1569 2240 5092 1708 624
leaf_count=2468 1728 907 1138 201 359 401 530 1020 562 1218 635 553 207 209 1229 3747 3150 1013 2529 2564 2042 3413 3821 424 3099 1569 2240 5092 1708 624
internal_value=0 0.0105629 -0.00484484 0.00701285 0.0206158 -0.00767892 -0.000720906 0.0102543 -0.000177568 -0.00944215 -0.00271722 0.00878683 0.00912145 -0.00296822 0.0160439 -0.00360509 0.00382406 0.0297765 0.00691779 -0.0131872 -0.00533004 -0.00767886 -0.00118523 0.00393283 -0.00187253 -0.0141612 0.00789756 -0.00844942 -0.00783836 0.0121269
internal_weight=50400 15847 34553 11715 4132 20472 14081 8070 3645 14257 9793 7050 832 2813 2760 6215 4288 1372 5322 4534 2251 9723 7555 625 6920 4133 4769 8505 2238 1531
internal_count=50400 15847 34553 11715 4132 20472 14081 8070 3645 14257 9793 7050 832 2813 2760 6215 4288 1372 5322 4534 2251 9723 7555 625 6920 4133 4769 8505 2238 1531
cat_boundaries=0 3 4 5 6 9 12 13 29 32 35 50 66 67 82 85 86 87 103 104
cat_threshold=3760309575 1175715840 4361009 24 24 24 37757624 2688587784 2097664 2215121041 402659592 2359936 24 536872968 1 536875008 0 0 272 8464 0 268435488 38912 16 5376 128 17536 0 258 1583600 873005594 2117640 1024198656 239140888 2953344 0 0 139264 0 0 16777216 1048576 4194304 0 0 65536 0 0 67108864 1 8192 536870912 2097160 131072 142606336 0 277086208 20480 536870912 34078720 1073742336 272957440 67108880 262164 4194336 16 16 2105368 268435520 256 2147614720 3145732 132162 8 268452352 1088 2148007936 8224 73984 0 0 1065216 16777216 134283272 786432 1 96 570425344 1048833 134234144 64 8388608 0 1048578 4096 1024 2147483648 1620582400 525312 160 4196352 33554437 16416 56
is_linear=0
shrinkage=0.05


Tree=4
num_leaves=31
num_cat=19
split_feature=28 11 28 37 4 30 28 30 37 37 36 30 4 37 18 30 28 9 36 1 37 30 37 36 28 36 37 37 36 37
split_gain=932.387 221.311 131.589 103.514 64.1997 62.819 47.0345 34.9664 33.0152 31.7997 27.5536 26.1802 24.3757 23.9637 23.5977 21.2315 17.9491 13.9851 13.5168 13.0146 12.6887 11.9136 11.5922 11.4694 11.3987 11.2471 10.3597 10.1814 9.78854 9.4726
threshold=2.6714286208152775 4.2999999523162851 1.7962925987584251 0 5.7000000476837167 1 3.8347891909735545 2 3 4 5 6 5.1000001430511483 7 2.8999999761581425 8 5.3292595062937069 0.5000097155570985 9 3.8836258649826054 10 11 12 13 3.7351536154747014 14 15 16 17 18
decision_type=2 2 2 9 2 1 2 1 9 9 9 1 2 9 2 1 2 2 9 2 9 1 9 9 2 9 9 9 9 9
left_child=2 3 8 6 14 9 11 12 23 18 -9 -2 20 19 -3 27 -6 -12 -4 22 -5 26 -7 -1 -16 -23 -11 -10 -17 -19
right_child=1 4 5 7 16 13 -8 10 15 21 17 -13 -14 -15 24 28 -18 29 -20 -21 -22 25 -24 -25 -26 -27 -28 -29 -30 -31
leaf_value=-0.017084400197337746 0.010455544234662984 0.0078538280549200236 -0.0043125671011082084 -0.006385240865827993 0.023576787109377439 -0.014547772974871637 0.016644364061526532 0.005910844295688852 0.0046549896185589862 0.0040422185810907608 -0.016584548459619156 0.0040188943997443126 0.023259714676972201 -0.0080114769135087548 0.01418080228936475 -0.013676350488610378 0.036619036800835912 -0.006547683983578384 0.0030524718379502653 0.0087615545289672653 0.0076302471267773514 0.0013925389896030538 -0.0027474809923578123 -0.010875709722271691 0.021375803669050383 -0.0065217421728736777 -0.0023556695557528581 -0.0044679069034564501 -0.0077986003772204026 -0.00019120543840785517
leaf_weight=1205 3515 754 687 205 607 216 1821 758 349 846 234 3005 212 5047 1068 938 524 1306 5659 228 633 540 3507 2943 1296 2436 2395 1992 4375 1099
leaf_count=1205 3515 754 687 205 607 216 1821 758 349 846 234 3005 212 5047 1068 938 524 1306 5659 228 633 540 3507 2943 1296 2436 2395 1992 4375 1099
internal_value=0 0.00951728 -0.00485925 0.00622666 0.0194091 -0.00253281 0.00950571 4.36228e-05 -0.00910517 -0.000242021 -0.0024127 0.00751883 0.00798536 -0.00571904 0.0156735 -0.0071093 0.0296636 -0.00483563 0.00224176 -0.00276522 0.00415683 -0.00278489 -0.00349199 -0.0127281 0.0181464 -0.00506908 -0.000662949 -0.00307257 -0.00886944 -0.00369181
internal_weight=50400 17037 33363 12788 4249 21561 8341 4447 11802 12563 3397 6520 1050 8998 3118 7654 1131 2639 6346 3951 838 6217 3723 4148 2364 2976 3241 2341 5313 2405
internal_count=50400 17037 33363 12788 4249 21561 8341 4447 11802 12563 3397 6520 1050 8998 3118 7654 1131 2639 6346 3951 838 6217 3723 4148 2364 2976 3241 2341 5313 2405
cat_boundaries=0 3 4 5 8 11 27 28 31 32 48 51 52 55 69 85 88 91 105 108
cat_threshold=3223438663 1175715840 4327728 120 24 171975352 2688651400 2113544 1650590566 1109857349 1278320 536872968 1 536875008 268435488 0 8464 8464 2147483648 32 299008 8208 5376 134217856 17536 0 258 120 1940001286 42423297 1442167 24 402653184 0 0 2162688 268566532 268443648 134217760 524297 1073742080 256 65536 536875008 536870912 33024 2420125824 4160 553648128 134283272 262144 24 536870912 4097 262145 1179904 1088 16 135266305 1082130432 0 1048576 286261296 1024 1175453696 1073750146 1048576 67371008 134217728 570425856 524545 1212170242 12368 32 16 8192 16384 0 2684354560 1074008080 0 262144 0 33554432 16416 2147487761 8440064 640 2147876864 2097409 1310976 4195328 1073840128 16448 33558540 16793608 268435520 1073742340 1073742336 2155872257 520 77594624 0 0 4 128 134232968 2359430
is_linear=0
shrinkage=0.05


Tree=5
num_leaves=31
num_cat=23
split_feature=28 4 28 37 36 30 28 30 37 30 37 37 30 30 37 36 18 37 36 37 36 29 36 28 30 36 36 36 36 36
split_gain=842.965 187.009 135.89 98.8013 59.5735 51.6983 39.8647 39.4127 35.3156 31.0984 23.9785 21.7054 23.3639 19.1842 18.5597 17.4737 17.3248 16.483 15.8328 14.764 12.5811 12.0126 11.7771 11.7344 11.629 9.78538 9.50228 8.93411 8.85525 8.644
threshold=2.7428571539265776 4.4994952678680429 2.1660601837294444 0 1 2 3.3177726098469331 3 4 5 6 7 8 9 10 11 7.3000004291534433 12 13 14 15 2.628954429781174 16 1.542864656874112 17 18 19 20 21 22
decision_type=2 2 2 9 9 1 2 1 9 1 9 9 1 1 9 9 2 9 9 9 9 2 9 2 1 9 9 9 9 9
left_child=2 3 5 11 16 14 13 19 18 21 20 -2 -13 -5 -1 -8 -3 -11 -7 -4 -9 -6 -10 -16 -17 -12 -20 -26 -24 -14
right_child=1 4 7 6 9 8 15 10 22 17 25 12 29 -15 23 24 -18 -19 26 -21 -22 -23 28 -25 27 -27 -28 -29 -30 -31
leaf_value=0.0016409429468940415 -0.013891762591605544 0.02501032957621864 -0.00044604604478354825 0.010373316178585246 0.017503231567134771 -0.016051791427332755 0.017958218469056209 -0.0058881050955306088 0.0022150130604514343 0.013409037438498056 0.0012568171733842526 0.01134665200342469 0.0017794504572457969 0.0036675742834715377 -0.0083461833865792305 0.014248677388110973 0.039411274310558631 0.0010893638496512978 -0.002952526252456282 0.0062444371198654147 0.0022146083345147487 0.030418060035981194 -0.010526004966752491 -0.0029902203229943301 0.012843115851701548 -0.0052519230894566725 -0.010231960490491727 0.0056680157918904319 -0.005550780846021253 -0.0065836831750401299
leaf_weight=1604 397 936 1201 1512 1363 1236 1010 553 418 631 658 303 452 3865 1444 1215 292 504 537 2558 3150 223 1116 3696 666 4180 6038 1567 6164 911
leaf_count=1604 397 936 1201 1512 1363 1236 1010 553 418 631 658 303 452 3865 1444 1215 292 504 537 2558 3150 223 1116 3696 666 4180 6038 1567 6164 911
internal_value=0 0.00954828 -0.00437924 0.00641272 0.0189828 -0.00671049 0.00849593 -0.000157503 -0.008301 0.0146266 -0.00203869 -0.00351853 -0.000948666 0.00558863 -0.00302861 0.0120104 0.0282454 0.00803941 -0.010689 0.00409805 0.000978497 0.0192294 -0.00586077 -0.00449587 0.0101721 -0.00435561 -0.00965041 0.00787802 -0.00633372 -0.00378111
internal_weight=50400 15847 34553 11898 3949 22253 9835 12300 15509 2721 8541 2063 1666 5377 6744 4458 1228 1135 7811 3759 3703 1586 7698 5140 3448 4838 6575 2233 7280 1363
internal_count=50400 15847 34553 11898 3949 22253 9835 12300 15509 2721 8541 2063 1666 5377 6744 4458 1228 1135 7811 3759 3703 1586 7698 5140 3448 4838 6575 2233 7280 1363
cat_boundaries=0 3 19 20 21 24 25 28 31 32 33 36 52 55 71 74 90 106 107 122 138 153 169 184
cat_threshold=268437664 134232984 852166 67109120 1052672 2147622918 8208 1040 16777472 1056768 4194560 2147483648 536870912 65536 16777218 393216 67108865 16385 8192 24 24 171991801 2688588344 2581006 24 1361183236 34013188 1180001 0 8 262144 24 24 3525443588 6572289 1311072 67109120 67112960 8214 8720 16 16777216 8320 4194338 2147483648 1054720 24 2 8388609 0 536870912 384 3223356481 262144 2336 1280 64 16 135266309 1082130432 0 1073807360 286261792 1024 33566720 1082131090 0 2097152 134217856 0 16 1024198912 239157784 2461824 16384 0 0 65536 135168 2097152 393216 1310733 0 262148 2449473794 32784 10 538968068 268697600 4164 8 1056768 1073741840 0 2149580804 0 8192 576 0 32768 3489923073 4202624 4120 536875008 0 2 56 536870912 262145 134217728 268566560 2097216 2147483648 1050624 16928768 1049600 2147483904 532480 1088 0 268436544 402653217 0 512 1150287904 336 73988 0 536887296 41959424 65536 32800 134348800 0 33288 2098176 538968064 32 1082130456 5244928 2147749888 0 67108868 142614528 4194304 67109124 0 541106176 536870912 4096 2176 4096 16385 64 1074003968 64 34082816 268451848 268435520 5 4096 1 520 9437184 34078720 16785408 18464 4 8 536870928 2147483649 256 268435456 3072 525584 0 0 2080 536872962 17 0 134217728 16384 524545
is_linear=0
shrinkage=0.05


Tree=6
num_leaves=31
num_cat=20
split_feature=28 18 28 4 37 30 30 4 37 37 28 28 37 37 36 37 30 30 36 37 5 28 37 30 36 36 37 36 3 36
split_gain=761.342 173.658 122.714 87.0594 69.6329 50.55 33.7406 32.3021 28.5236 28.0811 25.8168 23.6193 21.9351 19.1961 18.1152 17.8561 17.3284 14.2588 13.9852 13.4928 13.3422 11.8347 11.1171 11.1144 10.613 10.1806 9.97974 8.49389 8.33153 7.71498
threshold=2.7428571539265776 3.50000011920929 2.1938730563436244 5.50000023841858 0 1 2 7.2001214027404794 3 4 3.8000001737049653 3.7351536154747014 5 6 7 8 9 10 11 12 2.3999999761581425 1.7510655266898023 13 14 15 16 17 18 1.0994501113891604 19
decision_type=2 2 2 2 9 1 1 2 9 9 2 2 9 9 9 9 1 1 9 9 2 2 9 1 9 9 9 9 2 9
left_child=2 4 5 10 7 8 19 9 -1 20 16 17 -7 24 -5 -10 -3 -6 -11 -4 -2 -14 -18 -12 -8 -17 -25 -15 -27 -30
right_child=1 3 6 14 11 12 13 -9 15 18 23 -13 21 27 -16 25 22 -19 -20 -21 -22 -23 -24 26 -26 28 -28 -29 29 -31
leaf_value=-0.011634188461146599 -0.0024743315569131438 0.012734283003757516 0.0065110446901360522 0.037812982425321419 0.008700372183508524 -0.0051102230274494391 -0.0063531877673564455 0.018116444503422827 -0.00038335963720323695 0.0060109012578060039 0.023492590932592726 0.013223501239735456 -0.012596726841613608 0.0017031166046128973 0.022438692684520645 0.0014774999461294484 -0.0026382803948125314 0.0032724520159986103 -0.0025684453439705612 5.623377854300833e-05 -0.018279579857231252 -0.0084075644128776481 0.0078250506562148013 0.0030187960002492644 0.0019803462703117162 -0.0089273633396733942 0.015967220234341172 -0.0047996665131968446 -0.0086043474816533492 -0.0037554187084659035
leaf_weight=1192 221 1743 2209 358 2595 2712 423 200 3345 654 557 1552 3537 565 932 610 352 2415 1657 1310 371 3448 837 203 3157 1273 1200 3836 990 5946
leaf_count=1192 221 1743 2209 358 2595 2712 423 200 3345 654 557 1552 3537 565 932 610 352 2415 1657 1310 371 3448 837 203 3157 1273 1200 3836 990 5946
internal_value=0 0.00907487 -0.00416119 0.0156231 0.00488126 -0.00626576 5.32902e-05 -0.00128353 -0.00425262 -0.00264172 0.0125572 0.00779413 -0.00901967 -0.00174063 0.0272112 -0.0035162 0.00954842 0.0061178 -0.000103559 0.00412928 -0.0122567 -0.0105209 0.00468954 0.0170325 0.000966804 -0.00469703 0.0141637 -0.00395154 -0.00516318 -0.00447255
internal_weight=50400 15847 34553 6182 9665 23053 11500 3103 13356 2903 4892 6562 9697 7981 1290 12164 2932 5010 2311 3519 592 6985 1189 1960 3580 8819 1403 4401 8209 6936
internal_count=50400 15847 34553 6182 9665 23053 11500 3103 13356 2903 4892 6562 9697 7981 1290 12164 2932 5010 2311 3519 592 6985 1189 1960 3580 8819 1403 4401 8209 6936
cat_boundaries=0 3 4 5 8 11 14 17 32 35 36 37 53 56 59 60 76 92 95 111 127
cat_threshold=805308593 144800665 4001990 120 24 8360 536969224 8 0 134242440 262274 817238276 245452097 1048866 1361183238 1107755012 1180017 0 0 139264 0 0 16777472 1048576 4194304 0 0 65536 0 131072 67108864 524289 3835822342 2158249089 1115489 56 120 33554440 0 537399296 268443648 0 8464 272 0 1050656 536877056 16 1024 128 16520 524289 258 3223454454 1074137857 1573748 131264 167774216 2097216 24 16384 0 0 65536 0 2097152 393216 9 0 262148 2449473792 32786 10 572522500 268435472 4164 33556480 3670016 1130544 133136 0 0 0 2181038080 33554432 33853440 4096 0 2147516936 538968064 2097152 1 2147483664 264192 576 536870912 262145 134217728 268566560 2097216 2147483648 1312768 153600 1049600 2147483648 8192 1024 128 1088 268435456 4096 0 1073741840 0 16777225 545275904 0 3293609988 512 8388640 268435456 10485760 2048 33619968 20 0 8280
is_linear=0
shrinkage=0.05


Tree=7
num_leaves=31
num_cat=20
split_feature=28 11 28 37 36 30 28 30 37 37 36 30 37 37 30 30 11 1 9 36 37 36 37 28 36 28 11 36 37 36
split_gain=688.692 170.936 101.087 79.9937 50.8412 49.604 35.6266 27.2766 25.8917 24.7662 21.7883 21.313 18.9749 18.4985 17.3272 16.4517 15.5558 13.8122 12.4206 11.0699 11.4187 10.5179 10.3431 10.1855 10.1758 9.74317 8.81098 8.23582 8.12206 8.04998
threshold=2.6714286208152775 4.2999999523162851 1.7962925987584251 0 1 2 4.2633832863398968 3 4 5 6 7 8 9 10 11 7.6010355949401864 3.8999999761581425 0.5000097155570985 12 13 14 15 3.8000001737049653 16 3.2736964055470064 2.8999999761581425 17 18 19
decision_type=2 2 2 9 9 1 2 1 9 9 9 1 9 9 1 1 2 2 2 9 9 9 9 2 9 2 2 9 9 9
left_child=2 3 8 6 16 9 11 12 24 21 -9 25 -5 17 23 28 -3 22 -12 -11 -21 -4 -7 -6 -1 -2 -22 -13 -10 -17
right_child=1 4 5 7 14 13 -8 10 15 19 18 27 -14 -15 -16 29 -18 -19 -20 20 26 -23 -24 -25 -26 -27 -28 -29 -30 -31
leaf_value=-0.014904723612721341 0.0074394473532304901 0.022716529845392689 -0.0034409288372321094 0.016767213866598241 0.013069650238460568 -0.013309186254821172 0.017037524018414012 0.0051595873851718018 0.0043284970654950787 -0.0090507006440169405 -0.015424594619234764 -0.0025577028559935259 0.002168754408167696 -0.0068143588392008438 0.0077309964727832097 -0.012212868127732035 0.036740305653688583 0.010502509401631679 -0.0033466714182508552 -0.010584606704581249 -0.0022197567331414011 0.0031068489339426538 -0.0021398525396334024 0.020495608787438155 -0.009286046811883799 0.012635946791672341 0.0020636638280212951 0.0049178360052242005 -0.0037103922433513788 -0.0066292594200283664
leaf_weight=1259 2366 906 684 327 1194 216 1007 750 365 528 237 408 717 5424 1040 839 275 202 2425 322 4319 5058 3156 834 3274 1552 1652 2999 1857 4208
leaf_count=1259 2366 906 684 327 1194 216 1007 750 365 528 237 408 717 5424 1040 839 275 202 2425 322 4319 5058 3156 834 3274 1552 1652 2999 1857 4208
internal_value=7.43331e-07 0.00818079 -0.00417495 0.00528819 0.0168747 -0.00213553 0.00817528 -0.000117059 -0.0078965 -9.9723e-05 -0.00229399 0.00696128 0.0069044 -0.00496674 0.0132931 -0.00600152 0.0258058 -0.0021376 -0.00442414 -0.00213897 -0.00153769 0.00231354 -0.00291597 0.0160689 -0.010887 0.00948644 -0.00102457 0.00400312 -0.00235399 -0.00758967
internal_weight=50400 17037 33363 12788 4249 21561 8332 4456 11802 12563 3412 7325 1044 8998 3068 7269 1181 3574 2662 6821 6293 5742 3372 2028 4533 3918 5971 3407 2222 5047
internal_count=50400 17037 33363 12788 4249 21561 8332 4456 11802 12563 3412 7325 1044 8998 3068 7269 1181 3574 2662 6821 6293 5742 3372 2028 4533 3918 5971 3407 2222 5047
cat_boundaries=0 3 19 20 21 24 27 43 44 47 50 51 52 68 71 87 90 104 120 123 137
cat_threshold=3760309575 1175715840 4327713 67109120 4096 2147622918 16 0 16777472 1056768 4194562 2147483648 536870912 65536 16777218 393216 67108865 524289 8192 120 24 171975352 2688651400 2117640 1113719590 1109856325 1278320 536872968 1 536940544 268435456 0 8464 8464 2147491840 1048608 299008 8208 1282 134217728 16512 0 258 120 16 6400 3145808 1940001286 42095617 1442167 56 24 20971536 262672 4 0 537403392 536870912 8388676 0 32 0 163840 16384 101720096 2052 0 88 0 8 262144 402653184 0 8 2162688 268566532 270540800 134217760 524297 256 0 0 671092736 536870914 33024 2415927424 4160 536870912 4097 262145 1245440 1088 16 135266305 1082130432 0 1048576 286261296 1024 1175453696 1073750146 1048576 69206016 134217728 8192 536870912 18874369 128 8388608 67108864 8650756 20480 2097184 34079232 3221225984 2147483904 16 4 0 16 2147745792 2097409 1310980 4195328 1073840128 16384 33558532 16793608 268435520 1073742340 1073742336 2155876353 520 10485760 0 0 36
is_linear=0
shrinkage=0.05


Tree=8
num_leaves=31
num_cat=21
split_feature=28 18 28 4 37 30 30 37 4 37 37 37 28 37 36 11 37 37 36 36 30 36 5 36 36 37 30 36 11 36
split_gain=622.812 139.319 112.585 72.1218 57.0548 42.75 31.9765 29.2907 27.1521 29.6713 22.2552 18.1485 16.0272 16.0163 15.6322 14.9251 14.7091 13.2873 13.0151 12.6701 12.459 12.1988 11.5131 10.5886 9.7796 9.45406 9.14618 9.00252 8.52917 8.02939
threshold=2.7905409421239584 3.50000011920929 2.1938730563436244 5.50000023841858 0 1 2 3 7.2001214027404794 4 5 6 4.2633832863398968 7 8 4.6000776290893564 9 10 11 12 13 14 2.3999999761581425 15 16 17 18 19 2.0501598119735722 20
decision_type=2 2 2 2 9 1 1 9 2 9 9 9 2 9 9 2 9 9 9 9 1 9 2 9 9 9 1 9 2 9
left_child=2 4 5 10 12 16 17 19 9 22 24 -8 20 -5 -11 25 -1 -4 -13 -7 -2 -9 -6 -18 -3 -12 -20 -21 -23 -22
right_child=1 3 6 13 8 7 11 21 -10 14 15 18 -14 -15 -16 -17 23 -19 26 27 29 28 -24 -25 -26 -27 -28 -29 -30 -31
leaf_value=0.0011580368458487234 0.0030880449837026214 0.019342905984199292 -8.1718623125006745e-05 0.03296083925486322 -0.0027327716334884129 -0.014170693375886438 -0.0061287786559636789 0.0022560119464542501 0.017076631744517148 0.0070830062325098813 -0.0027746776546738656 0.0065064817484259269 0.015107838291790732 0.019545675286898653 -0.0017061221174792798 0.014549509940954742 -0.0096908132121616315 0.006180798993430099 0.00055249050084624218 -0.0020228790141157272 0.0017569019377228923 -0.0067611294650365269 -0.01793183410350796 -0.0029177661439681347 0.012158429410654923 0.006964855219342485 -0.0033394336022594031 -0.0089819795217320544 -0.003257575812976787 0.0094467382778050286
leaf_weight=2036 1692 893 1264 475 208 1219 1663 529 205 669 298 624 651 807 1965 589 677 2500 3724 549 425 5040 346 4271 1663 1298 2509 5975 2757 2879
leaf_count=2036 1692 893 1264 475 208 1219 1663 529 205 669 298 624 651 807 1965 589 677 2500 3724 549 425 5040 346 4271 1663 1298 2509 5975 2757 2879
internal_value=2.05551e-07 0.00851439 -0.00362769 0.0144094 0.00458126 -0.00568794 0.000234641 -0.00710834 -0.000538452 -0.00168854 0.0115446 -0.0014569 0.00765369 0.0249648 0.000525632 0.00766519 -0.00239909 0.00406987 -0.000309294 -0.0093388 0.0066877 -0.00501934 -0.0120972 -0.00387224 0.0147536 0.00514125 -0.00100898 -0.00840801 -0.00552161 0.00848095
internal_weight=50400 15063 35337 6023 9040 23053 12284 16069 3393 3188 4741 8520 5647 1282 2634 2185 6984 3764 6857 7743 4996 8326 554 4948 2556 1596 6233 6524 7797 3304
internal_count=50400 15063 35337 6023 9040 23053 12284 16069 3393 3188 4741 8520 5647 1282 2634 2185 6984 3764 6857 7743 4996 8326 554 4948 2556 1596 6233 6524 7797 3304
cat_boundaries=0 3 4 5 8 11 14 17 20 36 39 42 57 73 74 89 105 121 124 125 141 157
cat_threshold=3256934470 1179910148 4360992 24 24 104866553 2688588330 2515598 0 134226056 262274 1075938311 68157440 1181984 2248675472 6408 2425344 0 16779264 2048 33554440 0 536875008 24576 16777216 2147509504 8464 0 2080 536877056 16 1280 128 16520 1 258 3793883140 6572321 1311552 1023936769 249631256 2461825 536879128 0 4368 2147491840 2097152 8519682 8 268444160 1088 2147485696 8224 8448 0 0 1073408 1280 64 16 152043525 1082130432 0 65536 286269984 1024 33566976 1082130962 0 2097152 128 0 16 6 520 1056768 1074268176 0 2097156 0 8192 64 0 40960 3489923093 4202624 4120 545263616 268435456 0 1028 0 1052672 32768 536887296 7897094 419451392 65632 2181038080 33554434 0 327680 4 0 16416 67109120 67112960 2147491846 8720 16 0 1056896 4194594 0 537958400 24 0 8388736 0 1 8320 131072 167778568 262144 97 0 512 1150287904 336 8454 0 536887296 41959424 65536 32800 134217728 0 32776 2097152 538968096 32 1073741824 1048576 8388864 131072 134217728 131080 8388608 0 1612742656 2148007936 2147483648 272892160 67371008 262228 32 80
is_linear=0
shrinkage=0.05


Tree=9
num_leaves=31
num_cat=23
split_feature=28 11 28 37 36 30 28 30 36 37 4 30 37 37 30 4 36 30 37 37 30 37 36 30 36 37 36 36 30 28
split_gain=563.098 142.238 85.2993 64.4635 46.2297 39.0242 27.6313 24.283 22.638 22.5085 20.5251 18.8107 17.3788 16.9145 14.8932 14.3406 13.7897 13.4647 12.7583 12.5359 12.3146 11.6102 11.3664 10.8662 9.99783 8.94632 8.66606 8.29666 8.02281 7.79606
threshold=2.6714286208152775 4.1000549793243417 1.8571429124900274 0 1 2 3.3177726098469331 3 4 5 0.40004718303680425 6 7 8 9 5.7000000476837167 10 11 12 13 14 15 16 17 18 19 20 21 22 3.2736964055470064
decision_type=2 2 2 9 9 1 2 1 9 9 2 1 9 9 1 2 9 1 9 9 1 9 9 1 9 9 9 9 1 2
left_child=2 3 7 6 15 18 20 19 -5 22 -10 13 -9 -12 25 -3 -8 -11 -4 -1 -2 -16 -7 -18 -19 -6 -14 -24 -28 -27
right_child=1 4 5 8 14 9 16 12 10 17 11 -13 26 -15 21 -17 23 24 -20 -21 -22 -23 27 -25 -26 29 28 -29 -30 -31
leaf_value=-0.0066569124501205867 0.0091363671894730426 0.018099475271110724 -0.0096592966447424152 0.0065747133675506803 0.023503893325726194 -0.0042467917588909871 0.016503276312212926 -0.012840660048867872 -0.017124708103376247 0.00030946708905109686 0.017098065178614546 -0.0031286212399033739 0 0.0008266619887810075 0.010939261059897723 0.029023235536780143 0.014932530116060891 0.0016825632329680431 -0.0038805313192328398 -0.0010930440126484797 0.0030112057189479783 0.0013787942986029876 0.008423777702727165 0.0070200323620490243 -0.0049699983697114505 0.0079230502662349205 -0.0054322875546691718 0.0019048658693910305 -0.0089671503724988947 0.015634914815714381
leaf_weight=1849 1132 684 1278 967 290 682 807 1730 212 3153 222 2553 409 553 951 601 592 653 4219 2311 3229 513 536 2185 3719 534 2915 5516 4393 1012
leaf_count=1849 1132 684 1278 967 290 682 807 1730 212 3153 222 2553 409 553 951 601 592 653 4219 2311 3229 513 536 2185 3719 534 2915 5516 4393 1012
internal_value=1.06023e-06 0.00739781 -0.00377463 0.00461975 0.0149316 -0.0016731 0.00732477 -0.00682217 -0.000153517 -0.000287466 -0.00201885 -0.00104762 -0.00822852 0.00570976 0.011643 0.023068 0.0105975 -0.00216838 -0.00524822 -0.00358805 0.00464046 0.00765518 0.00180707 0.00877228 -0.00396339 0.0147371 -0.00717282 0.00250341 -0.00757335 0.01292
internal_weight=50400 17037 33363 12452 4585 19756 7945 13607 4507 14259 3540 3328 9447 775 3300 1285 3584 7525 5497 4160 4361 1464 6734 2777 4372 1836 7717 6052 7308 1546
internal_count=50400 17037 33363 12452 4585 19756 7945 13607 4507 14259 3540 3328 9447 775 3300 1285 3584 7525 5497 4160 4361 1464 6734 2777 4372 1836 7717 6052 7308 1546
cat_boundaries=0 3 19 20 21 37 40 41 43 46 47 63 64 67 70 71 74 90 91 106 108 123 139 140
cat_threshold=3760309574 1175715840 4327713 67109120 4096 2147622918 16 0 16777472 1056768 4194562 2147483648 541097984 65536 16777218 393216 67108865 524289 8192 6 24 536872968 1 537399552 0 0 8448 8464 3221233666 32 536875520 8208 5376 0 16520 8192 258 1130496806 1118244869 491889 24 37757624 2684387336 0 2304 294976 24 67108864 68161544 2147491842 528 16 16785408 8320 1145077792 0 1087488 532488 0 8519680 0 536870913 128 24 2148008081 268503080 2425472 155724208 906297882 2183304 24 1075872836 67174400 1181952 402685952 35651584 0 73730 134348868 0 134479920 524297 256 0 33554432 671088656 537395200 32768 2147483648 5120 24 33554432 257 138412035 8192 512 16 2148540416 81920 1048576 2147483682 1141121024 0 128 268436480 2769280 0 2048 0 131072 3145744 134218064 8324 4096 33685536 32768 8192 0 65600 134217744 1048584 805306368 272891904 2097152 268435456 0 32 69206016 67109888 268437504 134225920 807405120 33554944 516 65792 134218240 33554448 538968128 128 96
is_linear=0
shrinkage=0.05


Tree=10
num_leaves=31
num_cat=21
split_feature=28 4 37 28 36 30 28 37 37 36 30 30 30 37 5 30 36 37 30 29 26 37 28 36 36 37 0 37 37 36
split_gain=509.397 138.991 68.9369 67.8132 42.3916 37.2605 34.7676 23.5731 20.8516 20.6969 19.7117 16.698 16.6422 16.6044 14.7592 13.279 15.9029 14.5643 12.2409 15.6151 11.6122 11.0626 10.8752 10.0055 9.20457 8.75362 8.19752 11.7099 7.3885 7.38519
threshold=2.5851904238973353 4.4994952678680429 0 1.7579165782247272 1 2 3.3177726098469331 3 4 5 6 7 8 9 2.3999999761581425 10 11 12 13 1.4551589093743444 7.596492052078248 14 4.085714442389353 15 16 17 2.00000011920929 18 19 20
decision_type=2 2 9 2 9 1 2 9 9 9 1 1 1 9 2 1 9 9 1 2 2 9 2 9 9 9 2 9 9 9
left_child=3 2 7 9 20 13 11 14 -7 -1 22 -4 25 29 -2 17 -17 -9 19 -10 -3 -12 -6 -8 -15 -11 27 -20 -14 -5
right_child=1 4 6 5 10 8 23 15 18 12 21 -13 28 24 -16 16 -18 -19 26 -21 -22 -23 -24 -25 -26 -27 -28 -29 -30 -31
leaf_value=-0.012865797491779305 -0.00084249223704334407 0.020379557056660433 0.0079772790624957901 -0.001772833067424936 0.011818732813344768 -0.0074716729278720946 0.014210713512890168 0.017014956731002642 -0.0014998164582462139 0.0043381275959365386 0.011099438027331923 0.002466153353925314 -0.0093405247010239518 -0.0073329021843260888 -0.017189343270102197 -0.0090875245854029531 0.0005831934872765625 0.0010142677106749355 -0.018244709290840086 0.012799550171708689 0.033602497995238803 0.0012720993484518577 0.020633317439491095 0.0082990938568472238 -0.00064131881516495972 -0.0040146739838342188 -0.0027405646691292507 -0.0055876573429803102 -0.0058136387200530409 0.0045399939523702816
leaf_weight=1368 234 1023 1951 562 1061 3252 1072 209 4020 345 566 4867 3295 558 362 539 1851 445 211 200 217 617 566 3056 5795 2562 2443 1559 3242 2352
leaf_count=1368 234 1023 1951 562 1061 3252 1072 209 4020 345 566 4867 3295 558 362 539 1851 445 211 200 217 617 566 3056 5795 2562 2443 1559 3242 2352
internal_value=1.97066e-06 0.00656553 0.00428536 -0.00384731 0.0147652 -0.00218427 0.00626523 -0.0016673 -0.00406039 -0.00706541 0.0111911 0.00406584 -0.00619971 0.000180173 -0.010676 0.000109378 -0.00160572 0.00638218 -0.00273169 -0.000808357 0.022552 0.00606947 0.0148248 0.00990092 -0.00124752 -0.00299476 -0.0046399 -0.00725939 -0.00761057 0.00330349
internal_weight=50400 18636 14586 31764 4050 20952 10946 3640 11685 10812 2810 6818 9444 9267 596 3044 2390 654 8433 4220 1240 1183 1627 4128 6353 2907 4213 1770 6537 2914
internal_count=50400 18636 14586 31764 4050 20952 10946 3640 11685 10812 2810 6818 9444 9267 596 3044 2390 654 8433 4220 1240 1183 1627 4128 6353 2907 4213 1770 6537 2914
cat_boundaries=0 3 19 20 23 26 38 39 40 41 44 45 59 62 63 65 81 97 100 103 106 122
cat_threshold=2634025120 144931737 884934 67109120 1052672 2147622914 8208 1040 16777472 1056768 4194304 2147485696 536903680 65552 16777218 139264 67108865 16385 8192 88 67108864 12424 262272 2215121073 402688426 2187784 197888 1088 0 135266308 8388608 0 5242886 286270480 8388608 101711872 1082140706 1048576 24 24 24 3257008678 1088622609 66032 24 2097668 8832 0 0 73734 16777216 536936448 1024 2097152 66080 196608 6569992 67118080 25165825 2147483648 2305 64 33 1075937345 67371008 67109120 67112960 8214 8720 16 16777216 8320 4194338 2147483648 1054720 536870936 0 8390656 0 536870913 384 4194304 2359296 4227076 4194306 537428992 536870912 0 1 1056 0 67141632 16384 1056768 6291458 24704 16416 2147483648 136314912 1310976 256 65536 294912 1228940024 541069320 2281988 134217728 2048 0 2686976 2424438816 2097152 2147745792 134742016 256 2147483648 8 134217872 603979786 4 2147484672 4160
is_linear=0
shrinkage=0.05


Tree=11
num_leaves=31
num_cat=21
split_feature=28 4 37 18 28 37 30 28 37 37 36 37 5 30 11 36 30 37 30 28 36 36 36 30 35 36 37 36 36 36
split_gain=462.351 145.72 60.2649 49.4336 43.6849 32.1206 28.2676 24.9026 23.7881 20.1615 16.6042 14.7475 13.8503 13.7381 13.598 11.4642 11.2687 11.8904 11.0567 11.0118 10.7544 10.4499 10.4126 9.98833 14.8001 9.13964 8.76021 8.45844 8.16383 7.69088
threshold=2.4193088263273244 4.1000621318817148 0 3.4000002145767216 1.7372100970574789 1 2 3.2980030030012135 3 4 5 6 1.7988872528076174 7 2.6999999284744267 8 9 10 11 4.028592688696726 12 13 14 15 20.185000419616703 16 17 18 19 20
decision_type=2 2 9 2 2 9 1 2 9 9 9 9 2 1 2 9 1 9 1 2 9 9 9 1 2 9 9 9 9 9
left_child=4 2 7 14 9 -5 11 13 12 15 -10 -6 -4 -2 16 -1 -3 -18 -12 -7 -9 -8 -20 26 -25 -15 -11 -26 -13 -23
right_child=1 3 8 5 6 19 21 20 10 23 18 28 -14 25 -16 -17 17 -19 22 -21 -22 29 -24 24 27 -27 -28 -29 -30 -31
leaf_value=-0.012923579098462569 0.0074547361106880265 0.0099236660073609012 0.00080576581817136655 0.02713227304158472 0.00088124858504308912 0.0098464293962508484 0.0016226766235023589 0.0012710547115039803 -0.0068958453951510059 0.0097191053807328624 0.0055104163703990376 -0.0086425471072053388 -0.013883428737995751 -0.0030486379303777253 0.01001275154723158 -0.0074317925634765601 -0.011264107459075084 0.003433173593538009 0.0048537707833403833 0.016856761960627801 0.010237302693504494 -0.010794890662069812 -0.0012645621759115842 -0.017933342164532014 -0.0089147415014275127 0.0032663365859461994 -0.0024253264416284558 -0.0025342301360524694 -0.00218441486753073 -0.0050109137288776966
leaf_weight=1271 1914 276 228 627 5070 992 533 410 663 219 1257 546 496 646 1373 5168 214 343 891 1448 2869 664 3031 210 696 4328 406 2244 4959 6408
leaf_count=1271 1914 276 228 627 5070 992 533 410 663 219 1257 546 496 646 1373 5168 214 343 891 1448 2869 664 3031 210 696 4328 406 2244 4959 6408
internal_value=1.77931e-06 0.00544258 0.00315457 0.0126937 -0.0042132 0.0168111 -0.00273859 0.00556347 -0.000575419 -0.00683299 0.000481631 -0.00105648 -0.00906331 0.00384907 0.0069467 -0.00854193 0.00183304 -0.00222443 0.00144718 0.0139699 0.00916653 -0.00506299 0.000121494 -0.00387192 -0.00502277 0.00243167 0.00183738 -0.00410067 -0.00284852 -0.00557552
internal_weight=50400 22006 16733 5273 28394 3067 18180 10167 6566 10214 5842 10575 724 6888 2206 6439 833 557 5179 2440 3279 7605 3922 3775 3150 4974 625 2940 5505 7072
internal_count=50400 22006 16733 5273 28394 3067 18180 10167 6566 10214 5842 10575 724 6888 2206 6439 833 557 5179 2440 3279 7605 3922 3775 3150 4974 625 2940 5505 7072
cat_boundaries=0 3 6 7 10 13 28 31 32 45 46 49 50 65 81 96 97 113 116 131 147 162
cat_threshold=1109452359 68419585 5376288 0 16779264 2048 120 67633152 28808 262272 1245719288 2688653912 2355720 0 139776 33554432 2048 73984 4194304 536871968 33555520 268435456 0 196736 4734976 67633408 562298880 536870912 1243761414 1088902161 1278448 24 197888 1088 16 135266304 1082130432 16384 5242884 286278656 0 1175454208 1073752098 1048576 67108864 9 2147483648 134219776 1310720 24 0 0 8388864 25165984 4194816 67239944 545521684 16384 32768 134217728 2147483680 268436484 1073741824 2097224 1073741824 0 8192 2048 0 33562624 138412033 172032 1024 4096 33554440 67109444 268443808 528400 536875072 24576 128 536872960 1 536870912 268460032 2097216 16640 8192 2281701632 0 4096 532500 258 129 16512 524548 8 0 536870912 8 1610612736 2290089984 201326592 268566528 9 552 528 4 160 17456 20 4194352 20 2149711872 0 1310720 2151940096 16777216 268435520 34078724 49672 4194880 1342242821 640 64 8 8650752 524288 8192 32 64 20971536 16 4 4194304 537396224 536870912 2097152 0 1056 4096 75530240 0 76554273 35686404 2147483648 8200 65 4096 536936640 12288 1088 0 64 150999040 2147483648 537133312 34603008 33554432 83886080 1107304992 262148
is_linear=0
shrinkage=0.05


Tree=12
num_leaves=31
num_cat=21
split_feature=28 18 28 37 4 30 30 4 37 28 37 37 37 36 36 30 31 37 30 37 36 37 36 30 36 11 15 37 5 37
split_gain=419.205 100.7 78.6847 50.6068 38.7822 31.3658 22.3602 21.6633 25.3026 20.2621 19.1073 15.7327 15.0327 13.8339 13.6662 12.8735 12.8251 14.2915 12.5582 17.811 11.3738 11.3493 11.2292 11.2091 9.95721 9.4112 9.39202 9.01077 8.96895 8.52026
threshold=2.7905409421239584 4.1391711235046396 2.1938730563436244 0 6.1000001430511483 1 2 7.3257336616516122 3 4.2633832863398968 4 5 6 7 8 9 10 11 12 13 14 15 16 17 18 2.4999998807907109 0.85865348577499401 19 2.3942770957946782 20
decision_type=2 2 2 9 2 1 1 2 9 2 9 9 9 9 9 1 1 9 1 9 9 9 9 1 9 2 2 9 2 9
left_child=2 3 5 9 12 10 21 8 28 13 25 -7 23 -2 -8 -15 18 -18 27 -20 -16 -4 -10 -3 -14 -1 -13 -12 -5 -28
right_child=1 4 6 7 -6 11 14 -9 22 -11 16 26 24 15 20 -17 17 -19 19 -21 -22 -23 -24 -25 -26 -27 29 -29 -30 -31
leaf_value=-0.011119797062296766 -0.0017077527335409336 0.017646759007693885 -0.0060931968715191367 -0.0024054491020400418 0.023306851363824516 -0.0035247125624688937 -0.0087553533577155174 0.015812945028243982 0.006034557115898443 0.013658675597296855 0.0063602233293883221 -0.014467941471245711 0.011451647648017172 0.0030129519269078602 0.0056823628257832992 0.0083347317402772767 0.0014786212161821747 -0.0028343073307376906 -0.022416096024874908 -0.0060495917480698873 -0.0011922133620880116 0.004246825456789143 -0.00087467604747253752 0.0093970668278436625 0.0026644831316749492 -0.002141530908143559 -0.011032537960396889 -0.0049781401139580624 -0.015511949809391952 -0.0065233140503565892
leaf_weight=1043 536 1074 276 220 835 2667 545 203 768 996 229 556 637 1742 644 3710 2553 7559 230 682 7331 3488 2375 884 722 426 1467 634 361 5007
leaf_count=1043 536 1074 276 220 835 2667 545 203 768 996 229 556 637 1742 644 3710 2553 7559 230 682 7331 3488 2375 884 722 426 1467 634 361 5007
internal_value=1.70988e-06 0.00698707 -0.0029745 0.00445837 0.0136202 -0.00469691 0.000253806 -7.87914e-05 -0.000958708 0.00700679 -0.00311054 -0.00686642 0.0111666 0.00590372 -0.00116002 0.00665212 -0.00243466 -0.00174181 -0.00636733 -0.0104297 -0.000624392 0.00346125 0.000811539 0.0140143 0.00687335 -0.00849239 -0.00812027 -0.0018738 -0.0104552 -0.00757994
internal_weight=50400 15063 35337 10911 4152 23053 12284 3927 3724 6984 13356 9697 3317 5988 8520 5452 11887 10112 1775 912 7975 3764 3143 1958 1359 1469 7030 863 581 6474
internal_count=50400 15063 35337 10911 4152 23053 12284 3927 3724 6984 13356 9697 3317 5988 8520 5452 11887 10112 1775 912 7975 3764 3143 1958 1359 1469 7030 863 581 6474
cat_boundaries=0 3 4 5 8 11 14 17 32 48 49 50 53 54 57 72 75 91 92 106 109 112
cat_threshold=3256976455 101974016 4328224 120 24 0 134226056 262274 1056936 536971528 10 817238276 243354944 1048866 1075938311 83888128 1181984 0 269484032 10485768 536871936 142606336 268435456 276856832 4608 538968064 2147483648 1073741824 7077888 335544336 262164 32 20971520 2099840 4194304 0 73728 0 16384 33555457 268435456 294912 268503040 4489216 75497728 33562624 0 4100 6 16 2753577222 2191541441 1311169 72 769 0 2392064 536879112 0 256 2148663296 1048576 135234 8388616 8720 1088 2148007936 8224 8480 128 0 1073408 84410368 167772168 262144 8 0 536875008 24576 2097156 25856 8464 256 2048 6144 33554432 1280 0 33636480 8193 258 56 1082132480 4196353 2097184 0 278528 8404992 4202512 4 2147746816 0 8208 16781314 1 20480 256 4608 365060 71844024 2151682088 16448
is_linear=0
shrinkage=0.05


Tree=13
num_leaves=31
num_cat=21
split_feature=28 11 28 37 30 28 28 37 30 36 36 37 37 9 30 36 36 36 36 1 30 36 29 28 30 30 36 36 36 36
split_gain=379.111 124.452 48.3075 45.1446 37.0059 28.2682 20.6683 18.62 18.1907 17.6404 16.0082 15.4298 15.2964 13.2883 12.8152 11.7792 11.2414 11.1121 10.0667 9.79113 9.2848 9.18859 8.77939 8.72221 8.53746 8.267 8.26201 8.06504 7.81045 6.43379
threshold=2.4193088263273244 3.7341390848159794 4.2633832863398968 0 1 1.5731076853615897 3.2980030030012135 2 3 4 5 6 7 0.5000097155570985 8 9 10 11 12 4.0461471080780038 13 14 1.774024890989365 3.2736964055470064 15 16 17 18 19 20
decision_type=2 2 2 9 1 2 2 9 1 9 9 9 9 2 1 9 9 9 9 2 1 9 2 2 1 1 9 9 9 9
left_child=4 3 14 6 12 16 18 19 11 -10 -4 -5 28 -11 23 -15 -6 -9 -2 22 -12 -14 26 -3 -8 -20 -7 -19 -1 -23
right_child=1 2 10 8 5 7 24 17 9 13 20 -13 21 15 -16 -17 -18 27 25 -21 -22 29 -24 -25 -26 -27 -28 -29 -30 -31
leaf_value=-0.0039716942184638846 -0.0031744598846095138 0.006737766856975554 0.025910511451544601 0.015443854000580709 -0.014524046751269129 -0.011299980428005334 0.013994261440735662 0.0045646322981872179 0.0046421752815686904 -0.013033974152091702 0.019297323881773586 0.0019327696795940386 -0.008014402898588362 -0.0085113919560320436 0.0027024826567062701 -0.0012339795474971928 -0.0073561986207776684 -0.0072542284603809813 0.00082557390092973567 0.0048508122242055841 0.010785830198990133 0.0034474009112839344 -0.016537694400967581 0.011929213193050289 0.0068630264053253578 0.0052003676308997283 -0.005265923653982393 -0.0022558663854462882 0.0033052349167000481 -0.0023370610104518951
leaf_weight=429 558 1729 446 244 693 661 563 526 836 323 660 1403 661 663 1023 3430 3731 926 1626 200 965 520 206 1647 2398 3492 5898 6946 2207 4790
leaf_count=429 558 1729 446 244 693 661 563 526 836 323 660 1403 661 663 1023 3430 3731 926 1626 200 965 520 206 1647 2398 3492 5898 6946 2207 4790
internal_value=1.42923e-06 0.00492826 0.0107572 0.00249756 -0.00381522 -0.00500556 0.00490391 -0.00398783 -0.000514113 -0.00195852 0.0170742 0.00404571 -0.00106584 -0.00322707 0.00777192 -0.00244883 -0.00853977 -0.00238286 0.00312883 -0.00590394 0.0143703 -0.00246922 -0.00623801 0.00925783 0.00830627 0.00382456 -0.0059069 -0.00285864 0.00209151 -0.00175578
internal_weight=50400 22006 6470 15536 28394 19787 8637 15363 6899 5252 2071 1647 8607 4416 4399 4093 4424 8398 5676 6965 1625 5971 6765 3376 2961 5118 6559 7872 2636 5310
internal_count=50400 22006 6470 15536 28394 19787 8637 15363 6899 5252 2071 1647 8607 4416 4399 4093 4424 8398 5676 6965 1625 5971 6765 3376 2961 5118 6559 7872 2636 5310
cat_boundaries=0 3 4 7 8 23 38 41 44 45 59 73 89 105 106 122 123 124 140 156 172 188
cat_threshold=3256936006 101974016 4327712 24 2216169721 2281741227 2974212 24 536872968 257 536875008 268451840 2097152 2147500304 1048576 2147483906 32 0 8208 1280 0 147468 8448 256 4096 131072 0 0 16777472 1048576 4194304 0 0 65536 0 0 67108864 1 0 2048 1048640 3257012230 2116865 1311728 120 1081348 1075847808 100696064 0 73728 20971520 536871936 33555456 270532612 65536 545456128 16392 0 16810048 132096 2112 16 135266305 8388616 0 1048576 269493296 0 101712384 1610621474 1048576 0 134217728 2097160 0 0 1049600 2097156 4259840 0 268435456 603983872 134223872 1074003989 73760 268435476 0 256 386 0 0 0 1073741824 178257920 67108864 131072 9 8 512 268435460 7094304 20514 545259524 4 20 24 0 1044 4 134217728 32800 536887296 7897092 419447296 65600 33554432 33554435 0 327680 0 0 48 24 6 1048576 0 4224 16777224 536873984 16777216 536871428 150995456 2147484800 0 10487824 16384 67117056 34816 4 16 402653185 1076101120 64 2691072 1342783552 0 1024 524288 16777218 0 33556480 33558529 8388608 32 4196352 4104 0 264 32768 532736 12 2099200 32 524416 8388608 0 144705600 134217856 612368384 33554432 268697600 16456 16783361 1048577 537919488 2048 65536 4194305 64 0 128 11534592 1085440 0 524544 33554432 2097156 9
is_linear=0
shrinkage=0.05


Tree=14
num_leaves=31
num_cat=21
split_feature=28 28 18 37 30 30 37 36 4 37 36 37 37 37 12 30 31 37 1 36 11 37 36 33 37 3 30 37 15 36
split_gain=343.813 90.1027 72.0714 44.0253 26.5775 26.5532 23.6261 19.0324 18.864 18.3795 18.0187 16.9822 14.7985 13.5713 13.0095 12.2993 11.6501 16.9935 10.5737 10.1657 9.04498 8.65084 8.63321 8.38644 8.28277 8.71673 8.58034 11.8129 8.26058 8.0884
threshold=3.0396297829491754 2.2256184731210986 4.5000045299530038 0 1 2 3 4 7.0001196861267099 5 6 7 8 9 4.3000335693359384 10 11 12 3.5135366916656499 13 1.9000000357627871 14 15 16 17 0.50000822544097911 18 19 0.85865348577499401 20
decision_type=2 2 2 9 1 1 9 9 2 9 9 9 9 9 2 1 1 9 2 9 2 9 9 1 9 2 1 9 2 9
left_child=1 4 3 8 11 13 14 -5 10 -7 -2 -1 28 -3 -4 -9 17 -13 20 -11 -14 -12 -8 -21 25 -18 -27 -28 -6 -30
right_child=2 5 6 7 12 9 22 15 -10 19 21 16 18 -15 -16 -17 24 -19 -20 23 -22 -23 -24 -25 -26 26 27 -29 29 -31
leaf_value=-0.0088729266631055875 0.0049301425529936901 0.0063233014237926016 0.013749789110193209 0.013177531525124742 -0.016096184707756124 -0.0044158804254173945 0.015325163317480413 0.0091130233546586753 0.013568102206048713 -0.0052890874085181902 -0.010735892449868363 0.0028032715611456889 -0.0066503825382413203 0.00077229983821250098 0.027590264995430516 0.0040183404182664974 -0.016329192793984558 -0.0024449257451611686 0.0059248044834830467 -0.00041832854442185236 -0.0026262206456651198 -0.0023948514012336938 0.0085026988716036221 0.0030109122794878445 -0.0021130496795895622 -0.00011624031492162323 -0.017716594115330078 -0.0053098922828772079 -0.0010182289728975342 -0.008693526283032672
leaf_weight=1041 642 2604 297 1174 346 2427 914 2011 213 668 456 2117 3416 1962 466 3170 201 5564 227 3958 2451 1065 1311 3213 2677 612 228 1381 418 3170
leaf_count=1041 642 2604 297 1174 346 2427 914 2011 213 668 456 2117 3416 1962 466 3170 201 5564 227 3958 2451 1065 1311 3213 2677 612 228 1381 418 3170
internal_value=1.89067e-06 -0.00227018 0.00750561 0.00520273 -0.00417359 0.000787008 0.014218 0.0073681 -0.000596367 -0.000620785 -0.00201708 -0.00273847 -0.00613769 0.00395588 0.0219803 0.00601921 -0.00222833 -0.000991467 -0.00455597 0.000551958 -0.00497777 -0.00498197 0.0113837 0.00110964 -0.00408606 -0.00621179 -0.00530163 -0.00719741 -0.00855743 -0.00784036
internal_weight=50400 38681 11719 8731 23849 14832 2988 6355 2376 10266 2163 13821 10028 4566 763 5181 12780 7681 6094 7839 5867 1521 2225 7171 5099 2422 2221 1609 3934 3588
internal_count=50400 38681 11719 8731 23849 14832 2988 6355 2376 10266 2163 13821 10028 4566 763 5181 12780 7681 6094 7839 5867 1521 2225 7171 5099 2422 2221 1609 3934 3588
cat_boundaries=0 3 4 5 8 24 27 43 46 49 52 53 54 57 73 76 92 93 96 97 100 116
cat_threshold=805464192 144784269 1839185 120 24 2 16779264 1050624 1073742080 67112968 2147614726 8720 16 0 1056896 71303174 0 1081344 537395208 2 133249 0 1048576 128 2382889104 136338777 2425474 24 129 134221824 32 4 1296 272 8194 32 1073756160 33554432 1280 0 16512 8193 258 1048704 65800 8 239616249 2953351864 2311232 3223454294 1073744133 656244 56 32 3827302692 2187610272 1312065 512 524288 1048576 6160 150994946 0 134348804 9 805306888 2392068 805371904 0 258 536870912 64 4100 0 8584 1310720 67125504 72355840 262150 528 0 16777216 4202496 258 2147483648 541104128 16 2 8781824 0 0 8192 1 1275593568 234915888 2381319 8 32 33556480 262144 0 10240 1083179008 64 256 1064961 16448 1073893376 65536 2048 50339840 0 65560 0 301989920 33
is_linear=0
shrinkage=0.05


Tree=15
num_leaves=31
num_cat=23
split_feature=28 18 28 4 37 30 30 4 36 36 36 36 30 36 37 37 36 36 36 36 30 37 36 31 34 37 37 16 36 36
split_gain=311.478 77.6101 59.5003 37.5753 31.7947 24.2526 20.981 18.5413 17.3445 15.8288 14.676 13.5868 13.2867 13.0227 12.4219 12.0371 11.3417 11.1596 11.0225 9.87547 9.84391 9.44535 8.8586 8.56836 7.91602 7.70661 7.53225 7.20533 6.57541 6.35023
threshold=2.7905409421239584 3.5432614088058476 2.0059818284852171 5.50000023841858 0 1 2 7.2001214027404794 3 4 5 6 7 8 9 10 11 12 13 14 15 16 17 18 0.75049999356269848 19 20 2.3000000715255742 21 22
decision_type=2 2 2 2 9 1 1 2 9 9 9 9 1 9 9 9 9 9 9 9 1 9 9 1 2 9 9 2 9 9
left_child=2 4 6 10 13 21 16 8 -6 -7 -3 -8 26 -2 19 -14 -1 -13 -5 -11 -15 27 -10 25 -19 -18 -12 -4 -22 -21
right_child=1 3 5 18 7 9 11 -9 22 14 12 17 15 20 -16 -17 23 24 -20 29 28 -23 -24 -25 -26 -27 -28 -29 -30 -31
leaf_value=-0.0080858403434793582 0.010807821966063025 0.013712810079210139 -0.016540133711624876 0.026558212798092864 -0.010123974066576509 -0.0073584343145752162 -0.010726156092499804 0.013394315281433439 0.0044851020063940419 0.0091326882969797463 0.012370604585628433 0.0016056918198622241 -0.0045612836340912111 0.0011394123192128532 -0.00055934865294258605 0.0057407304429150166 -0.0025516119851199939 -0.0018918750130435898 0.014640734393498065 -0.0025695076078637944 -5.9430515360162096e-05 -0.002534916952460076 -0.0024247918511792511 -0.003956457889515836 -0.0060622781387951914 0.0025161982990057688 0.0037306263838682028 -0.0053850453228875619 0.0065198465881637011 0.002627026249126271
leaf_weight=663 877 1034 221 333 554 574 1256 201 666 532 1174 568 327 1833 5921 1750 1253 1340 941 652 425 4215 1463 1718 9203 1828 382 486 3103 4907
leaf_count=663 877 1034 221 333 554 574 1256 201 666 532 1174 568 327 1833 5921 1750 1253 1340 941 652 425 4215 1463 1718 9203 1828 382 486 3103 4907
internal_value=1.5565e-06 0.00602298 -0.00256376 0.0104738 0.00311877 -0.000490139 -0.00459725 -0.00121197 -0.00232937 0.000670941 0.00837624 -0.00573867 0.00678719 0.00512274 0.00106459 0.00408075 -0.00198956 -0.00516124 0.0181184 0.00264973 0.00416503 -0.00346361 -0.000228981 -0.00112188 -0.00553172 0.000438847 0.0103188 -0.00881799 0.00571521 0.00200504
internal_weight=50400 15063 35337 5941 9122 17508 17829 2884 2683 12586 4667 12367 3633 6238 12012 2077 5462 11111 1274 6091 5361 4922 2129 4799 10543 3081 1556 707 3528 5559
internal_count=50400 15063 35337 5941 9122 17508 17829 2884 2683 12586 4667 12367 3633 6238 12012 2077 5462 11111 1274 6091 5361 4922 2129 4799 10543 3081 1556 707 3528 5559
cat_boundaries=0 3 4 5 20 35 51 65 66 82 85 88 104 120 135 150 151 154 170 171 174 177 193 209
cat_threshold=3257066310 1179975684 4361009 6 24 5242884 1093664776 67141665 256 73728 16777216 0 32800 1024 1073741824 8585216 0 2147525120 16777280 16388 64 2228352 0 134217730 558084 0 524353 64 256 8388864 196608 134217728 110624768 10240 2415919104 67109120 67112960 2147491846 33563152 0 16777216 1074798720 4194338 2147483648 537958400 24 2 8388609 0 0 8192 1049856 64 0 152043525 545259520 0 1048580 286270480 1082131456 34607104 9437826 0 2097152 2048 24 32 67115016 2147483654 8720 16 262144 8320 1077968900 0 5279744 34086928 0 2049 0 536870912 128 4079092262 1074210821 229747 2147614849 167774216 2097664 0 1360 0 12288 8388608 536887296 136314886 419447296 134283328 2717908992 2 0 8454144 0 33554432 16480 8 131072 1073743872 336 40964 32784 139264 32768 0 0 268439552 402661392 1179657 805306432 2113536 129 0 0 131072 0 0 16777472 1048576 4194304 0 0 65536 0 131072 67108864 524289 0 0 256 32 256 67240962 260 134217728 2098177 262656 33554976 1284 134217728 50331680 2113536 6 2147483793 67592 327680 536872968 128 536875008 268435456 2097156 9472 272 0 2080 536877056 16 1024 1152 16392 524289 258 32 17705105 872452632 745472 2130258 67110912 3146016 8192 0 8388864 0 134217728 8 8650752 0 1610645504 2148007936 2147484164 275005444 67108864 262260 32 64 32768 0 0 65536 134357008 274726912 134479872 1074003977 4 0 536871168 4227216 536870922 36864 0 4096
is_linear=0
shrinkage=0.05


Tree=16
num_leaves=31
num_cat=18
split_feature=28 11 37 28 28 30 28 4 35 37 36 36 37 37 37 30 36 36 1 36 36 34 30 12 6 30 35 36 36 31
split_gain=283.508 96.015 36.3988 33.8186 30.0082 22.9173 22.4855 20.9502 14.2515 23.5307 13.9155 13.8228 12.9722 12.4708 10.6935 10.6403 9.92591 9.29884 9.07089 8.30936 8.02692 7.9248 7.80115 7.86076 7.73596 7.62066 7.43748 7.13183 7.08095 6.47027
threshold=2.4193088263273244 3.8999999761581425 0 4.6190435886383066 1.5571251139044764 1 3.2980030030012135 0.30000504851341253 21.164999961853031 2 3 4 5 6 7 8 9 10 3.7000001668930058 11 12 0.58550000190734874 13 3.0998516082763676 3.8831276893615727 14 20.185000419616703 15 16 17
decision_type=2 2 9 2 2 1 2 2 2 9 9 9 9 9 9 1 9 9 2 9 9 2 1 2 2 1 2 9 9 1
left_child=4 2 6 13 11 12 16 -4 9 -9 -10 -1 24 25 18 -8 -2 -5 26 -14 -12 -18 23 29 28 -3 -7 -17 -6 -13
right_child=1 3 7 17 5 14 15 8 10 -11 20 22 19 -15 -16 27 21 -19 -20 -21 -22 -23 -24 -25 -26 -27 -28 -29 -30 -31
leaf_value=-0.011664515612517272 -0.0034839584680065902 0.010094442272921887 -0.01705305527689369 0.026174450520337525 -0.0072084724026859953 -0.012000301784413895 0.012665401852708522 0.016304729013574243 0.0035649762092503667 -0.00011204698456156181 0.00051607003772347743 -0.0099861230157106563 -0.0048190383223973765 0.001797631134648414 -0.0055687863542086494 0.010198862112515436 0.0066567334096646544 0.014044590708405639 0.0080650849687887022 0.0009384949629123061 -0.0053320817327151141 0.0020937348926341223 -0.0070813547165183566 0.00577023901966297 -0.011709437360456569 0.0042430780058744927 -0.0019980190203513428 0.0041994255997410039 -0.0017557190001320421 -0.0025905377710094147
leaf_weight=1064 662 2697 202 232 680 202 713 292 837 775 798 374 684 830 6152 685 1161 1290 208 6341 2096 5727 2736 225 237 806 2826 2203 5067 1598
leaf_count=1064 662 2697 202 232 680 202 713 292 837 775 798 374 684 830 6152 685 1161 1290 208 6341 2096 5727 2736 225 237 806 2826 2203 5067 1598
internal_value=2.0147e-06 0.00426272 0.00227015 0.00975067 -0.00329837 -0.00245366 0.00385868 -0.00126776 -0.000595409 0.00448554 -0.00206187 -0.00644477 -0.00108663 0.00747704 -0.00433686 0.00711986 0.00230173 0.0161907 -0.00196948 0.000364743 -0.00370605 0.00286594 -0.00527445 -0.00297969 -0.00279659 0.00877825 -0.00268179 0.00566996 -0.0024252 -0.0040185
internal_weight=50400 22006 16151 5855 28394 22397 11151 5000 4798 1067 3731 5997 13009 4333 9388 3601 7550 1522 3236 7025 2894 6888 4933 2197 5984 3503 3028 2888 5747 1972
internal_count=50400 22006 16151 5855 28394 22397 11151 5000 4798 1067 3731 5997 13009 4333 9388 3601 7550 1522 3236 7025 2894 6888 4933 2197 5984 3503 3028 2888 5747 1972
cat_boundaries=0 3 4 7 22 36 39 42 45 46 62 77 93 108 109 110 126 142 143
cat_threshold=3273779014 101974017 8001889 120 0 2048 262144 536871424 256 0 268566528 0 4096 1058816 2281709826 1049600 536871426 1073754132 8388864 8192 8 16384 132352 3136 16 135266304 1082130440 64 5242884 286261248 65 101712384 1073750050 0 65536 134217728 9982185 2617281322 2912782 1075872855 68487168 5376864 866521606 1183010112 1311163 24 32768 0 0 1073741888 167772192 469762052 131332 9 8 2304 268435456 4718624 16674 545259520 32 20 0 0 131072 0 0 0 1048576 0 0 0 65536 0 0 67108864 1 402653184 2162688 32768 2166786 268443648 0 68190208 540672 1024 0 8454144 0 125829120 4196352 268443680 4098 4194304 1 16 64 8388610 32784 0 1359106048 16420 266248 1 2 557568 34635904 1281 56 120 33554432 68161536 134225922 512 16 134242304 8320 1207959584 0 5289984 536870920 2 133248 0 536887296 128 4194304 1073877008 0 16777216 536903696 536887296 513 150994976 1056 4096 111151104 0 1048576 32788 0 88 16
is_linear=0
shrinkage=0.05


Tree=17
num_leaves=31
num_cat=21
split_feature=28 18 28 37 34 11 36 36 4 37 5 30 37 36 36 36 36 37 30 37 36 30 30 36 35 8 37 36 30 36
split_gain=256.175 89.3886 41.2627 30.204 28.3671 22.3889 15.487 15.347 15.3359 20.5572 18.4462 14.4763 14.0842 13.1267 12.2547 12.2252 11.5479 11.3826 10.8996 10.7645 10.1261 9.45612 8.48126 7.93425 7.93169 7.72458 7.38459 7.24305 7.154 6.95459
threshold=2.4193088263273244 3.50000011920929 4.028592688696726 0 0.77150002121925365 2.1878082752227788 1 2 7.0001196861267099 3 1.7988872528076174 4 5 6 7 8 9 10 11 12 13 14 15 16 25.314999580383304 2.0989706516265874 17 18 19 20
decision_type=2 2 2 9 2 2 9 9 2 9 2 1 9 9 9 9 9 9 1 9 9 1 1 9 2 2 9 9 1 9
left_child=4 3 11 6 7 12 -2 -1 9 10 -5 17 24 -4 -7 -11 -8 -3 -15 -13 -14 -18 -22 -16 -6 -12 -19 -24 -9 -17
right_child=1 2 13 8 5 14 16 28 -10 15 25 19 20 18 23 29 21 26 -20 -21 22 -23 27 -25 -26 -27 -28 -29 -30 -31
leaf_value=-0.0053327118939847477 -0.0036581421999974887 0.016061954051794818 0.020879058062051287 0.001959562252948026 -0.0073561269116990419 -0.0082621377333328676 0.0097146011944748631 -0.0017597310460116767 0.011918273736160693 -0.0067099231988504192 -0.022286629383883025 -0.0082903250509861019 0.0015539443251425058 0.016362217839320587 0.0043794559425721791 0.0045490614204591875 0.0054371726373927277 -0.0021763458728113155 0.00825399605251316 0.0036403018591056931 -0.0021817720144952091 0.0016995940102685983 -0.0097758292031688027 -0.0017554361452006611 -0.015259436323099635 -0.0083258468960239803 0.0075013907751646852 -0.0049873073018440002 0.0024409267968640183 -0.00031916816410022591
leaf_weight=1105 639 392 557 214 2165 685 904 1428 227 641 227 203 662 779 556 892 3603 208 1170 1606 2550 3337 938 7137 391 203 2347 7411 3366 3857
leaf_count=1105 639 392 557 214 2165 685 904 1428 227 641 227 203 662 779 556 892 3603 208 1170 1606 2550 3337 938 7137 391 203 2347 7411 3366 3857
internal_value=2.48655e-06 0.00405265 0.00859516 0.00181189 -0.00313472 -0.00394405 0.00375463 -3.99895e-05 -0.000817022 -0.00130577 -0.00967869 0.00584107 -0.00516128 0.013802 -0.00188703 -0.000277617 0.00436875 0.00800245 0.0115873 0.00223578 -0.00439628 0.00365224 -0.00476337 -0.00130045 -0.00855123 -0.0158121 0.00668863 -0.00554232 0.0011782 0.000592358
internal_weight=50400 22006 7262 14744 28394 22495 8483 5899 6261 6034 644 4756 14117 2506 8378 5390 7844 2947 1949 1809 11561 6940 10899 7693 2556 430 2555 8349 4794 4749
internal_count=50400 22006 7262 14744 28394 22495 8483 5899 6261 6034 644 4756 14117 2506 8378 5390 7844 2947 1949 1809 11561 6940 10899 7693 2556 430 2555 8349 4794 4749
cat_boundaries=0 3 19 35 38 39 42 57 73 88 104 107 108 110 126 127 128 144 147 163 164 180
cat_threshold=3273843270 1175715840 4327712 0 0 268435456 1073742848 142606400 268435456 276955136 9 4 0 2415919104 4980768 67125288 537133060 268435456 20 4194304 1093664768 32768 2171136 268500992 0 1073741824 1074298888 8388864 1073743872 8390657 134221828 545259520 0 1024 4096 524288 16520 262274 56 131256 2147487880 131136 256 4096 139264 16 0 16777472 1048576 4194304 0 0 65536 2 0 67108864 1 65536 1028 524293 134221824 538968080 537935872 2 285212672 64 0 41943040 67108864 33554432 4202496 33554432 80 4 402048 37748736 2048 74624 16777216 1056 33555520 301989888 0 196608 16392 0 16777216 542113936 16416 67110920 2147483652 528 16 262144 8320 1212153860 8192 4198400 34086912 131072 2177 0 536871040 1152 1073741824 2048 1050624 24 2147614720 33556489 512 1048580 1082660864 64 8388628 0 12288 0 67108868 33560576 1 8912896 655376 805307456 0 129 120 24 2131984 1179649 0 536873984 0 1 536879376 8 67108864 0 528384 4 132224 0 137363713 2 133120 138481672 262144 4194304 1073741824 128 54525964 0 0 1073742404 134227456 2415924224 8704 2097664 33554432 335552512 134217744 0 16 6 541065224 0 536875008 155648 2097152 2147500288 1048832 2147483648 32 4096 9216 5120 134217856 136 532481 258
is_linear=0
shrinkage=0.05


Tree=18
num_leaves=31
num_cat=24
split_feature=28 28 30 37 36 37 30 30 37 37 37 36 0 37 37 36 31 30 37 37 37 36 36 5 15 37 36 31 36 16
split_gain=233.978 60.8813 55.2543 51.1844 28.3114 23.9415 19.9871 19.4772 13.6831 13.0683 12.7991 12.4689 12.4012 11.5427 10.8407 9.89676 9.73523 12.1604 14.9258 10.3414 7.89091 7.56387 7.53603 8.65765 7.43157 8.66398 7.34401 7.15647 6.94563 6.72705
threshold=3.0396297829491754 2.1938730563436244 0 1 2 3 4 5 6 7 8 9 4.4441726207733163 10 11 12 13 14 15 16 17 18 19 2.7000001668930058 1.000000059604645 20 21 22 23 2.3999999761581425
decision_type=2 2 1 9 9 9 1 1 9 9 9 9 2 9 9 9 1 1 9 9 9 9 9 2 2 9 9 1 9 2
left_child=1 7 5 22 -5 -2 10 9 26 -1 -3 -6 13 -7 -9 -10 17 20 -19 29 -11 -12 -4 -24 25 -16 -8 -28 -17 -18
right_child=2 6 3 4 11 12 8 14 15 16 21 -13 -14 -15 24 28 19 18 -20 -21 -22 -23 23 -25 -26 -27 27 -29 -30 -31
leaf_value=-0.0073433540217945487 0.020295290489101159 -0.0044629722249043989 -5.5398229088113761e-05 0.012362088427620167 -0.0030703350986475489 -0.0033610016376500159 0.00050736124003774219 -0.0024433414515999067 0.0058502689402135898 0.006901101889449199 0.0096693745049190889 0.0048741375657206472 0.016215263111363436 0.0088322656038992264 -0.017478490695061723 -0.0055804737704441337 0 -0.02011160163726345 -0.0051899773117452313 -0.0020626395696177599 -0.0036789293357859056 0.0032576664195121917 -0.002685407648971671 -0.012934093739339748 -0.0056937754295208034 -0.0057612934869816961 0.00087509904180847189 -0.0073259964531447496 0.00017185314169323613 0.0057010145532485406
leaf_weight=1151 634 475 542 1288 538 206 634 2667 719 229 537 4873 554 2230 309 555 1794 230 696 7885 652 3780 432 422 6301 420 316 1388 7224 719
leaf_count=1151 634 475 542 1288 538 206 634 2667 719 229 537 4873 554 2230 309 555 1794 230 696 7885 652 3780 432 422 6301 420 316 1388 7224 719
internal_value=2.73191e-06 -0.00187144 0.00619308 0.00386983 0.00568846 0.0113268 0.000535002 -0.00350497 -0.000650945 -0.00225421 0.00322182 0.00407081 0.00934718 0.00780308 -0.00521482 0.000276806 -0.00176456 -0.00516159 -0.0091249 -0.0011711 -0.000826137 0.00408729 -0.00480005 -0.00771792 -0.00625419 -0.0111152 -0.00403118 -0.0057421 -0.00023877 0.00160817
internal_weight=50400 38681 11719 8095 6699 3624 15628 23053 10836 13356 4792 5411 2990 2436 9697 8498 12205 1807 926 10398 881 4317 1396 854 7030 729 2338 1704 7779 2513
internal_count=50400 38681 11719 8095 6699 3624 15628 23053 10836 13356 4792 5411 2990 2436 9697 8498 12205 1807 926 10398 881 4317 1396 854 7030 729 2338 1704 7779 2513
cat_boundaries=0 1 4 20 23 24 25 28 31 34 49 52 55 70 71 72 75 78 81 97 112 115 131 132 148
cat_threshold=24 16512 148912521 262208 16640 68161536 139270 16 16 16777216 1048704 1145044994 0 1087488 65544 2 8388737 67108864 1 8192 2147483650 16779264 2048 24 120 2248675472 1075862873 2425472 1048736 536936712 10 487063552 172036104 262144 0 0 256 2285895680 8389120 67108872 8650752 268451840 2129920 128 3221487648 2418017284 0 264260 4194336 133248 134283264 266240 817238276 243354944 1048866 536870920 0 4372 75497472 0 12726336 1073741824 2415919104 20972544 2147483649 8224 0 134217728 72 536879360 16 72 769 0 2392064 2753577222 2191541441 1311041 256 4608 365060 262144 1049089 4114 536870976 8448 0 537135108 0 2129920 0 16 1284 129 0 1210208273 1 536870932 2147746432 33574912 32 1284 1280 0 0 32 2147483648 4194304 1024 134250496 1064960 540673 16777344 512 2424832 33554432 1310721 134234112 96 8390656 16 65536 0 2048 2147487744 1082662913 2147484672 1 16842752 5 32 16 16777728 0 1048576 71680 134217728 0 134348801 73 268435976 294912 805373952 32784 258 536870912 0 4100
is_linear=0
shrinkage=0.05


Tree=19
num_leaves=31
num_cat=21
split_feature=28 28 30 37 36 30 37 30 34 37 37 37 37 36 0 36 36 36 37 36 36 36 36 28 34 36 15 35 37 5
split_gain=211.5 63.8334 47.6318 46.663 21.7335 21.3994 18.8407 17.6431 16.2269 16.2147 14.02 11.4519 10.4384 9.41361 9.35428 9.11319 8.8886 8.46576 8.28925 7.66402 7.22997 7.18538 6.27917 6.20987 6.19815 6.27409 6.15621 7.11873 12.6165 6.10685
threshold=3.1743405376161853 2.3301806705338621 0 1 2 3 4 5 0.75049999356269848 6 7 8 9 10 4.4441726207733163 11 12 13 14 15 16 17 18 6.0429510899952481 0.56949999928474437 19 0.79927292466163646 23.164999961853031 20 2.7622847557067876
decision_type=2 2 1 9 9 1 9 1 2 9 9 9 9 9 2 9 9 9 9 9 9 9 9 2 2 9 2 2 9 2
left_child=1 5 6 19 23 12 -2 11 15 -10 -9 -3 -1 -11 18 -7 -6 -12 -8 -4 -14 -15 -13 -5 -19 -26 27 28 -23 -21
right_child=2 7 3 4 16 8 14 10 9 13 17 22 20 21 -16 -17 -18 24 -20 29 -22 26 -24 -25 25 -27 -28 -29 -30 -31
leaf_value=0.0016671051357796127 0.019897980606593133 -0.0028898160596166332 -0.00013347900444353857 0.0098355843658305825 -0.0022439486933036562 -0.0050935749413866978 -0.001321447409085954 -0.0047321673923332412 -0.007595278177173502 0.0019923159782142172 0.0059551987512813792 0.0099554060560651022 -0.0070973992927398019 -0.0081839521425319025 0.01561647747120171 0.00081799165213901305 0.0050973310339587352 0.0044720387034716882 0.0090931560451624881 -0.0033188848266047033 -0.0014603356185287116 -0.020796940550994972 0.0039152551346124075 0.018327435584324595 -0.0055171066795180086 0.00017441209847905123 -0.0032921602476866777 -0.001503441447840325 -0.0041911527717764753 -0.013067056896465139
leaf_weight=2637 581 544 538 938 447 884 209 1368 3690 660 696 522 649 1004 535 2372 4102 770 1811 332 4728 206 3184 308 514 6236 8995 292 302 346
leaf_count=2637 581 544 538 938 447 884 209 1368 3690 660 696 522 649 1004 535 2372 4102 770 1811 332 4728 206 3184 308 514 6236 8995 292 302 346
internal_value=2.22787e-06 -0.001623 0.00645441 0.00413177 0.00600437 -0.00306433 0.011581 0.00112592 -0.00400343 -0.00469457 -5.98992e-05 0.00380297 -0.000895243 -0.00374622 0.00960002 -0.000784767 0.00436165 0.000716783 0.00802933 -0.00472775 -0.00216192 -0.00410309 0.00480398 0.0118795 0.000218046 -0.000259494 -0.00367178 -0.00792348 -0.0115153 -0.00824574
internal_weight=50400 40253 10147 7011 5795 26419 3136 13834 18405 15149 9584 4250 8014 11459 2555 3256 4549 8216 2020 1216 5377 10799 3706 1246 7520 6750 9795 800 508 678
internal_count=50400 40253 10147 7011 5795 26419 3136 13834 18405 15149 9584 4250 8014 11459 2555 3256 4549 8216 2020 1216 5377 10799 3706 1246 7520 6750 9795 800 508 678
cat_boundaries=0 1 4 20 21 24 25 28 31 34 37 53 69 83 98 101 116 132 146 162 178 181
cat_threshold=24 16384 144718217 262208 16640 68161536 139270 8208 16 16777216 1048704 71303170 2147483648 1050624 65544 2 8388737 67108864 1 8192 24 2147483650 16779264 2048 24 39846072 2684391464 425984 2215116800 71327049 2424832 1023410177 167858200 327811 3793883686 6310177 1311714 2560 1056768 1073741826 134217792 2147491846 0 1056768 268435464 67108864 33556512 1 4194304 131072 813695040 2097152 2 0 3145728 0 2101248 268501000 512 1073741824 790656 8388928 1090521088 2305 134250500 545259778 0 1024 4 0 0 10486016 2285895808 0 2214592520 8650756 16384 2129920 0 2147745792 2419065856 0 264256 536870944 0 529680 0 16 8392720 1073741824 2550136832 20972544 2147483712 270368 131584 1073741824 64 8192 134144 1241579521 266240 541098004 270976 33574912 32 1284 1280 0 0 2099232 2147483648 0 1032 33280 1064960 537411584 0 1028 4 135266368 32800 536887296 7340036 419450880 65632 33554432 1107304451 0 65536 0 0 32 134217728 0 33558720 50855948 536870913 268959744 1073742400 512 3221225472 8448 10486272 36175872 8192 48 8196 1049088 8392706 536870976 8452 8192 537135104 0 2097152 512 262160 1288 128 0 136335377 1 16809984 0 32 0 134218242 134218752 268435456 33554441 520 0 2147549186 2048 306 536870928 1074004016 64 0 134217728 2162816
is_linear=0
shrinkage=0.05


Tree=20
num_leaves=31
num_cat=18
split_feature=28 28 30 37 36 28 30 11 36 37 36 36 36 36 37 37 0 36 37 5 36 5 36 1 34 28 1 36 36 4
split_gain=191.057 50.0659 45.1971 41.9825 23.7118 20.8436 18.8311 16.1977 12.7109 12.5623 11.0093 10.4397 10.3837 10.0667 8.94563 7.82155 10.1824 7.57193 7.26629 6.90491 6.87185 6.66711 6.4648 6.32296 6.15111 6.1175 5.94406 5.90536 5.76892 5.52554
threshold=3.0396297829491754 2.1660601837294444 0 1 2 4.3285715409687597 3 1.5999999642372134 4 5 6 7 8 9 10 11 1.7999915480613711 12 13 3.8836258649826054 14 2.6174323558807377 15 3.2999998331069951 0.56749999523162853 5.7335147687367032 3.555366158485413 16 17 7.9006333351135263
decision_type=2 2 1 9 9 2 1 2 9 9 9 9 9 9 9 9 2 9 9 2 9 2 9 2 2 2 2 9 9 2
left_child=1 7 5 20 25 14 15 13 -8 22 -10 -6 -11 -1 -2 -3 -17 -14 19 26 -4 -22 -9 28 -20 -5 -12 -13 -15 -7
right_child=2 6 3 4 11 29 8 9 10 12 18 27 17 23 -16 16 -18 -19 24 -21 21 -23 -24 -25 -26 -27 -28 -29 -30 -31
leaf_value=-0.010263733114441074 0.015654817310843987 -0.00026410765303071557 0.00023572684746237796 0.0088735774670758577 -0.0029630021492693687 0.014346045487392454 -0.0052329509378618959 -0.0082775461375380246 0.0075237762042872905 0.0048626661541912595 -0.0015482799776817529 0.0073092703240403125 -0.0055407841732990522 0.00087396112819887917 0.0067566085288950431 -0.011281307266063897 -0.0027377242313606559 -0.0010556018610583437 0.0068611576238805233 -0.0097601144857886093 -0.0023375420520746308 -0.011039163586099634 -0.0034124293117305006 0.0041195468616434467 0.0016352086490966462 0.016473853902098944 0.0075550392805978292 0.0032223208449606404 -0.0050665515886996653 0.02374492552008034
leaf_weight=851 345 2336 549 1028 531 699 658 855 791 653 1321 1273 1075 426 2346 442 1799 7729 614 222 448 469 4153 204 8038 392 207 3405 6307 234
leaf_count=851 345 2336 549 1028 531 699 658 855 791 653 1321 1273 1075 426 2346 442 1799 7729 614 222 448 469 4153 204 8038 392 207 3405 6307 234
internal_value=1.79216e-06 -0.00169168 0.00559572 0.00349365 0.00519036 0.0102395 0.000399212 -0.0032375 0.00145345 -0.00224149 0.0018553 0.00359821 -0.0011574 -0.00508103 0.00799927 -0.00231766 -0.00442537 -0.0016146 0.00141264 -0.00150462 -0.00412792 -0.0067687 -0.00426784 -0.00441687 0.00200953 0.0109299 -0.00028232 0.00435837 -0.00468949 0.0167569
internal_weight=50400 38681 11719 8095 6629 3624 16428 22253 11851 14465 11193 5209 9457 7788 2691 4577 2241 8804 10402 1750 1466 917 5008 6937 8652 1420 1528 4678 6733 933
internal_count=50400 38681 11719 8095 6629 3624 16428 22253 11851 14465 11193 5209 9457 7788 2691 4577 2241 8804 10402 1750 1466 917 5008 6937 8652 1420 1528 4678 6733 933
cat_boundaries=0 1 4 20 21 37 40 56 71 86 100 103 106 121 124 139 155 171 187
cat_threshold=24 16512 148913033 262224 16640 68161536 139270 16 16 16793600 1056896 1145044994 0 536909824 65544 2 129 67108864 1 8192 6 16777280 136 1048576 134217730 1073876996 272629760 32 1049665 0 1056768 134283264 4194320 76546056 8192 2415919104 4096 1482187000 2185794074 2188303 545259520 0 258 2164261024 0 8523776 1073741824 2147487744 16778240 65536 4194336 1284 134217728 16793608 3166208 1 0 0 256 2285895680 8389120 8 8650756 268451840 2129920 128 1074004000 2418017284 0 264260 4194336 33554944 1056768 0 0 2097156 8192 139264 134217728 67109888 8421376 3489660932 272637952 135704 35651584 537919489 1049600 8256 144 51380224 8388616 0 1048580 402653200 276825088 100663808 545261570 0 0 33554436 1073774592 6144 2048 1897922630 1120031509 1704039 64 17039384 67108928 528388 1342194752 0 268468260 528904 16777232 0 8388608 67633152 8396800 2048 8192 210505728 1321227353 3407874 536870932 2147746305 33558528 32 1280 1280 0 8192 2080 2147483648 4194304 1024 134250496 1064960 540673 33620224 4 0 134217736 16 537935874 0 285213776 1073742912 2147487744 1107304498 1048576 0 2097168 0 64 1140850688 2056 2147483648 8704 2097152 262160 4194304 134218016 2147491840 5251072 536870928 0 8783872 4096 536870912 1408 536936448 16908288 1073741856 16 4 16400 32768 131137 553656578 0 0 67108864 33587224 4194304 262160 32
is_linear=0
shrinkage=0.05


Tree=21
num_leaves=31
num_cat=25
split_feature=28 28 30 37 30 36 37 30 28 36 37 37 31 37 36 3 37 36 36 36 35 36 36 36 36 36 36 30 37 37
split_gain=173.236 52.4414 38.9937 38.5363 18.8886 17.715 16.3041 15.1378 14.455 12.7189 10.8793 10.0049 9.83871 11.1752 9.21653 9.07965 8.69405 8.54998 8.00704 7.75706 7.05406 7.0282 7.02802 6.45631 6.32516 5.93514 5.64942 5.61157 8.736 6.14387
threshold=3.1743405376161853 2.3301806705338621 0 1 2 3 4 5 1.4714285688740869 6 7 8 9 10 11 0.6000085473060609 12 13 14 15 20.724999427795414 16 17 18 19 20 21 22 23 24
decision_type=2 2 1 9 1 9 9 1 2 9 9 9 1 9 9 2 9 9 9 9 2 9 9 9 9 9 9 1 9 9
left_child=1 4 6 24 12 -5 -2 11 18 -9 21 -3 13 -1 -8 -14 23 -7 -6 -12 -21 -10 -22 -11 -4 -18 -15 28 -17 -29
right_child=2 7 3 5 8 17 14 9 10 16 19 -13 15 26 -16 27 25 -19 -20 20 22 -23 -24 -25 -26 -27 -28 29 -30 -31
leaf_value=-0.0017615695873240619 0.018436152496703748 -0.0017867249106767184 0.00026732326358407072 0.011455376854614389 -0.01174004661260436 -0.0016947742695541342 0.014036654823544903 -0.0074201604854306109 -0.00035654761042921897 -0.0027227185261532822 0.0035333516306087069 0.0046077829290577244 -0.012863753792251423 -0.0033476611282602545 0.0068281194150024722 0.0087159509223844866 0.0032715496748232384 0.0049465308021577484 -0.0053421581271429616 -0.005734522206322052 -0.0058533104732568786 -0.0057001829290317498 -0.0013132973627958408 0.002952653332991469 -0.0067457176848960514 -0.001685397043032855 0.0037652822361755097 -0.012676932674504263 -0.0018106096843764519 -0.0030137845171405342
leaf_weight=2554 554 726 522 1038 670 537 643 546 753 572 567 3524 221 305 1939 223 686 4122 2357 1388 970 4357 7343 3408 792 4372 2269 202 1263 977
leaf_count=2554 554 726 522 1038 670 537 643 546 753 572 567 3524 221 305 1939 223 686 4122 2357 1388 970 4357 7343 3408 792 4372 2269 202 1263 977
internal_value=1.74584e-06 -0.00146904 0.00584127 0.0037387 -0.00277549 0.00552256 0.0104806 0.00102229 -0.0036577 -7.57217e-05 -0.00303215 0.00350208 -0.000737686 0.000567453 0.00868979 -0.00307661 0.000370152 0.00416835 -0.00683123 -0.00207858 -0.00241504 -0.00492475 -0.00185768 0.00211969 -0.00394097 -0.000998108 0.00289341 -0.00224623 -0.000149792 -0.00480413
internal_weight=50400 40253 10147 7011 26419 5697 3136 13834 18405 9584 15378 4250 8014 5128 2582 2886 9038 4659 3027 10268 9701 5110 8313 3980 1314 5058 2574 2665 1486 1179
internal_count=50400 40253 10147 7011 26419 5697 3136 13834 18405 9584 15378 4250 8014 5128 2582 2886 9038 4659 3027 10268 9701 5110 8313 3980 1314 5058 2574 2665 1486 1179
cat_boundaries=0 1 4 5 21 24 25 40 43 46 47 50 66 69 83 99 115 131 147 163 178 194 210 211 214 217
cat_threshold=24 16384 1218460041 790608 24 256 67112960 139270 8208 16 16777216 1048704 71303426 0 2048 65544 2 129 67108864 1 8192 2 16779264 1050624 24 16809988 648 4194304 0 134291712 0 131072 34604041 8 2048 8585216 4194304 67109154 536870912 4 67109112 3221265322 2123268 1023412225 239161880 327811 32 18622617 880841242 2846760 75497728 72355840 2149580800 528 16 16785440 4202496 258 2147483648 4227072 8192 16777218 8519680 4096 540672 8320 1897939462 1241579524 655713 0 0 10486016 2285895808 4194304 2214723592 545521668 24576 2130944 134217728 2147745792 2419065856 0 264256 131072 2112 16 135266305 1619001352 64 1048576 285220896 1025 103809024 1073750530 0 262144 134217728 0 128 2056 1058816 16 1048576 2097156 134217728 139264 268435456 603979776 134223872 262165 0 268468240 536870912 0 130 33554432 3204 8388608 80 8454402 16384 0 33554432 65600 33554976 134291456 0 131144 0 308281376 32 138412032 16 64 34082816 268976192 268435584 8388609 4224 0 0 571473920 570953732 8388608 2080 2048 4104 2097152 1048576 0 1073741824 2189426688 134219264 69632 0 536871424 33554432 2684354566 16384 4120 33554452 16448 20 541098004 262656 33574912 32 1280 1280 0 8448 2080 2147483648 0 1032 33280 1064960 537411584 2048 0 528384 128 2097216 8208 1310720 2164262912 0 134217730 4202500 256 8192 33554444 4726785 256 16777216 288 268435456 2629632 16392 33554432 0 536576 0 1024 2361416 0 536870912 0 2415919104 16456 8 2147483648 0 3538944 67108993 134217728 266244
is_linear=0
shrinkage=0.05


Tree=22
num_leaves=31
num_cat=19
split_feature=28 28 30 37 30 34 37 28 30 36 1 37 37 7 37 15 36 36 36 36 36 36 0 37 36 34 29 12 36 36
split_gain=156.688 50.7869 35.6872 33.9455 17.9338 16.1855 16.3823 16.1324 14.2015 13.9443 13.1946 12.7964 10.5727 10.4142 9.16969 9.0793 9.04676 8.91852 8.46996 7.62688 6.44879 5.91973 5.85399 5.99166 5.76189 5.63401 5.54961 5.44771 5.43735 5.34416
threshold=3.2561949065753395 2.3301806705338621 0 1 2 0.92291557788848888 3 5.5140511648995547 4 5 3.4999998807907109 6 7 4.1437273025512704 8 0.85865348577499401 9 10 11 12 13 14 4.7000000476837167 15 16 0.58750000596046459 1.391687261577347 3.5478006601333623 17 18
decision_type=2 2 1 9 1 2 9 2 1 9 2 9 9 2 9 2 9 9 9 9 9 9 2 9 9 2 2 2 9 9
left_child=1 4 9 24 14 10 -7 17 12 -2 13 29 -3 18 15 -1 -8 -5 -6 -13 -20 -18 23 -11 -4 -21 -14 -19 -27 -10
right_child=2 8 3 7 5 6 16 -9 11 22 -12 19 26 -15 -16 -17 21 27 20 25 -22 -23 -24 -25 -26 28 -28 -29 -30 -31
leaf_value=-0.013870596198170019 0.017259129485478406 -0.0010815312184404072 0.00051145794155875847 -0.0024977061396563981 -0.0044343039997589324 -0.0076610666232539305 0.0033064687151679521 0.013419258435981461 0.0019056369021365591 -0.00032607717510393778 0.012264154215664135 0.0062590519533841874 0.003920005480459743 -0.011450369937866483 -0.0026512033865555059 -0.0055557389381327687 -0.0059189895049997551 0.003247680777951803 0.0056315697033185669 0.0037416325335732047 5.4261286989621745e-06 -0.0021314029251438727 0.014570163272836592 0.0083720979415034587 -0.0068319885121537263 -0.0049344544552390587 0.010107678461405005 0.0068461968784985523 0.00014619781086956172 -0.0067939980435037187
leaf_weight=370 625 1016 411 411 998 1657 666 569 210 220 209 552 3053 210 3152 3831 1228 2105 547 1010 6173 7378 356 1689 711 559 427 2266 6904 887
leaf_count=370 625 1016 411 411 998 1657 666 569 210 220 209 552 3053 210 3152 3831 1228 2105 547 1010 6173 7378 356 1689 711 559 427 2266 6904 887
internal_value=1.33954e-06 -0.00132933 0.00583884 0.00374415 -0.00263827 -0.00182172 -0.00307991 0.00540643 0.0010329 0.010464 -0.000127911 -2.49043e-06 0.00336753 -0.000460901 -0.00473982 -0.00628501 -0.00224513 0.00445385 -0.000155409 0.000614249 0.000478504 -0.0026839 0.00849942 0.00738565 -0.00411708 0.000233662 0.00468016 0.00511295 -0.000234074 -0.00508128
internal_weight=50400 41037 9363 6473 26419 19066 10929 5351 14618 2890 8137 10122 4496 7928 7353 4201 9272 4782 7718 9025 6720 8606 2265 1909 1122 8473 3480 4371 7463 1097
internal_count=50400 41037 9363 6473 26419 19066 10929 5351 14618 2890 8137 10122 4496 7928 7353 4201 9272 4782 7718 9025 6720 8606 2265 1909 1122 8473 3480 4371 7463 1097
cat_boundaries=0 1 4 5 8 9 24 27 30 33 49 64 80 95 111 127 130 145 161 176
cat_threshold=24 16384 144717833 262224 6 38805672 570429448 294913 24 75497736 4096 139264 16 16 16777472 1057024 4194560 2147485728 4194304 65536 16777218 139264 68157441 540673 2148007936 23880 327680 1023412353 241390104 1376387 135809529 2147782714 3139204 526849 1048577 1082196016 9216 2147483650 4194304 24576 67108864 268443648 41945088 0 4194304 131072 263168 2228225 4096 0 0 8388864 134217856 0 2214592512 545521668 24576 2130944 64 2147745792 2418017280 0 264256 1 268960768 1073807368 64 0 1048584 33556480 1207960080 533632 8388672 2048 2230272 1073741824 8650752 0 0 12298 536870944 0 524548 34078720 0 8388672 1073741824 2550136832 21758976 8256 286720 512 1073741824 72 8448 33554432 262144 201326592 6144 16452 134217728 0 0 603979777 136314880 2155937796 0 2147516944 536870912 0 400 16777280 0 268435968 4722701 49152 0 139493380 96 64 536871168 67108896 0 65536 33556484 268443648 80 134162 134283265 299008 2722103316 262144 33558528 32 1024 1280 0 8192 2080 2147483648 536870912 1024 134251008 1048576 536887296 16809984 0 40 2112 167772162 1028 268468224 33554441 520 0 65538 2048 306 536870912 1074020400 64 1048592 2097152 16384 0 0 524304 0 0 2048 0 4202496 2097152 8192 18874368 524289
is_linear=0
shrinkage=0.05


Tree=23
num_leaves=31
num_cat=17
split_feature=11 28 37 30 8 29 37 37 36 34 36 36 36 34 36 36 28 36 18 36 15 36 11 16 37 19 36 0 36 36
split_gain=143.252 47.7402 40.3166 22.721 20.1762 19.0244 18.7506 17.3268 14.8843 13.4044 13.1357 11.3904 11.228 10.6758 9.08967 8.67385 8.62509 8.48381 6.84514 6.26986 6.31956 6.10763 6.06304 5.91312 6.06807 5.83128 6.00205 5.4172 5.31903 5.04891
threshold=3.0997776985168461 3.8000001737049653 0 1 6.7000000476837167 2.628954429781174 2 3 4 0.58550000190734874 5 6 7 0.65349999070167553 8 9 1.7962925987584251 10 3.2190349102020268 11 0.70000001788139354 12 7.6010355949401864 3.1201643943786626 13 2.6999999284744267 14 1.7434445023536684 15 16
decision_type=2 2 9 1 2 2 9 9 9 2 9 9 9 2 9 9 2 9 2 9 2 9 2 2 9 2 9 2 9 9
left_child=2 6 8 5 7 13 23 -5 -1 -10 22 -8 -9 -4 -15 -11 29 -18 21 -16 -21 -13 -3 24 -2 26 -17 -22 -19 -14
right_child=1 10 3 4 -6 -7 11 12 9 15 -12 18 16 14 19 25 17 28 -20 20 27 -23 -24 -25 -26 -27 -28 -29 -30 -31
leaf_value=0.0070155734006968149 -0.0090851347348515007 0.011593807333290615 0.0057092605200057371 -0.0087852835802334599 0.014027127010311233 -0.018330711070149316 0.0092144243255977455 0.003198292946191872 0.0043429494640749517 -0.0047673264544923419 0.0069062031123287796 -0.0040109209798352237 0.0011127652020475624 -0.0097575514231167948 0.001626185595178381 0.0031620512960588696 -0.0069568257572831006 0.0027112694794973074 0.0047301208331126752 -0.010794048852821512 -0.0060884409106380707 0.0022628225786214501 0.020338181952200662 0.0026679784992531767 -0.0015025376142741389 0.0021242354938324592 -0.0015102097486301596 -0.002868600452648288 -0.0010361375591098235 -0.0038853165709290998
leaf_weight=887 366 1017 242 866 200 261 820 1144 1721 1030 2399 420 543 858 420 792 547 1063 3149 397 2251 3684 274 501 1008 2437 4649 3351 7791 5312
leaf_count=887 366 1017 242 866 200 261 820 1144 1721 1030 2399 420 543 858 420 792 547 1063 3149 397 2251 3684 274 501 1008 2437 4649 3351 7791 5312
internal_value=1.35327e-06 0.00437887 -0.00162126 -0.00273941 -0.00173155 -0.0049905 0.0025702 -0.00191799 0.000827332 0.000300109 0.00924136 0.0036159 -0.00154602 -0.00452742 -0.00487471 -0.000475007 -0.00190692 -0.000962522 0.00296425 -0.00419252 -0.00461025 0.00160433 0.0133848 -0.00191456 -0.0036358 8.57834e-05 -0.000817883 -0.00417132 -0.000578037 -0.00341798
internal_weight=50400 13638 36762 25246 17466 7780 9948 17266 11516 10629 3690 8073 16400 7519 7277 8908 15256 9401 7253 6419 5999 4104 1291 1875 1374 7878 5441 5602 8854 5855
internal_count=50400 13638 36762 25246 17466 7780 9948 17266 11516 10629 3690 8073 16400 7519 7277 8908 15256 9401 7253 6419 5999 4104 1291 1875 1374 7878 5441 5602 8854 5855
cat_boundaries=0 3 4 7 10 26 42 58 74 89 104 120 136 152 155 170 185 201
cat_threshold=4028678150 1117143045 5245233 6 419956736 176189976 2981889 1048576 328 2 33554456 67108864 4112 34603536 67108884 16777248 128 32768 0 64 537411584 5120 2176 0 536875008 256 67109120 4096 2147622918 16 0 16785664 1057024 4194304 2147483680 536870912 65536 2 139264 68161536 524289 8192 278528 512 1040 33562624 8448 140320 1073741824 0 2415920256 45056 16 2147483904 262272 16448 16384 1153 33556992 1 67108912 1181824 75497600 2147483648 1024 2147516416 1024 4096 0 0 2147648000 2129984 131072 1 2148532224 1073774592 49152 134483972 2048 0 2098176 134219296 276825089 67117056 546310274 0 0 32784 131072 0 32 268435456 6356992 268566600 2624 268435456 524417 320 16777216 2 675545088 637534208 8390656 96 268435520 2097682 35651588 0 98304 537396224 545259616 1024 32768 256 1073872896 8 0 0 0 2136 2099712 1 671090688 0 8192 4096 143368 0 1146880 32 0 256 1179648 268435520 268435457 8192 1073741824 0 4128 0 142608900 4096 0 0 536903680 262145 262144 528384 335544322 8650752 525344 4100 0 33570824 262144 8192 0 134218753 1024 2097152 131088 541075716 201343488 603987968 3758096392 16 2228224 4 536870912 256 2151743488 32768 536887297 8192 16777220 16388 0 402673664 269486080 270848 4198416 0 0 301989888 33570816 4198401 393224 3145729 2 32 4194320 32 33554433 0 2048 16384 16385 48 1073742354 1073741824 6176
is_linear=0
shrinkage=0.05


Tree=24
num_leaves=31
num_cat=21
split_feature=4 28 11 37 37 37 34 1 36 29 31 36 36 37 30 37 36 37 35 36 36 5 36 36 36 36 30 36 36 34
split_gain=130.957 39.4574 39.3495 26.3855 19.3258 17.973 16.3701 14.6561 13.1895 11.6739 11.5153 11.3716 11.3591 10.5856 10.2432 9.95504 9.7149 9.48304 16.6693 9.24567 8.95066 8.69969 8.55364 7.01307 6.45974 6.45573 6.2654 6.20643 5.98474 5.8718
threshold=3.1712921857833867 4.2633832863398968 2.3999999761581425 0 1 2 0.75249999761581432 4.9000003337860116 3 2.5025262965464186 4 5 6 7 8 9 10 11 22.355000495910648 12 13 3.8999999761581425 14 15 16 17 18 19 20 0.75249999761581432
decision_type=2 2 2 9 9 9 2 2 9 2 1 9 9 9 1 9 9 9 2 9 9 2 9 9 9 9 1 9 9 2
left_child=2 3 4 8 10 20 9 15 -2 22 13 -7 -3 26 -14 -8 -5 18 -12 -17 -4 29 -6 -22 -21 -13 -1 -16 -18 -10
right_child=1 12 5 16 6 11 7 -9 21 -11 17 25 14 -15 27 19 28 -19 -20 24 23 -23 -24 -25 -26 -27 -28 -29 -30 -31
leaf_value=-0.00672868603852833 0.0048750883531197466 0.018202754838586698 0.0088755753317252602 0.0094972881825319318 -0.0035036358353252167 -0.0074363262200316657 -0.013274898836502638 0.010412201046228137 0.0048501304073424924 -0.011162629861046389 0.013798666019050871 0.0037817796154153167 0.012864747543082009 -0.0058432795429780937 0.0090239221627188299 0.0027763814116454682 -0.0013728793373063081 -0.0049067277518281306 -0.0049174104831713195 -0.0066465479735413006 -0.0032853045460563765 -0.011679360390833692 0.0021742517599894081 0.0027669898283903174 -0.0027540034511379279 -0.00080023330356974597 -0.019229250855097899 0.0026695299259999411 0.0041503433143012776 -0.0038095562652723774
leaf_weight=216 538 355 547 833 796 593 226 205 232 201 200 849 850 1101 806 687 521 2684 289 1200 520 309 3651 4595 11993 7182 337 837 5911 1136
leaf_count=216 538 355 547 833 796 593 226 205 232 201 200 849 850 1101 806 687 521 2684 289 1200 520 309 3651 4595 11993 7182 337 837 5911 1136
internal_value=1.24505e-06 0.00448117 -0.00144808 0.00292316 -0.00269422 0.000623242 -0.0019674 -0.00280636 -0.00183811 0.000600757 -0.0055231 -0.000809687 0.00964968 -0.00893901 0.00830535 -0.00300201 0.0043782 -0.00374413 0.00258237 -0.00281955 0.00281108 -0.00403755 0.00114369 0.00213674 -0.00311661 -0.000305525 -0.0146416 0.00585276 0.00369376 -0.0023044
internal_weight=50400 12328 38072 9480 23786 14286 18959 14311 2215 4648 4827 8624 2848 1654 2493 14106 7265 3173 489 13880 5662 1677 4447 5115 13193 8031 553 1643 6432 1368
internal_count=50400 12328 38072 9480 23786 14286 18959 14311 2215 4648 4827 8624 2848 1654 2493 14106 7265 3173 489 13880 5662 1677 4447 5115 13193 8031 553 1643 6432 1368
cat_boundaries=0 3 6 9 25 26 42 56 58 59 62 77 79 95 111 124 140 155 171 172 188 204
cat_threshold=2617395329 174080536 3997842 5767352 3758205160 26264 1914864135 1081278564 5392880 536871432 2359297 537415696 0 8192 32 0 8194 32768 536872960 33554432 2147489024 1 538968064 24576 258 64 576 16777728 20480 0 73728 537923584 0 151011329 0 65536 167772168 16384 67109376 4202497 2181038080 80 0 4096 131072 8208 0 256 1048576 4194304 0 0 65536 0 0 67108864 0 2056 24 0 0 262144 0 2214855168 20 8704 73984 17301504 0 738197504 2147484672 102400 4194312 0 134219904 16793665 1064960 0 2048 2568 1048576 8394752 402661408 4 0 537919744 0 1048576 6176 1 2151677952 3072 268567616 256 128 32768 1048584 4 33554432 69206016 8388608 1073742080 1744830480 0 33280 537133072 0 128 192 1207963905 2 16384 0 8 2149593344 268439552 0 1073745920 524293 768 2164262916 1073741890 134217748 545259776 0 0 0 6291456 142606338 287309824 32 270794760 0 16777350 256 134254720 33554466 0 268435488 4 302515200 98304 0 4718604 16826376 2048 4194308 640 1073745920 268436224 1024 64 67117056 2097184 64 536870928 1048577 537133056 4194336 0 3355443208 0 32772 266240 131072 45072 4096 8321 42991616 524289 8192 44 67125504 72353792 2147491846 0 16 151011328 8576 256 0 537919488 524304 2 8650753 4096 536870912 8192 67141634 536870912 0 536871936 134217728 4227080 277086208 2049 536903680 1073741856 294916 8192 268960800 148 0 4096
is_linear=0
shrinkage=0.05


Tree=25
num_leaves=31
num_cat=22
split_feature=11 28 34 37 36 36 37 12 36 36 36 36 30 30 30 36 30 1 36 36 30 36 36 36 36 34 36 0 29 37
split_gain=118.77 39.1775 33.4195 21.6537 16.2689 15.8649 15.5522 11.8686 11.5713 11.1314 10.1972 9.7817 9.34013 8.5919 8.52722 8.2688 7.67545 7.65919 7.48775 7.47472 7.36336 7.28929 6.03391 5.87929 5.66595 4.9014 4.72055 4.61608 4.40461 4.29053
threshold=3.0997776985168461 3.6768706355776111 0.75049999356269848 0 1 2 3 3.1994365453720097 4 5 6 7 8 9 10 11 12 3.1000002622604375 13 14 15 16 17 18 19 0.58550000190734874 20 1.6154973506927492 1.0625592518532521 21
decision_type=2 2 2 9 9 9 9 2 9 9 9 9 1 1 1 9 1 2 9 9 1 9 9 9 9 2 9 2 2 9
left_child=2 6 5 11 -5 -1 21 10 -3 -7 -6 -4 28 27 19 -8 -10 -14 -16 -12 -9 -2 -15 -17 -18 -24 -22 -11 -13 -27
right_child=1 8 3 4 7 9 15 20 16 13 14 12 17 22 18 23 24 -19 -20 -21 26 -23 25 -25 -26 29 -28 -29 -30 -31
leaf_value=0.0085303475166072715 0.0090552602704789438 0.019839591552680804 -0.0097408367248253691 0.0041914633038778347 0.0015124391850772296 -0.0036380503290005168 0.0052347315768507263 0.0076588669418553223 0.010289037827076328 -0.0072318987234284843 -0.0056671679023988985 -0.0063448624922332261 -0.0032260653271532868 0.0069727408290895928 -0.0078187051008927824 -0.005482700689983893 0.0086236412401954846 0.0068177506143692881 -0.0030944072512572533 0 0.004671888426962611 0.0034123930736715304 0.0046735475159833039 0.00010307716315161958 0.0035176504914000099 0.0057523251897723011 -0.0010196190251618074 -0.00031241619253169988 -0.014540432004672338 5.5842614924399837e-05
leaf_weight=659 695 200 976 1120 1492 1340 699 362 1489 274 678 1238 2939 657 927 528 951 200 11243 3740 441 3901 1101 3670 1505 369 1880 2173 204 2749
leaf_count=659 695 200 976 1120 1492 1340 699 362 1489 274 678 1238 2939 657 927 528 951 200 11243 3740 441 3901 1101 3670 1505 369 1880 2173 204 2749
